{
    "layers": [
        {
            "name": "input_layer",
            "type": "input",
            "size": 50
        },
        {
            "name": "hidden_layer",
            "type": "blstm",
            "size": 200,
            "bias": 0
        },
        {
            "name": "output_layer",
            "type": "softmax",
            "size": 17,
            "bias": 0
        },
        {
            "name": "postoutput",
            "type": "multiclass_classification",
            "size": 17
        }
    ],
    "weights": {
        "hidden_layer": {
            "input": [
                0.0463919,
                -0.119528,
                0.0730668,
                -0.0849172,
                -0.200722,
                -0.00292719,
                0.0445617,
                -0.239995,
                0.0869566,
                0.254188,
                0.00817786,
                0.197353,
                0.0518422,
                0.124251,
                0.0968579,
                -0.0181346,
                0.0119673,
                0.135711,
                0.271913,
                0.133418,
                -0.0952397,
                -0.107963,
                0.339185,
                -0.100539,
                0.416608,
                0.231818,
                -0.143262,
                0.0598213,
                -0.0508597,
                0.0190315,
                -0.00274681,
                0.000959991,
                0.224079,
                0.135298,
                0.346436,
                -0.0412219,
                0.152626,
                -0.122348,
                -0.186883,
                -0.111531,
                0.0167953,
                0.0764949,
                0.237884,
                -0.0281294,
                0.00539494,
                -0.310126,
                -0.0903385,
                -0.0324168,
                -0.159326,
                0.124326,
                -0.349107,
                0.281192,
                0.236363,
                -0.034786,
                0.260426,
                0.127046,
                0.134422,
                -0.120321,
                0.330018,
                -0.159838,
                0.158913,
                0.40129,
                -0.276379,
                0.0635775,
                0.225361,
                -0.363238,
                -0.148747,
                0.280349,
                0.587819,
                0.0379819,
                0.102204,
                -0.367593,
                0.122275,
                0.303863,
                0.282595,
                0.417206,
                -0.321905,
                -0.327085,
                0.0649365,
                -0.1915,
                0.117963,
                -0.166624,
                0.485975,
                -0.0591459,
                0.2381,
                -0.0106924,
                0.137668,
                -0.392976,
                -0.566889,
                0.0374118,
                -0.58351,
                -0.126177,
                0.00655376,
                0.0338273,
                -0.0618094,
                0.146256,
                0.471779,
                -0.0418866,
                0.0348369,
                -0.462469,
                0.068971,
                0.0665163,
                -0.0504764,
                -0.13684,
                -0.0116456,
                -0.0379398,
                0.0112444,
                -0.19221,
                -0.0219118,
                0.115879,
                -0.010779,
                -0.112979,
                0.0933796,
                -0.189424,
                -0.0783424,
                -0.091182,
                0.0584304,
                0.158999,
                0.136942,
                -0.0101398,
                -0.103658,
                -0.245041,
                0.122077,
                0.0853837,
                0.0664086,
                0.0242342,
                0.12177,
                -0.119661,
                0.190916,
                -0.152741,
                -0.0846327,
                0.125194,
                0.031855,
                -0.00210165,
                0.171121,
                0.0499459,
                0.0643495,
                -0.0660609,
                0.0822355,
                0.0414399,
                0.115133,
                0.218502,
                0.188847,
                -0.0526967,
                -0.130146,
                -0.0659106,
                -0.0527613,
                -0.0531716,
                -0.164236,
                -0.121283,
                -0.0573296,
                0.121151,
                -0.0844037,
                -0.0688717,
                0.0462141,
                0.0546644,
                0.0705239,
                0.0158597,
                0.0395884,
                0.158433,
                -0.0348912,
                0.225588,
                -0.0265146,
                -0.13308,
                0.0618338,
                0.00406088,
                0.101019,
                0.262998,
                0.144916,
                -0.113508,
                0.138461,
                -0.254902,
                0.0789647,
                0.0720375,
                0.369097,
                0.071214,
                -0.153235,
                -0.0403096,
                0.227158,
                -0.0993073,
                0.0236058,
                -0.129591,
                0.0694004,
                0.139451,
                0.203516,
                0.020079,
                -0.0269273,
                -0.289097,
                -0.0156758,
                -0.130603,
                0.130817,
                0.00508183,
                0.0407884,
                -0.16808,
                0.00675062,
                -0.0622971,
                0.0784592,
                0.0464177,
                0.0212531,
                -0.203697,
                0.0318295,
                0.189571,
                0.175121,
                -0.152222,
                -0.11755,
                0.377684,
                -0.0347834,
                0.633426,
                0.105685,
                -0.217628,
                -0.273665,
                -0.0255069,
                0.0791376,
                0.474471,
                -0.143554,
                0.0655211,
                -0.261181,
                0.0296648,
                -0.0426634,
                -0.0181704,
                -0.0475991,
                -0.157894,
                -0.0291519,
                0.295504,
                -0.243298,
                -0.0746839,
                -0.127058,
                0.172369,
                -0.258316,
                -0.178355,
                -0.166502,
                0.0498671,
                0.436706,
                0.132179,
                -0.131461,
                -0.0519078,
                0.231541,
                -0.00766434,
                -0.39182,
                0.300738,
                -0.0561769,
                0.15861,
                -0.327432,
                0.19216,
                -0.0272647,
                0.221885,
                -0.287492,
                0.0531119,
                0.0633074,
                0.25837,
                0.685603,
                0.11775,
                0.345777,
                -0.297839,
                -0.771495,
                0.191809,
                -0.125089,
                -0.106738,
                -0.510311,
                0.11642,
                -0.191851,
                -0.215386,
                0.448244,
                0.0601612,
                -0.0716882,
                0.193039,
                -0.156577,
                -0.367484,
                -0.443055,
                0.0847378,
                -0.0906739,
                0.231443,
                -0.227884,
                -0.173008,
                -0.444545,
                -0.615759,
                0.654233,
                0.229949,
                -0.240454,
                0.536106,
                -0.29678,
                0.218414,
                -0.406026,
                0.164186,
                0.123944,
                -0.100634,
                0.150969,
                0.367936,
                0.629944,
                0.083047,
                0.482254,
                0.289847,
                -0.102998,
                0.440293,
                0.0171594,
                -0.427539,
                -0.859032,
                -0.0962884,
                0.143768,
                0.997016,
                0.120593,
                -0.156677,
                -0.139352,
                0.00146366,
                -0.121326,
                -0.0774435,
                -0.0872175,
                0.0814484,
                0.053818,
                0.2132,
                0.0469863,
                -0.078036,
                0.105357,
                -0.155036,
                -0.107359,
                0.245881,
                0.00992376,
                0.0465229,
                -0.130182,
                -0.0271759,
                -0.0761242,
                0.148485,
                0.0956772,
                -0.161203,
                -0.0766214,
                -0.0394697,
                -0.00367315,
                0.22273,
                -0.0480311,
                0.0543762,
                0.0901191,
                -0.00652864,
                -0.118496,
                0.116519,
                -0.0316116,
                -0.0795363,
                -0.0155594,
                0.0873664,
                0.240008,
                0.0244219,
                0.231829,
                0.0868501,
                0.0056067,
                -0.0927129,
                -0.0869755,
                -0.232498,
                -0.101507,
                -0.00906393,
                -0.184401,
                0.0841472,
                -0.126241,
                -0.037403,
                0.0890697,
                -0.101066,
                0.206985,
                0.141512,
                0.0267399,
                -0.0301097,
                0.25294,
                -0.112292,
                0.0689737,
                0.38013,
                -0.210979,
                0.195872,
                0.0195188,
                -0.0844353,
                -0.047511,
                -0.00124596,
                0.321,
                -0.0319943,
                0.0573479,
                -0.018858,
                0.223373,
                -0.00361005,
                0.0736773,
                0.190547,
                -0.272351,
                -0.0697241,
                -0.138989,
                0.0403855,
                0.0631787,
                -0.0963266,
                0.324367,
                -0.107657,
                0.185184,
                0.102125,
                0.1914,
                -0.131367,
                -0.344966,
                0.0605507,
                -0.393839,
                0.0348265,
                0.0179679,
                0.0994763,
                -0.0943461,
                0.0990654,
                0.20341,
                0.0222602,
                0.104433,
                -0.0923128,
                -0.261631,
                0.0105713,
                -0.355697,
                0.054234,
                0.376784,
                -0.170807,
                0.0473941,
                -0.219545,
                0.0750631,
                0.133306,
                0.215251,
                0.285,
                -0.247125,
                -0.37735,
                -0.0274924,
                0.200467,
                0.109429,
                0.0686354,
                -0.108364,
                -0.090631,
                0.247046,
                0.15119,
                -0.0388264,
                -0.166096,
                0.203627,
                -0.0220509,
                -0.0537719,
                0.114236,
                0.169342,
                0.0942268,
                0.0824778,
                -0.078021,
                -0.0937954,
                -0.203104,
                0.0124804,
                0.0983368,
                -0.182517,
                -0.108893,
                0.094112,
                -0.117404,
                -0.00395227,
                -0.206622,
                -0.0625311,
                -0.298517,
                -0.0338443,
                -0.0199722,
                0.427813,
                -0.118642,
                -0.0432767,
                -0.170943,
                -0.00352503,
                -0.195366,
                -0.323255,
                0.000937361,
                0.153643,
                0.0824992,
                0.0527196,
                -0.446616,
                -0.181362,
                0.137618,
                0.07552,
                -0.108718,
                -0.0968161,
                -0.406252,
                -0.00360787,
                -0.171013,
                0.195767,
                0.174938,
                -0.141671,
                0.0184457,
                -0.0182311,
                0.00126175,
                -0.163366,
                -0.0286037,
                -0.035363,
                -0.253731,
                0.166875,
                -0.157742,
                0.148436,
                0.0672254,
                0.0544543,
                0.146684,
                -0.107021,
                -0.122832,
                0.338751,
                -0.0121342,
                -0.109109,
                -0.0209702,
                0.168878,
                -0.199487,
                0.113878,
                -0.0564591,
                0.265072,
                -0.28547,
                0.00944636,
                0.0226153,
                0.127171,
                0.155288,
                -0.0381681,
                -0.171566,
                0.127454,
                0.158165,
                0.137127,
                -0.157424,
                -0.17168,
                0.203848,
                -0.0431043,
                0.238508,
                0.0758771,
                -0.0780339,
                -0.192461,
                -0.188783,
                0.10069,
                -0.141805,
                0.0478379,
                -0.134531,
                -0.0594181,
                0.0649364,
                0.0659232,
                -0.031643,
                0.054863,
                -0.095939,
                -0.11578,
                0.126153,
                -0.140166,
                -0.113404,
                0.0655445,
                -0.00616246,
                0.0076403,
                0.0130745,
                -0.184661,
                0.0615149,
                0.108205,
                -0.0167304,
                0.128206,
                0.0847413,
                -0.103132,
                -0.0857803,
                0.0792693,
                0.180231,
                0.0983113,
                0.28662,
                -0.0452167,
                0.163684,
                -0.0875918,
                -0.055394,
                -0.134426,
                -0.0427116,
                0.0275333,
                0.148502,
                0.00289783,
                -0.293019,
                -0.374849,
                0.146902,
                0.0492846,
                0.159904,
                -0.320618,
                -0.051287,
                0.337688,
                0.165277,
                -0.0611063,
                0.237259,
                -0.0352209,
                0.197973,
                -0.281832,
                0.0930302,
                0.177862,
                -0.10014,
                -0.51008,
                0.225665,
                0.0621985,
                0.529909,
                -0.175308,
                -0.270446,
                0.537276,
                -0.355278,
                0.47295,
                0.422626,
                -0.525424,
                0.265916,
                -0.457689,
                -0.361505,
                -0.57123,
                -0.0461734,
                -0.282308,
                0.0850125,
                0.00955799,
                0.261611,
                0.594896,
                -0.140708,
                0.404934,
                -0.177416,
                -0.381014,
                -0.0850221,
                0.216549,
                -0.256314,
                -0.356045,
                -0.165795,
                -0.0569019,
                0.528234,
                -0.0582756,
                0.370977,
                0.321346,
                -0.0563966,
                -0.49532,
                0.0959073,
                0.0369352,
                0.375939,
                -0.255732,
                -0.44738,
                -0.51027,
                -0.335628,
                0.434843,
                0.791711,
                0.36662,
                -0.119382,
                -0.0578777,
                -0.275244,
                0.0116839,
                -0.148136,
                -0.46027,
                -0.22015,
                0.124232,
                0.217029,
                -0.528743,
                0.19104,
                0.243919,
                0.0334819,
                -0.0130019,
                0.0488301,
                -0.185489,
                0.145514,
                0.105369,
                0.436674,
                -0.247451,
                -0.362881,
                0.223945,
                0.0131017,
                -0.441155,
                0.504294,
                -0.0241901,
                0.00401925,
                -0.15034,
                0.421506,
                -0.254092,
                0.414631,
                -0.501945,
                0.0720753,
                0.0560416,
                0.470904,
                0.22468,
                -0.0914596,
                -0.0332883,
                0.0547947,
                -0.13404,
                0.0827975,
                -0.0649585,
                -0.04544,
                0.0670094,
                0.164146,
                -0.115054,
                -0.0550019,
                -0.00867778,
                -0.00334423,
                -0.0733745,
                0.200225,
                0.122842,
                -0.00972109,
                -0.183434,
                0.0841091,
                0.0852982,
                0.233094,
                0.0252441,
                -0.1413,
                -0.167488,
                -0.216164,
                0.206391,
                0.340198,
                -0.192346,
                0.00724981,
                -0.125102,
                -0.0646155,
                -0.0321697,
                0.0619371,
                -0.106927,
                -0.0195308,
                0.0648814,
                0.0595391,
                0.0823174,
                0.156672,
                0.252749,
                -0.105887,
                -0.0457649,
                0.0706471,
                0.0379819,
                -0.149714,
                -0.161683,
                -0.150171,
                -0.0210593,
                0.232555,
                0.540944,
                -0.16691,
                -0.213717,
                -0.0677551,
                -0.372626,
                -0.47782,
                -0.252342,
                0.185689,
                -0.427898,
                -0.0101956,
                -0.0319974,
                -0.218919,
                0.466051,
                -0.234972,
                0.0635426,
                0.469652,
                0.178236,
                -0.41847,
                -0.805432,
                -0.036407,
                -0.319508,
                0.300807,
                -0.062676,
                -0.181642,
                -0.316958,
                -0.433378,
                0.538291,
                0.531561,
                -0.169508,
                0.429363,
                0.0674103,
                0.00206786,
                -0.7002,
                0.373384,
                -0.17717,
                -0.181539,
                -0.127854,
                0.467669,
                0.675452,
                -0.0493525,
                0.747619,
                0.0459918,
                0.0545111,
                0.115067,
                0.150225,
                -0.318973,
                -0.672539,
                -0.220238,
                -0.160343,
                0.632535,
                -0.245158,
                0.031779,
                -0.251806,
                0.0476172,
                0.193938,
                -0.0796886,
                -0.071132,
                0.255627,
                -0.0252732,
                0.155222,
                -0.0637844,
                0.00301868,
                0.016691,
                -0.0810493,
                0.0053589,
                0.190617,
                0.141677,
                0.129349,
                -0.260379,
                -0.198861,
                -0.0954814,
                0.0374889,
                0.256831,
                -0.0736038,
                0.0913248,
                0.0656319,
                0.0107503,
                0.290595,
                0.0848798,
                0.20806,
                0.0152559,
                -0.0574265,
                -0.110492,
                0.235082,
                -0.158984,
                -0.258693,
                0.211308,
                -0.112903,
                0.0479779,
                -0.153431,
                0.224039,
                -0.380084,
                -0.194443,
                -0.0723529,
                -0.0239943,
                0.102124,
                0.0600556,
                -0.274399,
                -0.071661,
                -0.147992,
                -0.310767,
                0.143245,
                -0.089758,
                0.0455782,
                0.045391,
                -0.102317,
                -0.0100393,
                0.108921,
                0.401142,
                -0.0544986,
                0.267132,
                0.14315,
                -0.261084,
                -0.250874,
                -0.34437,
                0.180643,
                -0.00604594,
                0.367731,
                0.152214,
                0.12335,
                0.243979,
                -0.0325595,
                0.0508232,
                -0.062917,
                0.287101,
                -0.163475,
                -0.00308359,
                0.491288,
                -0.1925,
                -0.199874,
                -0.0742468,
                -0.000742553,
                0.062548,
                -0.27438,
                0.0944035,
                0.396675,
                0.00369735,
                -0.0253323,
                0.0517239,
                -0.0827496,
                0.189774,
                0.213265,
                -0.0410782,
                -0.169522,
                -0.0129426,
                -0.0078182,
                0.294625,
                0.0440583,
                -0.263871,
                -0.0314912,
                -0.342062,
                0.0545898,
                -0.209683,
                0.119661,
                0.0465849,
                -0.38256,
                0.241799,
                -0.390298,
                -0.314101,
                0.305807,
                0.233187,
                0.362942,
                -0.0855176,
                -0.00462776,
                -0.0849043,
                0.406737,
                0.128765,
                0.0755014,
                -0.391299,
                -0.245265,
                0.164029,
                0.170521,
                0.259755,
                -0.450411,
                0.0575095,
                0.1423,
                0.0671246,
                0.163638,
                0.00714861,
                0.321745,
                0.408327,
                0.0746185,
                -0.224916,
                0.194209,
                -0.16725,
                -0.128228,
                -0.0526924,
                0.0244638,
                0.038726,
                -0.166907,
                0.260521,
                -0.586944,
                -0.165059,
                -0.0856954,
                0.167101,
                0.112368,
                0.216265,
                -0.172465,
                -0.243452,
                0.116905,
                0.169462,
                0.144627,
                -0.00744837,
                -0.167278,
                -0.205137,
                -0.28904,
                0.0216505,
                -0.172685,
                -0.315333,
                0.0769944,
                -0.0861914,
                -0.102917,
                0.157389,
                -0.220457,
                0.034822,
                0.23803,
                0.116553,
                0.0917318,
                -0.252152,
                -0.0894411,
                0.0798514,
                -0.0233525,
                0.112965,
                -0.0828802,
                -0.160377,
                -0.0222,
                0.244802,
                0.109406,
                0.216652,
                0.338002,
                0.0237043,
                0.187356,
                -0.146762,
                0.256727,
                0.176941,
                -0.153831,
                -0.0314266,
                0.167854,
                0.301398,
                -0.0110262,
                0.465093,
                -0.0957521,
                0.250514,
                0.127513,
                0.0135583,
                -0.215035,
                -0.335661,
                -0.311286,
                -0.158889,
                0.5307,
                0.398586,
                0.327488,
                0.594802,
                -0.415673,
                -0.248237,
                0.417597,
                0.133323,
                0.191885,
                0.402793,
                0.0370299,
                0.0391452,
                0.121111,
                -0.279216,
                -0.190718,
                -0.521428,
                0.410454,
                -0.39031,
                0.315084,
                0.222411,
                0.264897,
                0.547632,
                0.244968,
                -0.026919,
                -0.150377,
                -0.623019,
                -0.528173,
                -0.132694,
                0.548177,
                -0.24028,
                0.0187348,
                -0.27799,
                0.631302,
                0.586985,
                -0.606982,
                0.328199,
                0.198076,
                0.0162957,
                -0.119796,
                0.409571,
                0.0577575,
                -0.0451882,
                0.556219,
                -0.227145,
                0.611838,
                -0.00083544,
                -0.450427,
                0.0190442,
                -0.333799,
                -0.13283,
                0.759248,
                -0.18814,
                -0.0607249,
                -0.0659166,
                0.0459864,
                -0.0588015,
                -0.0879421,
                -0.0172731,
                -0.101165,
                -0.0371535,
                -0.0749453,
                0.0200061,
                0.0205459,
                -0.0232682,
                0.0127664,
                0.337644,
                -0.380914,
                0.0976169,
                0.136452,
                0.405698,
                -0.00659666,
                -0.207491,
                -0.369361,
                0.160421,
                0.217266,
                0.144793,
                0.366321,
                -0.313183,
                -0.354757,
                0.296378,
                -0.170888,
                0.157575,
                -0.189284,
                0.0875896,
                0.0161973,
                0.301992,
                -0.0275096,
                0.0392128,
                -0.256629,
                -0.47438,
                -0.18324,
                -0.286686,
                0.0833362,
                0.231604,
                -0.203576,
                -0.213351,
                0.16623,
                0.0566605,
                0.150645,
                -0.0537304,
                -0.351417,
                -0.197586,
                0.132787,
                0.191358,
                0.167559,
                0.141187,
                0.516038,
                0.10219,
                -0.375862,
                0.610363,
                0.0956207,
                0.0872165,
                0.537336,
                -0.187599,
                0.431784,
                -0.0266961,
                -0.486341,
                -0.283697,
                0.306504,
                0.359743,
                0.0733574,
                0.120239,
                -0.222069,
                0.0301028,
                -0.0392975,
                0.736957,
                0.388696,
                -0.244366,
                -0.232517,
                -0.222747,
                -0.113887,
                0.0392879,
                -0.281239,
                0.379715,
                -0.048818,
                0.350214,
                0.158803,
                0.383273,
                -0.233617,
                -0.264647,
                -0.167945,
                -0.47607,
                0.18277,
                0.0200851,
                -0.0682101,
                -0.204587,
                0.0337705,
                0.0444457,
                0.149268,
                -0.0905079,
                -0.198728,
                0.0597847,
                -0.0817192,
                -0.0369006,
                0.0187992,
                -0.0312648,
                -0.290398,
                -0.0669479,
                0.14679,
                -0.460784,
                -0.0887937,
                -0.155668,
                -0.632217,
                0.210398,
                -0.153664,
                0.155914,
                0.0720999,
                0.204041,
                -0.31636,
                -0.193189,
                -0.232959,
                -0.213195,
                0.0976645,
                -0.194557,
                -0.0871998,
                -0.515772,
                -0.218304,
                0.216552,
                0.00936677,
                0.106825,
                -0.158079,
                -0.0512779,
                0.242638,
                -0.411373,
                0.00926537,
                -0.280196,
                -0.0339716,
                -0.194466,
                0.172777,
                0.301726,
                0.24219,
                0.350274,
                0.00560114,
                0.104798,
                -0.080153,
                -0.122502,
                0.0838367,
                -0.112148,
                -0.111262,
                -0.124746,
                -0.0368053,
                0.019212,
                0.0149792,
                -0.112557,
                -0.0436038,
                -0.232704,
                0.225448,
                -0.0495703,
                0.178004,
                0.0677294,
                0.0179852,
                -0.215797,
                -0.0333257,
                -0.0536675,
                0.0658783,
                0.0941172,
                0.0277939,
                -0.038596,
                -0.0265751,
                0.0603941,
                -0.0758191,
                -0.00228955,
                0.109285,
                0.0839267,
                -0.0051497,
                0.160916,
                -0.0336226,
                0.0535085,
                0.120331,
                -0.117748,
                0.0116761,
                -0.140068,
                -0.194733,
                -0.0694395,
                0.144079,
                -0.0557816,
                0.0666601,
                0.219113,
                0.122038,
                -0.0302557,
                0.120099,
                0.154208,
                -0.0502035,
                -0.152793,
                -0.0118428,
                -0.145619,
                -0.095324,
                -0.140009,
                0.06399,
                -0.0655023,
                0.170774,
                -0.464851,
                0.214518,
                0.150968,
                -0.131047,
                0.436714,
                -0.00920837,
                0.186342,
                0.381223,
                0.0887347,
                -0.225648,
                0.134225,
                -0.00820506,
                -0.275632,
                0.104122,
                -0.259473,
                0.501007,
                0.0277006,
                -0.251734,
                -0.240773,
                -0.00647802,
                0.316074,
                0.186129,
                -0.0090624,
                -0.102056,
                -0.397587,
                -0.0746918,
                -0.258902,
                0.321593,
                0.0148546,
                0.131617,
                -0.0417039,
                0.129916,
                0.158893,
                -0.28601,
                -0.606787,
                -0.0408185,
                -0.273191,
                -0.0545519,
                -0.0204812,
                0.335649,
                -0.0112767,
                -0.219776,
                -0.257973,
                0.17228,
                0.274019,
                0.129777,
                0.452201,
                -0.235315,
                0.000936046,
                -0.155925,
                -0.405794,
                0.128404,
                -0.189793,
                -0.0586764,
                0.254323,
                -0.249403,
                0.0345029,
                0.307657,
                -0.883149,
                -0.494005,
                -0.099227,
                -0.627077,
                0.24513,
                0.0166028,
                -0.0232921,
                0.191768,
                -0.191787,
                -0.554292,
                -0.479821,
                -0.346096,
                -0.521485,
                0.149511,
                -0.265652,
                0.166038,
                -1.07974,
                -0.0404533,
                0.149757,
                -0.538003,
                0.206649,
                -0.00237187,
                0.378202,
                0.156899,
                -0.347194,
                -0.0148603,
                -0.689969,
                0.0929219,
                -0.398051,
                0.198062,
                0.104466,
                0.456046,
                -0.195867,
                -0.583668,
                0.0724826,
                0.113218,
                -0.150738,
                0.526208,
                -0.0181866,
                0.297142,
                0.239142,
                -0.557184,
                0.164695,
                0.21906,
                0.02301,
                -0.133845,
                -0.603552,
                0.039029,
                0.121662,
                -0.739691,
                -0.00707233,
                0.697255,
                0.0592035,
                0.42455,
                -0.337969,
                -0.311641,
                0.219143,
                -0.0887444,
                -0.0596898,
                0.708363,
                0.32106,
                -0.0545885,
                0.0275194,
                -0.350748,
                0.724536,
                -0.241364,
                0.337864,
                0.135148,
                -0.0811605,
                0.193741,
                0.447402,
                0.419798,
                0.267249,
                0.396071,
                0.153537,
                0.269956,
                0.774437,
                -0.388469,
                0.368667,
                -0.320372,
                -0.159372,
                -0.34424,
                0.39554,
                -0.0541984,
                -0.101675,
                0.31892,
                -0.424609,
                -0.0952024,
                -0.0376149,
                -0.109291,
                -0.0636835,
                0.37072,
                0.0142706,
                0.218009,
                0.244175,
                -0.120004,
                -0.196451,
                0.0780602,
                -0.00311153,
                0.147366,
                -0.194975,
                -0.0916813,
                -0.0600094,
                -0.189371,
                0.0297634,
                0.141084,
                0.0675966,
                0.0566682,
                0.00179052,
                -0.114019,
                -0.187309,
                -0.0934457,
                -0.039818,
                0.0494241,
                -0.068972,
                -0.0485461,
                -0.434572,
                -0.0898778,
                0.184844,
                0.0775586,
                0.0954238,
                0.129845,
                -0.256296,
                0.233398,
                -0.0138195,
                -0.0549936,
                -0.114084,
                0.0600982,
                -0.160909,
                0.223413,
                0.272685,
                0.287991,
                0.156248,
                0.185996,
                -0.138967,
                0.287451,
                -0.0394799,
                0.0162264,
                -0.0890374,
                -0.061811,
                0.0883165,
                0.122953,
                -0.153458,
                0.0922788,
                0.202939,
                -0.161816,
                0.314015,
                0.152729,
                0.174264,
                0.260885,
                0.185327,
                -0.241293,
                0.0713451,
                0.0227765,
                -0.0901052,
                -0.00693405,
                -0.0523946,
                -0.186004,
                0.0203177,
                -0.00571105,
                0.427039,
                0.0926669,
                0.247631,
                -0.231253,
                -0.0991919,
                0.0811583,
                0.160831,
                0.257479,
                -0.295431,
                -0.142228,
                -0.0466655,
                -0.296273,
                0.0127761,
                -0.090126,
                0.257715,
                -0.100673,
                -0.0843713,
                0.0842331,
                -0.000682889,
                -0.14025,
                -0.216613,
                0.0612375,
                -0.465043,
                0.0278606,
                -0.0675326,
                -0.0624712,
                0.0456546,
                0.0959206,
                0.387734,
                0.188352,
                0.135031,
                -0.340428,
                -0.250344,
                -0.00599301,
                0.130531,
                -0.0697047,
                0.305627,
                -0.0611058,
                0.0737302,
                0.0510226,
                -0.0754987,
                -0.200943,
                0.141441,
                0.227312,
                -0.152507,
                -0.0940559,
                -0.105255,
                0.3107,
                0.104302,
                -0.265255,
                -0.0332588,
                -0.0905431,
                0.19106,
                0.0633946,
                -0.183871,
                -0.128748,
                -0.151982,
                0.136963,
                -0.161278,
                -0.0115577,
                -0.0278535,
                -0.0596188,
                0.119428,
                -0.0351541,
                -0.0786761,
                0.00531989,
                -0.38494,
                -0.0714892,
                -0.104597,
                -0.0643942,
                0.0316406,
                -0.0703748,
                -0.215561,
                -0.26533,
                -0.0443497,
                -0.0548521,
                0.320216,
                0.241709,
                0.302874,
                -0.0816657,
                0.111122,
                0.00239766,
                -0.0147314,
                0.121821,
                0.274716,
                -0.126611,
                -0.207421,
                -0.188149,
                0.16399,
                -0.250631,
                -0.277957,
                -0.109882,
                0.154896,
                -0.187139,
                0.174518,
                0.0194297,
                0.32178,
                -0.201505,
                -0.040661,
                0.0467038,
                0.309083,
                -0.0666083,
                -0.17243,
                -0.35175,
                0.0348563,
                0.216757,
                -0.324602,
                0.180851,
                -0.314132,
                -0.397551,
                0.349096,
                -0.0806171,
                0.330155,
                0.33591,
                0.247375,
                0.0884525,
                0.325908,
                0.00740647,
                -0.0783776,
                -0.153259,
                -0.43811,
                0.0182061,
                -0.210128,
                0.0739507,
                0.428963,
                0.190403,
                -0.194842,
                0.223172,
                0.0899079,
                0.203426,
                -0.0675713,
                -0.160095,
                0.190798,
                -0.145602,
                0.0954862,
                -0.0324768,
                0.0847438,
                0.0360211,
                -0.109034,
                0.117949,
                0.0411067,
                0.0694474,
                0.0911075,
                0.0616559,
                -0.218133,
                -0.00904323,
                -0.423195,
                0.3266,
                -0.0576127,
                -0.239769,
                -0.504155,
                0.0983992,
                0.310811,
                0.527624,
                -0.12584,
                -0.304328,
                -0.332092,
                -0.296915,
                0.41502,
                0.505446,
                -0.182258,
                0.301708,
                -0.196169,
                0.12582,
                -0.198294,
                -0.183838,
                -0.289448,
                0.0729754,
                -0.173505,
                0.268049,
                0.655699,
                0.194482,
                0.433299,
                0.0784955,
                -0.248015,
                0.187954,
                0.324045,
                -0.262978,
                -0.311756,
                -0.332868,
                0.0766836,
                0.587096,
                -0.196635,
                -0.0126451,
                -0.262708,
                0.149806,
                0.0891078,
                -0.158685,
                -0.000399374,
                -0.207426,
                0.0560551,
                0.0141626,
                -0.0189263,
                0.000438373,
                0.0837761,
                -0.0632272,
                0.0245088,
                -0.0452304,
                0.218682,
                0.0498484,
                0.0031639,
                -0.13319,
                0.0937097,
                -0.0771618,
                -0.0730373,
                -0.118669,
                0.309803,
                0.0351138,
                0.183394,
                0.022265,
                0.136517,
                -0.0325691,
                -0.0629716,
                -0.104983,
                -0.0490899,
                -0.04628,
                -0.0512957,
                -0.0844551,
                -0.110916,
                0.00433492,
                0.0932865,
                -0.0963801,
                0.133597,
                0.0324293,
                0.130114,
                -0.204365,
                -0.0103252,
                0.0440487,
                0.0350127,
                0.0982832,
                -0.20415,
                -0.143694,
                0.474333,
                -0.0292988,
                0.337566,
                -0.268235,
                -0.52473,
                -0.0603919,
                0.0984664,
                0.162174,
                0.0293796,
                0.191669,
                -0.219682,
                -0.368955,
                0.188743,
                0.0341427,
                -0.0935076,
                0.0670898,
                -0.165347,
                0.0294819,
                0.0512914,
                -0.00361568,
                0.0265622,
                -0.128017,
                0.162749,
                0.131542,
                -0.322472,
                -0.14065,
                -0.0599663,
                0.0283417,
                0.000299653,
                0.106297,
                0.0588119,
                0.311829,
                0.313163,
                0.14666,
                0.104644,
                -0.0899489,
                0.133941,
                0.148115,
                0.106685,
                0.117069,
                0.132448,
                0.190789,
                0.145997,
                0.24329,
                -0.173905,
                -0.253805,
                -0.377468,
                0.0285294,
                -0.0806705,
                0.404673,
                -0.116141,
                -0.110857,
                0.116472,
                0.136044,
                -0.0663257,
                -0.121693,
                0.202516,
                -0.271959,
                -0.145567,
                -0.100496,
                -0.0270075,
                0.0227749,
                0.104754,
                0.149143,
                0.191011,
                -0.238789,
                -0.0751381,
                -0.111356,
                0.0719553,
                -0.0799867,
                -0.306871,
                -0.0577947,
                -0.0164116,
                0.149562,
                0.08353,
                0.189709,
                -0.0934908,
                -0.436076,
                0.176934,
                -0.000229706,
                0.0648033,
                -0.112848,
                -0.075614,
                0.166889,
                0.0293095,
                -0.121186,
                0.0779744,
                0.068646,
                -0.0995474,
                0.00923344,
                -0.231093,
                -0.169274,
                0.164405,
                0.0149467,
                -0.0619158,
                0.138066,
                0.0179737,
                0.103595,
                0.184779,
                -0.242283,
                0.0437071,
                -0.162615,
                -0.21319,
                0.0233674,
                0.149558,
                -0.021903,
                -0.0509992,
                -0.283631,
                0.304466,
                0.258643,
                -0.00862004,
                -0.0200636,
                -0.0807088,
                -0.329505,
                0.0607957,
                -0.283962,
                0.168774,
                0.359249,
                0.0841484,
                0.207807,
                0.00933511,
                0.108874,
                -0.0668249,
                -0.109155,
                0.461809,
                -0.0614553,
                0.103417,
                0.134251,
                0.124197,
                0.00429677,
                -0.173383,
                -0.126324,
                -0.0616175,
                -0.0639294,
                0.406246,
                0.177741,
                0.0919709,
                0.0613698,
                0.187815,
                -0.29441,
                0.175408,
                0.262939,
                0.289189,
                -0.170263,
                -0.0896677,
                -0.281797,
                -0.00933494,
                0.0269516,
                -0.0215597,
                -0.0374438,
                -0.0363168,
                0.0666776,
                0.182962,
                0.0594185,
                0.0057902,
                0.0247848,
                0.131424,
                0.0574022,
                0.0477651,
                -0.0338361,
                0.131045,
                0.240071,
                -0.142423,
                0.00449382,
                0.184517,
                -0.116637,
                -0.0546056,
                0.0279074,
                0.107421,
                0.0534616,
                -0.0173771,
                -0.005479,
                0.0922409,
                0.0635527,
                -0.016473,
                0.212196,
                -0.252557,
                -0.0558382,
                -0.0867006,
                0.0319975,
                0.100507,
                0.00799871,
                0.165767,
                0.10893,
                -0.019351,
                -0.122111,
                0.210372,
                -0.142996,
                -0.177164,
                -0.0691276,
                -0.194743,
                -0.100352,
                -0.127927,
                -0.00991349,
                0.132015,
                0.0186924,
                0.121036,
                0.0803566,
                0.00656515,
                -0.15545,
                -0.0479861,
                0.0536879,
                0.0362474,
                0.0906829,
                0.0300082,
                -0.0933494,
                0.0527647,
                -0.180299,
                -0.0796582,
                0.122077,
                0.0688093,
                -0.112934,
                0.0885703,
                -0.210599,
                -0.0404848,
                -0.0244817,
                0.0650147,
                0.109431,
                0.00120678,
                -0.0385426,
                0.127849,
                -0.099177,
                0.0292443,
                -0.0558188,
                0.0407266,
                0.0988696,
                -0.0144499,
                0.0541573,
                -0.0679991,
                -0.00845501,
                0.115483,
                0.0132859,
                -0.0717346,
                -0.0691449,
                0.0667067,
                0.0453693,
                0.0517558,
                -0.0160319,
                0.0759891,
                0.0149424,
                -0.0203165,
                -0.0234759,
                0.0462589,
                -0.045669,
                -0.104176,
                -0.0192272,
                0.0251644,
                0.120492,
                -0.119942,
                -0.0955037,
                0.254704,
                -0.0103481,
                -0.0198299,
                -0.125433,
                -0.126604,
                -0.139339,
                -0.106683,
                0.0127975,
                -0.102314,
                0.156567,
                -0.105405,
                -0.255573,
                -0.00608915,
                -0.307368,
                -0.0213246,
                -0.120539,
                0.064176,
                0.260864,
                0.239703,
                0.0515608,
                -0.0302453,
                -0.285963,
                0.121588,
                0.197061,
                -0.0865105,
                0.0668573,
                -0.127521,
                -0.0570097,
                0.263753,
                -0.149231,
                0.060835,
                0.0855591,
                0.122794,
                0.0149371,
                0.246576,
                -0.039819,
                -0.0635831,
                -0.064087,
                -0.0453537,
                0.169657,
                -0.00431461,
                0.196543,
                0.253367,
                0.0438345,
                -0.043511,
                -0.115498,
                -0.0158984,
                -0.0513672,
                -0.142863,
                -0.0806843,
                0.234742,
                -0.115037,
                0.0612991,
                0.000991054,
                -0.171362,
                -0.00671563,
                -0.0194562,
                0.0263739,
                -0.0476516,
                0.0860187,
                -0.0718287,
                0.106037,
                0.0916989,
                -0.0258886,
                -0.0569807,
                0.0213671,
                0.0996412,
                0.112647,
                -0.124115,
                0.0887508,
                -0.146213,
                -0.00842608,
                0.17025,
                0.0524003,
                0.0409353,
                -0.125206,
                0.120678,
                0.199414,
                0.114085,
                0.153579,
                -0.0163836,
                0.00350473,
                -0.0188702,
                0.156935,
                0.00959248,
                -0.149854,
                0.0215183,
                0.163653,
                0.0183483,
                -0.102081,
                0.23725,
                -0.0506682,
                0.104037,
                0.0655141,
                -0.00490189,
                -0.10775,
                -0.190976,
                -0.133985,
                -0.0634649,
                0.114296,
                0.208068,
                -0.0762811,
                -0.0780442,
                0.100805,
                -0.178451,
                0.106487,
                -0.0917108,
                -0.0697193,
                0.159787,
                0.0904563,
                -0.0739356,
                -0.0134787,
                0.0528002,
                0.159886,
                -0.135358,
                -0.0908696,
                -0.0987043,
                -0.0349663,
                -0.02297,
                0.15737,
                -0.0162903,
                0.0439514,
                -0.035732,
                -0.071551,
                0.18454,
                -0.140723,
                -0.013775,
                0.195743,
                -0.0712443,
                -0.0743859,
                -0.105835,
                -0.0854179,
                -0.138014,
                0.0956988,
                0.0736417,
                0.133979,
                0.175448,
                0.0182269,
                0.00128744,
                -0.0853593,
                0.10144,
                0.010558,
                -0.110999,
                -0.0872503,
                0.0171869,
                -0.124151,
                -0.222973,
                -0.042338,
                -0.0537825,
                0.130409,
                0.16161,
                0.019202,
                0.206216,
                -0.0928849,
                -0.126541,
                0.09658,
                0.0831828,
                0.149456,
                0.148295,
                -0.200909,
                -0.231868,
                0.134021,
                0.1354,
                0.402815,
                0.201799,
                -0.0446339,
                -0.224526,
                -0.0349768,
                0.141197,
                -0.02365,
                0.074514,
                -0.124163,
                0.0522428,
                -0.0417565,
                -0.183013,
                0.093375,
                -0.0630154,
                -0.108778,
                -0.0722687,
                -0.0129142,
                0.0879394,
                0.00175657,
                0.260105,
                0.165172,
                -0.0121132,
                -0.0655376,
                0.303018,
                -0.0622913,
                -0.288989,
                -0.015275,
                -0.308128,
                -0.0347606,
                -0.15196,
                0.263013,
                0.0870284,
                0.0251691,
                -0.162215,
                -0.121566,
                0.17164,
                0.0841899,
                0.163822,
                -0.0692398,
                0.113328,
                -0.0650533,
                -0.181786,
                0.0996978,
                -0.0559934,
                -0.0427254,
                0.171227,
                0.23333,
                0.00782694,
                0.289013,
                -0.000960403,
                0.0578059,
                -0.0110191,
                0.0235439,
                0.084549,
                0.260118,
                0.241505,
                0.00232456,
                0.168026,
                -0.122207,
                0.243,
                0.102121,
                0.422941,
                0.217946,
                -0.196271,
                0.170838,
                -0.101068,
                -0.113968,
                0.000587733,
                -0.162885,
                0.217778,
                -0.00901323,
                0.199884,
                0.0425065,
                0.055734,
                -0.117445,
                -0.142622,
                -0.0695731,
                -0.0122154,
                0.00818131,
                0.00163756,
                -0.0024943,
                -0.00496754,
                -0.188973,
                -0.14962,
                -0.0495963,
                -0.0609828,
                0.0981506,
                0.0814737,
                -0.0640154,
                0.212629,
                -0.0423588,
                0.150916,
                0.042173,
                0.0779179,
                0.123283,
                0.195849,
                -0.1726,
                0.0128767,
                -0.0163165,
                0.0520363,
                0.172611,
                -0.217743,
                0.0504115,
                -0.000420239,
                -0.380244,
                0.124403,
                0.142077,
                0.188122,
                0.230592,
                -0.138622,
                0.176249,
                -0.0313654,
                0.0341334,
                -0.198498,
                -0.0516413,
                -0.232992,
                -0.127371,
                -0.0617918,
                -0.050653,
                0.0973324,
                -0.0820058,
                -0.190563,
                0.213129,
                -0.179304,
                0.00699542,
                -0.0225534,
                0.223503,
                -0.325689,
                0.13676,
                -0.117555,
                0.00777994,
                0.309701,
                -0.0797545,
                -0.0541071,
                0.0997995,
                0.197859,
                0.114645,
                -0.0207347,
                -0.0388888,
                -0.269885,
                0.074251,
                -0.0683277,
                -0.0811507,
                -0.0436394,
                -0.215747,
                0.0521049,
                0.177314,
                -0.0133898,
                0.0333019,
                -0.0186538,
                0.00402672,
                0.168038,
                -0.131359,
                0.0595933,
                0.0620713,
                0.0427286,
                -0.0378911,
                -0.084205,
                -0.074698,
                0.174355,
                -0.0647391,
                0.248931,
                0.184386,
                -0.0607841,
                -0.0221161,
                -0.016422,
                -0.00824471,
                0.181409,
                -0.218876,
                -0.110166,
                0.052187,
                0.0962129,
                -0.100783,
                0.0613407,
                -0.128248,
                -0.0391474,
                -0.10383,
                -0.0137707,
                0.0107269,
                0.0210098,
                -0.0566199,
                0.0505341,
                -0.0222596,
                -0.0990431,
                -0.0326969,
                -0.169748,
                -0.0408661,
                -0.0892844,
                -0.00204494,
                -0.182531,
                0.0205093,
                0.06858,
                -0.034243,
                -0.103813,
                0.00862425,
                -0.0455642,
                0.186089,
                -0.09731,
                -0.0240339,
                -0.0105457,
                -0.158114,
                -0.0351832,
                0.0101286,
                0.112227,
                0.211111,
                0.044086,
                0.0999883,
                -0.0010386,
                -0.132604,
                0.0701868,
                0.0962652,
                0.24045,
                0.0751091,
                0.116954,
                0.0340831,
                0.0645561,
                -0.0673401,
                -0.0467786,
                -0.0600936,
                -0.110226,
                -0.0375706,
                0.0349377,
                0.0281283,
                -0.0672616,
                -0.0394436,
                0.150421,
                -0.147079,
                0.014372,
                -0.0528505,
                0.0606046,
                -0.20931,
                0.0371668,
                -0.125538,
                0.00386337,
                0.0897192,
                -0.131584,
                -0.0979643,
                0.0131438,
                -0.142991,
                -0.120357,
                0.0377958,
                -0.0937359,
                0.0478394,
                -0.122804,
                0.140563,
                -0.0234987,
                -0.0484692,
                -0.0519931,
                -0.215918,
                0.0480397,
                -0.0763599,
                -0.294966,
                0.18,
                0.10121,
                -0.141612,
                -0.270997,
                -0.0512627,
                0.0278967,
                0.151655,
                -0.261014,
                -0.108377,
                -0.315324,
                -0.148577,
                0.0371578,
                5.11828e-005,
                -0.189584,
                -0.0439837,
                0.00385456,
                0.130845,
                -0.216154,
                -0.123741,
                -0.33223,
                0.182625,
                -0.225411,
                0.123809,
                0.187153,
                0.158654,
                0.187737,
                -0.0501922,
                -0.134916,
                -0.0301087,
                0.0369966,
                0.0129043,
                -0.162315,
                0.0188912,
                -0.0166311,
                -0.0393114,
                -0.0324222,
                0.102236,
                -0.00586383,
                -0.248227,
                0.137837,
                -0.230789,
                0.169507,
                -0.261852,
                -0.0261014,
                0.147617,
                0.174535,
                0.0155443,
                -0.18242,
                -0.462315,
                0.129001,
                -0.120306,
                -0.0442521,
                0.461461,
                0.0884473,
                -0.022872,
                -0.0659202,
                -0.165939,
                0.449351,
                0.253229,
                0.285947,
                0.247501,
                -0.144702,
                0.00984273,
                0.450424,
                0.145013,
                0.0507819,
                0.240831,
                0.040164,
                -0.114459,
                0.461954,
                -0.0533724,
                -0.0528196,
                -0.275274,
                -0.138425,
                -0.103282,
                0.10333,
                0.0477679,
                0.444371,
                -0.120647,
                -0.173173,
                -0.0869618,
                0.382116,
                -0.163633,
                -0.0665383,
                -0.147337,
                -0.185874,
                -0.0109378,
                0.400257,
                0.0220631,
                -0.0753038,
                0.0886564,
                -0.0413739,
                0.249471,
                0.336374,
                -0.374262,
                -0.00445726,
                0.147114,
                -0.0368067,
                0.522091,
                -0.173665,
                -0.0524498,
                -0.0617143,
                -0.291852,
                0.0929521,
                0.163105,
                0.0221715,
                0.0585229,
                -0.163683,
                0.200317,
                0.121722,
                0.412278,
                -0.0503624,
                -0.199403,
                -0.203809,
                -0.221132,
                -0.0885843,
                -0.168782,
                0.0709336,
                -0.164363,
                -0.155737,
                0.203835,
                -0.064827,
                0.0404343,
                -0.260221,
                0.147102,
                -0.248268,
                0.321733,
                -0.108141,
                0.187794,
                0.0838525,
                0.075853,
                0.088096,
                0.133047,
                0.149379,
                0.021334,
                -0.0750476,
                0.0345664,
                -0.114376,
                0.122084,
                -0.0914293,
                0.0653884,
                0.0149851,
                -0.285771,
                -0.13686,
                0.124355,
                0.0664468,
                -0.00882258,
                0.117428,
                -0.175261,
                0.0279787,
                -0.0301196,
                0.0529811,
                0.155076,
                0.0347352,
                -0.0129771,
                -0.131653,
                -0.0926503,
                0.0598025,
                -0.0835319,
                0.111112,
                0.058612,
                0.125794,
                -0.0415335,
                0.170317,
                0.0360515,
                -0.0131388,
                -0.0869996,
                -0.0850999,
                -0.0277077,
                0.0823677,
                -0.129349,
                -0.0172815,
                -0.138839,
                -0.0762189,
                -0.143209,
                0.0524462,
                0.0378519,
                0.188807,
                -0.190674,
                -0.241231,
                0.0761774,
                0.0916593,
                0.0158559,
                -0.0900616,
                -0.216193,
                0.013651,
                0.00526073,
                -0.323945,
                -0.0560212,
                0.31269,
                0.0248486,
                -0.0114027,
                -0.217075,
                -0.106675,
                0.0627961,
                0.166353,
                -0.229253,
                -0.150491,
                -0.497194,
                0.00452303,
                -0.216136,
                0.283789,
                0.151684,
                -0.17128,
                -0.0471,
                -0.0262537,
                -0.0297845,
                -0.172751,
                0.089214,
                0.00424555,
                -0.251093,
                0.0577486,
                -0.00838239,
                0.355803,
                -0.067378,
                -0.0960332,
                0.0283508,
                -0.219012,
                -0.0571331,
                0.24061,
                0.0814979,
                -0.238102,
                0.110873,
                0.298618,
                -0.12157,
                0.131654,
                0.0235088,
                0.337532,
                -0.382579,
                0.0221322,
                -0.0559725,
                0.237214,
                0.152504,
                -0.0503506,
                -0.364865,
                0.0422624,
                0.102018,
                -0.0974964,
                0.0895935,
                -0.16692,
                0.110314,
                -0.126922,
                -0.164046,
                -0.0124153,
                0.0797372,
                -0.0563344,
                0.0296134,
                -0.00308585,
                -0.0150715,
                0.172718,
                -0.0717918,
                0.0717044,
                0.300922,
                0.172792,
                0.0181679,
                0.0256686,
                -0.132004,
                0.0342235,
                -0.0623953,
                0.146872,
                0.11798,
                0.0708902,
                -0.0109855,
                0.0789838,
                -0.0469353,
                -0.125096,
                0.0348809,
                0.140721,
                0.098156,
                0.199962,
                -4.34211e-005,
                -0.0060805,
                -0.0929637,
                -0.0785516,
                -0.168447,
                0.0915205,
                0.154365,
                0.0606464,
                0.0244199,
                -0.140857,
                0.0507715,
                -0.128682,
                -0.0450431,
                -0.0711382,
                0.0674957,
                -0.0279372,
                -0.317832,
                -0.181872,
                -0.0280838,
                0.0793698,
                -0.23057,
                0.149881,
                -0.0126025,
                0.00944004,
                0.11106,
                -0.0739215,
                -0.383181,
                0.0818965,
                0.101288,
                -0.00560885,
                0.0333696,
                0.183025,
                -0.190998,
                -0.0173792,
                0.0784357,
                -0.0154912,
                -0.139629,
                -0.00434666,
                -0.106736,
                -0.367384,
                -0.00656297,
                -0.0175703,
                -0.0676704,
                0.00246642,
                -0.173111,
                0.371467,
                0.276631,
                0.20189,
                0.0188352,
                -0.254858,
                -0.16947,
                0.12912,
                -0.140784,
                -0.077843,
                0.0162808,
                -0.110483,
                0.0309122,
                -0.0569775,
                -0.0539038,
                -0.00154491,
                0.211173,
                0.161597,
                -0.0110456,
                -0.13387,
                -0.0672016,
                -0.071924,
                -0.00279049,
                0.318218,
                0.23922,
                0.275272,
                0.854446,
                0.0246249,
                -0.171742,
                0.193519,
                0.0318348,
                0.021744,
                0.631774,
                -0.432829,
                0.74196,
                -0.52001,
                0.195207,
                -0.131581,
                -0.375122,
                -0.601034,
                -0.0449223,
                0.367421,
                0.676821,
                -0.305545,
                -0.438094,
                0.620245,
                -0.0368768,
                0.368404,
                0.179371,
                -0.732049,
                0.260106,
                -0.391702,
                -0.412347,
                -0.223952,
                -0.241573,
                -0.600063,
                -0.0296393,
                -0.0573145,
                0.539471,
                0.513009,
                -0.0919145,
                0.0782922,
                -0.553829,
                -0.799803,
                0.117796,
                0.454239,
                -0.0774667,
                -0.322878,
                -0.049931,
                0.364384,
                0.604526,
                -0.173471,
                -0.0454155,
                0.207001,
                0.0842738,
                0.257567,
                0.0644904,
                0.0941829,
                0.0268694,
                0.191942,
                -0.254591,
                0.16134,
                -0.0468929,
                -0.132605,
                0.249645,
                -0.0389227,
                -0.0559951,
                -0.145077,
                -0.255249,
                0.0256746,
                0.0737396,
                -0.0557444,
                0.0949127,
                -0.214386,
                0.00424249,
                -0.103079,
                0.00980898,
                -0.176243,
                -0.254103,
                -0.039355,
                -0.0784569,
                0.0059726,
                -0.152782,
                -0.0127161,
                -0.215093,
                -0.0151789,
                0.00363812,
                0.0271642,
                0.00125486,
                -0.156634,
                0.0469306,
                -0.399713,
                0.0269694,
                -0.162217,
                -0.084557,
                -0.0134617,
                0.194139,
                0.0932526,
                0.251015,
                0.179654,
                -0.172753,
                0.0472618,
                0.236807,
                0.379996,
                -0.198221,
                0.0152005,
                0.0856316,
                0.132247,
                -0.154766,
                0.115594,
                -0.0170523,
                0.0308944,
                0.187852,
                -0.183744,
                -0.236659,
                -0.0207684,
                0.0568568,
                -0.193065,
                0.00609629,
                0.29882,
                -0.0293887,
                0.283623,
                -0.285464,
                -0.0556104,
                -0.0798302,
                -0.165551,
                0.0654558,
                -0.233401,
                -0.122182,
                0.244504,
                0.0436918,
                0.0688179,
                0.247317,
                0.320161,
                -0.114071,
                0.266822,
                -0.0366225,
                0.00646407,
                -0.21472,
                -0.217352,
                0.0929083,
                -0.129083,
                0.0309228,
                -0.102624,
                0.209431,
                -0.142342,
                0.0757812,
                0.251641,
                -0.123922,
                0.0826033,
                0.16134,
                0.0146647,
                -0.150111,
                0.0893707,
                -0.00196629,
                -0.152872,
                -0.0276318,
                -0.102528,
                -0.144818,
                0.0710431,
                0.0276557,
                -0.0770382,
                0.237812,
                0.011982,
                0.190853,
                -0.227854,
                0.0266596,
                0.0661754,
                0.101704,
                -0.114455,
                0.0285083,
                0.0905469,
                0.109619,
                0.0901012,
                -0.0382498,
                0.133405,
                0.0279779,
                0.0183424,
                0.247813,
                -0.293024,
                0.0680058,
                -0.101106,
                0.0420423,
                -0.165732,
                -0.097691,
                0.0808663,
                0.0943924,
                -0.0821943,
                0.00755385,
                0.16479,
                0.137111,
                0.0295473,
                0.04579,
                0.0180829,
                0.0573808,
                0.0880641,
                -0.198864,
                -0.193634,
                -0.00693531,
                -0.166091,
                0.21715,
                0.12253,
                -0.0582121,
                -0.143927,
                0.047058,
                -0.0301984,
                0.0742365,
                -0.0777486,
                -0.0814114,
                0.0158362,
                0.089017,
                -0.192648,
                -0.0161762,
                -0.0163811,
                -0.0874674,
                0.135029,
                -0.204141,
                0.100078,
                0.0957204,
                0.0971849,
                0.0724088,
                -0.0107256,
                -0.0607352,
                0.00876286,
                0.0245374,
                0.278853,
                0.160281,
                0.106907,
                -0.0924288,
                0.0215132,
                -0.184243,
                -0.111648,
                -0.07538,
                -0.0524874,
                0.156987,
                0.0929528,
                -0.169319,
                0.0741028,
                -0.135652,
                -0.0689887,
                -0.0855831,
                0.0735453,
                0.0819393,
                0.190003,
                -0.112062,
                -0.0235216,
                -0.0721287,
                -0.109958,
                -0.000412551,
                -0.00215867,
                -0.0899784,
                -0.0476326,
                0.0831212,
                -0.108192,
                -0.0783177,
                0.0786016,
                -0.0400895,
                -0.0279091,
                -0.0276287,
                -0.0540251,
                -0.0143648,
                0.0702557,
                -0.187835,
                0.0800646,
                -0.319636,
                -0.051167,
                -0.126428,
                0.202857,
                0.224582,
                0.063392,
                -0.0333662,
                -0.0636599,
                -0.270833,
                0.0796138,
                -0.023732,
                -0.155908,
                -0.0818091,
                0.0196265,
                0.0312323,
                0.147761,
                -0.159762,
                -0.0320862,
                0.184848,
                0.0984307,
                -0.075571,
                0.2005,
                0.0225261,
                -0.0618388,
                -0.125278,
                0.138097,
                -0.10423,
                0.0328834,
                0.268346,
                0.277618,
                -0.144755,
                -0.10679,
                -0.0852075,
                0.227368,
                0.0579067,
                -0.0885259,
                -0.081158,
                -0.019464,
                0.0569659,
                0.0715393,
                0.138802,
                0.0752889,
                0.128713,
                0.0558624,
                -0.121555,
                -0.121167,
                -0.0444605,
                -0.0488894,
                -0.100477,
                -0.100274,
                0.28035,
                0.0198415,
                0.186943,
                -0.0828555,
                -0.252907,
                -0.371883,
                -0.109586,
                -0.0033185,
                0.21592,
                -0.0366915,
                -0.152307,
                -0.264143,
                -0.193673,
                0.207434,
                -0.0967573,
                -0.183077,
                0.0374356,
                -0.161034,
                -0.116618,
                -0.23123,
                9.33905e-005,
                -0.303015,
                0.0534141,
                0.0460532,
                0.204552,
                0.139601,
                0.138976,
                0.0319413,
                -0.231134,
                -0.101631,
                0.14361,
                0.0258753,
                0.10099,
                -0.187428,
                -0.0664638,
                0.0559964,
                0.183611,
                0.159266,
                -0.124785,
                -0.0582544,
                -0.0556207,
                -0.177538,
                0.13374,
                -0.142742,
                -0.229551,
                -0.182479,
                -0.0125251,
                -0.00490649,
                -0.156362,
                0.190431,
                -0.032952,
                0.119639,
                -0.223677,
                0.119026,
                0.173886,
                -0.0842368,
                -0.107168,
                -0.0940357,
                -0.162497,
                -0.0220589,
                -0.0466835,
                -0.111837,
                -0.0721099,
                0.304428,
                -0.047057,
                0.0858633,
                0.071644,
                -0.0269612,
                0.071075,
                -0.0383219,
                0.000520253,
                -0.0041729,
                -0.172895,
                -0.0218151,
                0.0259056,
                0.130033,
                0.0242099,
                0.291216,
                -0.0367196,
                0.103971,
                0.0922605,
                -0.109159,
                0.0984711,
                -0.0936221,
                -0.0564516,
                -0.0230129,
                0.00828402,
                0.0482126,
                -0.138706,
                -0.0147819,
                -0.0204484,
                -0.0673317,
                0.111175,
                -0.0407172,
                0.0738807,
                0.160062,
                0.0879725,
                -0.0120983,
                0.194772,
                -0.0337712,
                -0.00767602,
                -0.290074,
                0.0982016,
                0.0382324,
                -0.0381172,
                -0.181037,
                0.0158369,
                0.134336,
                0.285162,
                -0.122012,
                -0.178157,
                0.15056,
                0.0124915,
                -0.00338498,
                0.274987,
                -0.168816,
                0.0961453,
                -0.122938,
                -0.115501,
                -0.137482,
                -0.175219,
                0.0542144,
                0.0696886,
                0.0680174,
                0.0394997,
                0.25232,
                -0.0151809,
                0.0179026,
                0.179972,
                -0.0768614,
                0.0901303,
                0.188315,
                -0.182489,
                -0.0115231,
                -0.0407559,
                0.096424,
                0.347349,
                -0.0567083,
                -0.0470418,
                -0.12178,
                0.0208837,
                0.236133,
                -0.000624734,
                -0.0924527,
                -0.211582,
                -0.302553,
                0.083312,
                0.177443,
                -0.173627,
                -0.00774731,
                -0.329972,
                -0.0309004,
                0.063332,
                0.0411814,
                -0.0753519,
                -0.0562765,
                -0.0611247,
                0.00917626,
                0.0181376,
                -0.0674525,
                -0.11807,
                -0.0665345,
                -0.114813,
                0.110401,
                -0.102075,
                0.162523,
                0.24255,
                -0.0888295,
                0.0581688,
                -0.396432,
                -0.0635327,
                0.0648722,
                0.0297201,
                -0.286184,
                0.157789,
                0.421214,
                -0.0898943,
                0.039667,
                -0.231955,
                0.268809,
                -0.274331,
                -0.070431,
                0.0102184,
                0.0230471,
                0.128064,
                -0.0405748,
                -0.217588,
                -0.169009,
                0.102457,
                0.0633019,
                0.0694295,
                0.307516,
                -0.00815986,
                0.108834,
                0.174365,
                0.1641,
                -0.0723104,
                0.144739,
                0.258613,
                -0.205449,
                0.00881126,
                -0.167301,
                0.296042,
                -0.138798,
                -0.161598,
                0.00151371,
                -0.0684082,
                0.101588,
                0.0647817,
                -0.00853695,
                0.0289359,
                -0.025196,
                -0.0543157,
                -0.200818,
                0.0797694,
                -0.0763489,
                0.0451095,
                0.0870892,
                -0.0195692,
                0.128608,
                -0.173497,
                -0.16282,
                0.0139738,
                0.0314691,
                -0.0544047,
                -0.154596,
                0.00111248,
                -0.243636,
                -0.118848,
                -0.078858,
                0.0419753,
                0.118582,
                0.0653892,
                0.310809,
                0.0222502,
                0.138255,
                -0.220317,
                0.454835,
                0.0463219,
                0.199868,
                -0.0295593,
                -0.103607,
                0.445647,
                -0.119909,
                -0.0653389,
                0.115394,
                0.156939,
                -0.299028,
                -0.00580501,
                -0.0863497,
                0.398503,
                -0.0258879,
                -0.353749,
                0.042607,
                0.194744,
                -0.0573083,
                0.153064,
                0.110962,
                -0.0886897,
                -0.176743,
                0.229349,
                0.236012,
                0.123194,
                -0.0225182,
                -0.13435,
                -0.378415,
                -0.152853,
                0.0375814,
                -0.300269,
                0.451987,
                0.124557,
                0.265011,
                -0.191024,
                0.364822,
                -0.000504981,
                -0.353853,
                -0.0409913,
                -0.027289,
                0.195521,
                -0.375397,
                0.0244023,
                0.00934806,
                -0.00594607,
                -0.206934,
                0.100517,
                0.111086,
                0.287594,
                0.0612308,
                -0.219648,
                -0.0998962,
                0.0432682,
                0.168376,
                -0.0379451,
                0.0208023,
                0.169092,
                -0.0339047,
                0.0324322,
                0.164591,
                -0.170184,
                0.0154344,
                0.224269,
                -0.138482,
                0.296585,
                -0.00324877,
                -0.432815,
                -0.421044,
                -0.00503377,
                -0.0568801,
                0.484217,
                -0.0574775,
                -0.11684,
                -0.0332113,
                -0.109663,
                0.0292956,
                0.0809135,
                -0.298186,
                0.0950397,
                0.0415032,
                -0.195869,
                -0.189285,
                -0.0668077,
                -0.203412,
                0.237714,
                -0.246281,
                0.292434,
                0.236545,
                0.298277,
                -0.0204082,
                -0.163166,
                -0.21845,
                0.0146436,
                0.189841,
                -0.0334097,
                -0.220682,
                0.0946417,
                0.0887494,
                -0.063063,
                -0.112179,
                -0.00102815,
                0.0853569,
                -0.1629,
                0.0405752,
                -0.156485,
                0.119951,
                0.0513938,
                0.166359,
                0.118174,
                0.194779,
                0.192578,
                -0.220147,
                -0.175686,
                -0.0532029,
                0.135596,
                -0.0110267,
                0.168037,
                0.182438,
                0.00398788,
                0.182118,
                -0.0602053,
                0.0509925,
                -0.0764531,
                -0.194598,
                -0.143494,
                -0.139207,
                0.316851,
                -0.0332103,
                0.087139,
                -0.0130061,
                0.0876631,
                0.168927,
                -0.164356,
                0.0584005,
                0.0618691,
                0.0431191,
                -0.0295795,
                0.0552581,
                -0.0139234,
                0.0508564,
                0.167593,
                0.11819,
                0.0514756,
                0.02722,
                -0.0245736,
                0.293538,
                -0.248714,
                -0.0232371,
                0.081631,
                -0.372802,
                0.158005,
                0.467811,
                -0.0882791,
                0.214755,
                0.376775,
                0.193947,
                -0.176587,
                0.23603,
                -0.141074,
                0.113084,
                0.335121,
                -0.314425,
                0.115745,
                -0.0121226,
                -0.176283,
                -0.146223,
                0.059092,
                0.646911,
                0.00438994,
                0.348652,
                -0.279178,
                -0.167769,
                0.138089,
                0.141323,
                0.302108,
                -0.521059,
                -0.397369,
                0.136231,
                -0.318392,
                0.00420815,
                -0.0558834,
                0.517002,
                -0.12263,
                0.142329,
                0.0373007,
                -0.151159,
                -0.277528,
                -0.380983,
                0.180184,
                -0.500547,
                0.0555263,
                0.00813597,
                0.0680687,
                -0.0619734,
                0.166048,
                0.408859,
                0.132374,
                0.142937,
                -0.179105,
                0.0504073,
                -0.0185486,
                0.106702,
                0.0163224,
                -0.190049,
                -0.0196333,
                -0.0333553,
                -0.111741,
                0.165284,
                0.0673828,
                -0.14237,
                0.123553,
                -0.0510103,
                0.147985,
                0.0154916,
                0.0197409,
                -0.0181094,
                0.0400213,
                -0.0377374,
                0.00234959,
                0.0140382,
                0.103196,
                0.0620879,
                -0.10759,
                0.0338539,
                -0.000790605,
                0.137143,
                0.133525,
                -0.149407,
                0.0755681,
                -0.139079,
                -0.122771,
                -0.0968413,
                0.121046,
                -0.106357,
                0.117293,
                0.0666921,
                0.0988045,
                0.131142,
                -0.0589705,
                0.230409,
                -0.0460947,
                -0.104833,
                0.161026,
                -0.0518743,
                -0.116097,
                -0.11195,
                0.0234936,
                -0.107959,
                0.278841,
                -0.0317659,
                -0.147341,
                0.0700685,
                0.0890506,
                -0.129743,
                -0.0936068,
                -0.136879,
                -0.0951148,
                0.0915798,
                -0.0350203,
                -0.0123908,
                -0.0662052,
                0.0199527,
                0.217327,
                -0.0787748,
                -0.0155228,
                -0.0592421,
                -0.152882,
                -0.234581,
                -0.0112938,
                0.0345125,
                0.123397,
                -0.0840171,
                0.00994321,
                0.0770382,
                -0.152219,
                0.0873384,
                -0.103398,
                0.001997,
                0.0371441,
                -0.187967,
                -0.0288268,
                -0.137836,
                -0.0379187,
                -0.157714,
                0.00503842,
                -0.00840161,
                0.199691,
                0.227083,
                -0.0173647,
                0.148742,
                0.0427811,
                0.0200121,
                -0.0532512,
                -0.0850353,
                0.0582896,
                -0.0703485,
                0.039759,
                0.0320401,
                0.102975,
                -0.167377,
                0.0263467,
                -0.234949,
                -0.110613,
                0.0179085,
                -0.746789,
                0.197346,
                0.362171,
                -0.399973,
                -0.27884,
                0.217931,
                -0.34194,
                0.0512721,
                -0.0232572,
                -0.0267875,
                0.281134,
                0.0788278,
                -0.436153,
                -0.247287,
                -0.279784,
                -0.188984,
                0.0481514,
                -0.0381512,
                0.10428,
                -0.819911,
                -0.101827,
                -0.173337,
                -0.0234762,
                0.0457987,
                0.00134208,
                0.434263,
                0.193999,
                -0.222134,
                0.0251312,
                -0.407519,
                0.173783,
                -0.334409,
                -0.0271081,
                -0.0375463,
                0.113889,
                0.131752,
                -0.0199861,
                0.0603581,
                0.0166136,
                -0.0389625,
                0.316134,
                0.260374,
                -0.0242736,
                -0.107194,
                -0.276934,
                0.388311,
                -0.189527,
                -0.0451817,
                -0.0325837,
                -0.340455,
                -0.0355191,
                -0.294253,
                0.116982,
                -0.0590888,
                0.0250909,
                -0.333597,
