{
    "layers": [
        {
            "name": "input_layer",
            "type": "input",
            "size": 50
        },
        {
            "name": "hidden_layer",
            "type": "blstm",
            "size": 100,
            "bias": 0
        },
        {
            "name": "output_layer",
            "type": "softmax",
            "size": 40,
            "bias": 0
        },
        {
            "name": "postoutput",
            "type": "multiclass_classification",
            "size": 40
        }
    ],
    "weights": {
        "hidden_layer": {
            "input": [
                -0.0792152,
                -0.0855318,
                -0.169955,
                0.124669,
                -0.134977,
                -0.190548,
                -0.0749178,
                0.0132247,
                0.012219,
                -0.102645,
                0.0727533,
                -0.100507,
                0.201948,
                0.153782,
                -0.110416,
                0.032797,
                0.152075,
                -0.1284,
                0.152468,
                0.0831868,
                0.102006,
                -0.371987,
                0.105906,
                0.0420292,
                0.267871,
                -0.119949,
                -0.0589703,
                0.217923,
                0.13813,
                -0.137883,
                -0.107794,
                -0.125597,
                0.12223,
                0.141681,
                -0.175249,
                0.0754875,
                0.101643,
                0.0629476,
                0.0760045,
                0.168159,
                0.171884,
                -0.0795339,
                0.076371,
                -0.12744,
                -0.0230542,
                -0.231423,
                -0.370551,
                0.153287,
                0.349709,
                0.0409527,
                -0.0204985,
                -0.186838,
                0.240137,
                0.190492,
                0.157082,
                0.0333791,
                0.535272,
                0.165215,
                -0.362557,
                -0.04829,
                -0.376426,
                0.0552163,
                0.0765249,
                -0.23486,
                -0.166635,
                0.456051,
                0.174156,
                0.146748,
                0.13702,
                -0.356875,
                0.568572,
                0.0440376,
                -0.00443567,
                0.237162,
                0.116795,
                0.280461,
                -0.290983,
                -0.00442883,
                0.22834,
                -0.435997,
                -0.0781063,
                0.27172,
                0.0215999,
                -0.0818677,
                0.397785,
                -0.0464241,
                0.183584,
                -0.0735173,
                -0.353164,
                0.133648,
                -0.384019,
                -0.145151,
                -0.202304,
                0.0381229,
                -0.208521,
                0.0760249,
                -0.247568,
                -0.0989157,
                -0.0763461,
                0.116236,
                -0.275679,
                -0.10052,
                -0.0490755,
                -0.635794,
                -0.0267537,
                0.23513,
                0.270722,
                -0.154879,
                0.25512,
                -0.0624922,
                -0.0902321,
                -0.250584,
                0.0176902,
                -0.210301,
                -0.0239367,
                0.209031,
                -0.00580775,
                -0.0173476,
                -0.0144848,
                -0.240278,
                0.394637,
                0.0912572,
                -0.212109,
                0.401024,
                0.175704,
                -0.0225632,
                0.287704,
                -0.540296,
                0.286631,
                -0.390537,
                -0.344618,
                0.0531154,
                0.120581,
                0.167066,
                0.317002,
                0.112098,
                -0.0668296,
                -0.0630552,
                0.0342933,
                0.191877,
                -0.480371,
                0.0697502,
                0.14144,
                -0.313434,
                0.117938,
                -0.235571,
                0.190565,
                0.11503,
                -0.224412,
                0.0323348,
                -0.509766,
                0.146918,
                -0.05948,
                -0.156249,
                0.381117,
                -0.372572,
                -0.0699165,
                -0.0498689,
                0.223978,
                -0.117742,
                0.641973,
                0.104479,
                -0.426346,
                0.35076,
                0.0038143,
                -0.375897,
                -0.455675,
                -0.238298,
                -0.196209,
                -0.108427,
                -0.00703094,
                0.390296,
                -0.281689,
                -0.00735743,
                -0.0251464,
                -0.136397,
                -0.123792,
                -0.816498,
                -0.21786,
                -0.706382,
                -0.0889644,
                0.0414564,
                0.00974796,
                0.13769,
                0.667765,
                -0.0124696,
                -0.104738,
                0.262395,
                -0.0439103,
                0.180964,
                -0.326901,
                0.461317,
                0.0394345,
                0.0577522,
                -0.402968,
                -0.442231,
                -0.00310951,
                -0.00708697,
                0.110465,
                -0.213855,
                -0.409423,
                0.0647694,
                -0.033588,
                -0.11567,
                -0.118056,
                0.213159,
                -0.182273,
                -0.137579,
                0.14987,
                0.185756,
                0.0927798,
                0.207382,
                -0.163554,
                0.070471,
                0.246246,
                -0.253496,
                -0.697904,
                -0.186073,
                0.0141272,
                0.110228,
                0.0698827,
                0.0918209,
                -0.101235,
                -0.353643,
                -0.263956,
                -0.0920171,
                0.135736,
                -0.318932,
                -0.174845,
                -0.321625,
                -0.152585,
                0.652411,
                0.163341,
                0.109499,
                0.152741,
                -0.0779998,
                -0.191863,
                0.197869,
                -0.226153,
                0.00511171,
                0.213682,
                -0.0287264,
                0.293587,
                -0.334218,
                -0.139775,
                -0.472301,
                0.0297601,
                -0.21626,
                -0.0363176,
                -0.35783,
                -0.226937,
                0.0933736,
                -0.000187336,
                0.0348933,
                -0.0427747,
                0.0351006,
                -0.0606266,
                -0.320534,
                -0.0922099,
                0.455173,
                -0.0151889,
                0.113596,
                -0.0184232,
                0.226827,
                0.128621,
                -0.00522657,
                -0.450482,
                0.332579,
                -0.114925,
                0.0962654,
                -0.0694947,
                0.107186,
                -0.173869,
                -0.066374,
                -0.309308,
                0.0564731,
                0.0883498,
                -0.111811,
                0.0949875,
                -0.338523,
                0.0542751,
                0.147678,
                0.200326,
                0.0271443,
                0.0996639,
                0.181432,
                -0.164384,
                0.0325581,
                0.0335108,
                -0.132939,
                -0.0407091,
                -0.136441,
                0.160501,
                0.100398,
                0.154401,
                -0.289367,
                -0.224917,
                0.0288313,
                -0.250043,
                0.0378264,
                0.306075,
                -0.314816,
                -0.0209001,
                0.267352,
                0.069372,
                -0.139919,
                0.191111,
                -0.07697,
                -0.070544,
                0.0134088,
                -0.616211,
                0.00163766,
                0.764834,
                -0.436551,
                0.170665,
                0.0653058,
                0.165523,
                0.408136,
                -0.117992,
                -0.262002,
                0.309192,
                -0.460315,
                0.0519307,
                -0.0373176,
                0.0837883,
                -0.0551076,
                -0.0470162,
                0.126722,
                0.0549525,
                0.045427,
                0.0968668,
                0.213352,
                0.162564,
                -0.0404192,
                0.101133,
                0.183871,
                -0.605212,
                -0.218085,
                -0.459118,
                0.147086,
                0.140158,
                0.0179605,
                0.00918235,
                0.278309,
                0.0618426,
                -0.496886,
                -0.292381,
                0.00262428,
                0.124376,
                0.325517,
                0.366807,
                -0.129146,
                0.247497,
                -0.270134,
                -0.0846803,
                0.203151,
                0.0301001,
                -0.184568,
                0.0251472,
                -0.58099,
                -0.208469,
                0.0426653,
                0.316185,
                0.0794604,
                -0.06936,
                -0.326937,
                -0.31759,
                -0.262055,
                -0.0389875,
                0.0735827,
                -0.024125,
                -0.110359,
                0.374558,
                -0.221704,
                -0.0714423,
                0.147997,
                -0.355863,
                0.338083,
                -0.119847,
                0.14203,
                0.129754,
                -0.0907505,
                0.36403,
                0.141766,
                -0.360304,
                -0.000802218,
                0.0856097,
                -0.0862179,
                0.503679,
                -0.366776,
                0.0814606,
                -0.0336049,
                -0.188553,
                -0.0857942,
                0.0879958,
                0.135286,
                -0.689273,
                0.22296,
                0.306954,
                -0.503136,
                0.108705,
                -0.17539,
                0.0286802,
                0.232742,
                0.0934497,
                -0.0649341,
                -0.215155,
                -0.151642,
                -0.13229,
                0.128475,
                -0.164562,
                0.191712,
                -0.616217,
                0.0200487,
                -0.00746607,
                -0.0354024,
                0.0612611,
                -0.237751,
                0.480218,
                0.324173,
                -0.41054,
                -0.616351,
                0.451685,
                0.0297267,
                0.0296286,
                0.133659,
                -0.23649,
                -0.388777,
                0.219406,
                0.146083,
                0.126953,
                0.109337,
                -0.284487,
                0.151624,
                -0.116203,
                -0.351527,
                0.15434,
                0.00793031,
                0.452528,
                -0.109824,
                -0.0153768,
                -0.0784666,
                -0.512964,
                0.159552,
                0.12456,
                0.0782347,
                0.226842,
                0.505917,
                0.252132,
                0.390368,
                0.18235,
                -0.0367937,
                0.189457,
                -0.0185299,
                -0.104322,
                -0.274082,
                -0.0994373,
                0.141476,
                0.163864,
                -0.041132,
                0.193015,
                0.0407904,
                -0.162601,
                0.566244,
                -0.04218,
                -0.0588356,
                -0.319209,
                -0.140871,
                0.136802,
                -0.124103,
                0.0589879,
                -0.462016,
                0.248454,
                0.122203,
                0.211102,
                0.024692,
                -0.132978,
                0.151591,
                0.162719,
                -0.250545,
                0.178493,
                0.0620509,
                0.191879,
                0.248888,
                -0.0403567,
                -0.0852817,
                0.0964136,
                -0.133649,
                0.0639924,
                -0.212268,
                -0.179207,
                -0.0913016,
                -0.231424,
                0.295772,
                -0.0764397,
                -0.12907,
                0.0805186,
                -0.196894,
                0.198216,
                -0.158321,
                0.0138264,
                -0.160397,
                0.189998,
                -0.207087,
                0.451704,
                -0.0632482,
                -0.183936,
                0.110022,
                -0.36843,
                0.112329,
                0.0424035,
                0.0555581,
                0.176847,
                0.0582617,
                -0.301731,
                -0.0660005,
                0.393752,
                -0.116793,
                0.296856,
                -0.182789,
                -0.304873,
                -0.306365,
                -0.14701,
                -0.0760669,
                0.337245,
                -0.0592639,
                -0.0200626,
                0.239908,
                0.0505955,
                0.0896529,
                -0.0548057,
                -0.0228485,
                -0.266203,
                0.0259618,
                0.082692,
                0.280758,
                0.094972,
                0.0237907,
                -0.155709,
                0.317181,
                0.00315541,
                0.0677275,
                -0.296655,
                0.101508,
                0.261609,
                -0.229789,
                -0.0524797,
                -0.0861521,
                -0.239356,
                -0.040032,
                0.0471467,
                0.308362,
                -0.0281266,
                0.166266,
                0.166128,
                0.473605,
                -0.339978,
                0.24968,
                -0.0034802,
                -0.0589636,
                -0.170274,
                -0.159799,
                -0.273997,
                -0.137597,
                0.00894272,
                -0.0160862,
                0.134756,
                0.360483,
                0.0722351,
                -0.302119,
                -0.367895,
                -0.321019,
                0.222726,
                0.103807,
                -0.125687,
                -0.433131,
                -0.0549743,
                0.102316,
                -0.205333,
                0.0351539,
                -0.0737274,
                0.0559702,
                -0.0691498,
                -0.0488119,
                -0.340908,
                0.133036,
                0.0722774,
                -0.0191488,
                0.331386,
                0.0413117,
                -0.0953914,
                -0.358888,
                -0.0141464,
                0.0274587,
                0.0563734,
                -0.17999,
                0.109034,
                -0.353208,
                -0.464807,
                -0.107929,
                -0.283472,
                0.128297,
                0.199693,
                0.243313,
                -0.30572,
                -0.10896,
                -0.254393,
                0.405231,
                0.288404,
                -0.0803817,
                0.154581,
                -0.28086,
                -0.503492,
                0.0309065,
                0.12531,
                0.157396,
                -0.00236623,
                0.226017,
                -0.688519,
                -0.13235,
                0.249027,
                0.375672,
                -0.286449,
                -0.835061,
                -0.563876,
                -0.41506,
                0.238444,
                0.306197,
                -0.0114794,
                0.0548291,
                0.0612343,
                0.101891,
                -0.0792645,
                0.235004,
                0.0600513,
                -0.148635,
                -0.173077,
                -0.128062,
                -0.124809,
                0.206942,
                -0.0615717,
                -0.0308674,
                -0.0296256,
                0.476887,
                0.0334886,
                -0.0823849,
                0.250219,
                -0.0126989,
                -0.0249547,
                -0.0836872,
                -0.272067,
                -0.178771,
                -0.218125,
                0.0921238,
                -0.0991213,
                -0.080012,
                0.194946,
                -0.113168,
                -0.121471,
                -0.123389,
                0.133755,
                -0.115497,
                -0.147381,
                -0.246454,
                0.0954294,
                -0.270703,
                0.135909,
                0.250491,
                -0.0123456,
                -0.256144,
                -0.217483,
                0.0818116,
                -0.17935,
                -0.462895,
                0.0555986,
                0.15598,
                0.172648,
                -0.0151065,
                0.156114,
                0.44319,
                -0.210577,
                -0.214669,
                0.128664,
                0.158823,
                -0.607161,
                -0.0332974,
                -0.482758,
                0.08607,
                0.0390443,
                0.100965,
                0.111828,
                0.0852617,
                0.0544318,
                0.26166,
                0.22531,
                0.175055,
                0.15545,
                -0.174498,
                0.419363,
                0.124041,
                -0.127239,
                -0.216621,
                0.0169419,
                0.0197133,
                -0.31683,
                -0.0758953,
                0.0683655,
                -0.664227,
                0.214721,
                -0.0980609,
                0.216129,
                0.0761412,
                -0.142479,
                0.166849,
                0.602605,
                -0.129662,
                -0.282821,
                -0.274807,
                0.105503,
                -0.0855932,
                0.315168,
                0.120528,
                -0.0179456,
                0.234071,
                -0.198999,
                0.387666,
                -0.0692642,
                -0.109096,
                0.382903,
                -0.3989,
                0.240253,
                -0.042035,
                0.388393,
                0.117744,
                -0.459846,
                -0.086943,
                0.10572,
                0.47346,
                0.314397,
                -0.254377,
                0.657485,
                -0.268283,
                -0.162036,
                -0.0408385,
                0.135896,
                0.198106,
                -0.0448542,
                0.313257,
                0.607236,
                0.0385784,
                -0.0263908,
                -0.0540465,
                0.100561,
                -0.550691,
                -0.171669,
                0.234558,
                0.0447945,
                -0.797323,
                -0.0892707,
                0.0405032,
                0.440106,
                0.343464,
                -0.0717992,
                0.472366,
                0.412674,
                -0.289701,
                -0.500811,
                0.275063,
                0.0277157,
                0.331158,
                0.80006,
                -0.328155,
                0.101229,
                0.429166,
                -0.428135,
                0.9901,
                -0.271456,
                -0.310892,
                -0.430351,
                -0.458313,
                -0.168878,
                0.182709,
                0.631728,
                0.573364,
                0.104997,
                -0.0929897,
                -0.169502,
                0.557617,
                -0.259941,
                -0.701437,
                0.199424,
                0.100776,
                0.215317,
                -0.0319304,
                -0.590839,
                -0.0422303,
                -0.384974,
                0.671738,
                0.192585,
                -0.263436,
                0.0680195,
                -0.420473,
                -0.184501,
                -0.0491338,
                -0.141453,
                0.0277975,
                0.0271363,
                0.456351,
                -0.179916,
                0.012015,
                0.106606,
                0.115602,
                -0.059835,
                0.0498565,
                0.243638,
                0.0681912,
                0.23663,
                -0.112884,
                -0.0491442,
                0.156199,
                -0.304583,
                0.11606,
                -0.0815404,
                0.0256319,
                -0.38136,
                0.148899,
                0.328959,
                -0.361227,
                0.106646,
                0.413406,
                0.327986,
                0.00691038,
                -0.132912,
                -0.322966,
                -0.0142564,
                0.0574764,
                -0.0797544,
                0.568888,
                0.0204926,
                -0.305406,
                0.183286,
                0.12455,
                -0.0170174,
                -0.0555043,
                -0.0833112,
                -0.0969115,
                -0.469023,
                -0.220005,
                0.163941,
                0.0609339,
                0.0616306,
                0.0291925,
                0.198258,
                0.211308,
                0.168856,
                0.284455,
                0.0377227,
                0.131818,
                0.0189383,
                -0.294353,
                -0.168435,
                -0.0267207,
                -0.059189,
                -0.035285,
                -0.0777255,
                -0.135643,
                -0.0602101,
                0.306437,
                -0.250642,
                -0.112897,
                -0.313237,
                -0.271349,
                0.098308,
                -0.0728488,
                -0.103485,
                -0.319803,
                -0.224319,
                0.373176,
                0.26269,
                -0.216513,
                0.0559872,
                0.384393,
                -0.0321134,
                0.0849958,
                -0.0404535,
                -0.148049,
                -0.118735,
                0.217501,
                0.0634627,
                -0.297865,
                0.11555,
                -0.465089,
                -0.0194281,
                -0.168958,
                -0.257569,
                0.392696,
                -0.0188329,
                0.0127403,
                -0.184089,
                -0.222427,
                -0.345692,
                0.339386,
                -0.20182,
                0.196237,
                0.337909,
                0.0647813,
                -0.111623,
                -0.119781,
                0.392507,
                0.0535275,
                0.149477,
                0.401772,
                -0.230344,
                0.327687,
                0.51465,
                0.0743677,
                -0.395769,
                0.02079,
                -0.244526,
                0.278312,
                -0.0692648,
                -0.121472,
                -0.24922,
                -0.720169,
                0.236464,
                -0.272509,
                -0.175412,
                -0.21961,
                -0.0519714,
                0.210487,
                0.369235,
                0.263453,
                -0.0294259,
                0.168012,
                -0.105837,
                0.470222,
                -0.818611,
                0.77656,
                0.0967233,
                0.193474,
                0.0373732,
                0.0176722,
                0.531839,
                -0.00558536,
                0.526385,
                0.0707953,
                -0.474303,
                -0.435744,
                0.315768,
                0.173644,
                -0.100046,
                -0.392052,
                -0.176737,
                -0.259249,
                -0.127604,
                -0.0812739,
                0.00623268,
                -0.483629,
                0.0110098,
                0.232786,
                0.241056,
                0.264435,
                0.239698,
                -0.0265126,
                0.42712,
                -0.111156,
                0.00450058,
                0.043235,
                0.42344,
                -0.107419,
                0.435177,
                -0.109738,
                0.323214,
                0.234812,
                0.136006,
                0.532064,
                0.0798874,
                -0.255464,
                -0.132122,
                0.116601,
                0.0646256,
                0.401988,
                0.0907922,
                0.0535451,
                -0.414355,
                -0.125756,
                0.170434,
                0.19185,
                -0.00208005,
                -0.171702,
                0.615079,
                0.0411291,
                -0.0900077,
                -0.277032,
                -0.390941,
                -0.0639998,
                -0.609003,
                0.211869,
                -0.000972847,
                -0.00611731,
                0.0554628,
                0.230138,
                0.271481,
                -0.0258892,
                0.339996,
                -0.150952,
                -0.0916183,
                -0.109986,
                0.229624,
                -0.0984283,
                -0.183192,
                -0.0340588,
                -0.18916,
                0.145312,
                -0.378517,
                -0.353651,
                0.345331,
                0.209967,
                0.12426,
                -0.110754,
                -0.40049,
                -0.193036,
                0.223677,
                0.489971,
                0.119877,
                -0.780403,
                -0.108071,
                0.159314,
                0.0255971,
                0.370995,
                0.096803,
                0.0771336,
                -0.0677474,
                0.35683,
                0.158306,
                -0.123001,
                0.517038,
                -0.137655,
                0.428182,
                0.201784,
                -0.198624,
                -0.24528,
                -0.163632,
                -0.0868695,
                0.366444,
                0.267027,
                0.348815,
                0.0900851,
                -0.102245,
                -0.0724624,
                -0.297747,
                0.693389,
                0.591641,
                0.139936,
                0.28692,
                0.0778899,
                0.303487,
                0.0640146,
                0.0956602,
                -0.121088,
                -0.408854,
                0.0832754,
                0.366008,
                0.0456768,
                0.116215,
                0.00814656,
                -0.660471,
                0.0664282,
                0.134722,
                0.220058,
                0.24988,
                0.20858,
                0.0373404,
                -0.0254255,
                -0.461851,
                -0.0125896,
                -0.356406,
                0.41288,
                -0.161712,
                -0.220371,
                0.0808919,
                0.0480516,
                0.117263,
                -0.149539,
                0.00502905,
                0.515876,
                0.286645,
                0.0517616,
                0.196913,
                -0.597827,
                -0.182283,
                -0.315705,
                0.404606,
                -0.358415,
                -0.374865,
                -0.220096,
                -0.242331,
                0.0324988,
                0.294542,
                -0.0250655,
                0.534788,
                0.286134,
                -0.121113,
                -0.402799,
                -0.181894,
                -0.175462,
                -0.060512,
                0.539362,
                0.575864,
                -0.355164,
                -0.328252,
                -0.639996,
                -0.717386,
                -0.132729,
                -0.127678,
                -0.0497926,
                0.252976,
                -0.0766951,
                0.135637,
                0.189485,
                0.0167303,
                0.122355,
                0.25207,
                -0.0137172,
                0.00602147,
                0.0808125,
                -0.0673157,
                -0.0849644,
                -0.149456,
                0.0778923,
                0.0615061,
                -0.237294,
                -0.208295,
                0.56385,
                0.383541,
                -0.335428,
                -0.235519,
                0.134611,
                0.715518,
                -0.305905,
                0.12356,
                0.182077,
                -0.599479,
                0.542357,
                -0.0761693,
                0.514727,
                0.409359,
                0.410374,
                -0.0750861,
                0.0642597,
                0.179725,
                0.299808,
                -0.223557,
                -0.647066,
                0.0746208,
                0.0466765,
                -0.204723,
                0.57243,
                -0.138533,
                -0.0573031,
                -0.166744,
                0.416947,
                0.0285921,
                0.181364,
                0.256561,
                -0.333467,
                -0.567128,
                -0.484363,
                -0.585259,
                0.427962,
                0.476273,
                0.147847,
                -0.0392882,
                0.251957,
                -0.0786948,
                0.180886,
                -0.0220974,
                -0.13655,
                -0.144161,
                -0.214761,
                -0.204278,
                0.13051,
                0.0385062,
                0.25664,
                0.350359,
                0.363997,
                0.223531,
                -0.47723,
                0.0616013,
                -0.202147,
                -0.442039,
                0.218221,
                0.184982,
                0.153848,
                0.250433,
                -0.452875,
                0.459621,
                -0.18055,
                -0.346158,
                -0.149335,
                -0.658363,
                -0.136944,
                0.153817,
                0.263708,
                0.0343164,
                0.0673261,
                -0.0657222,
                -0.0840871,
                -0.138971,
                -0.0154404,
                -0.618648,
                0.273372,
                0.598423,
                0.10375,
                0.0681693,
                -0.152563,
                0.266621,
                0.1019,
                -0.216022,
                -0.53113,
                -0.197086,
                -0.201928,
                -0.0679369,
                0.00223725,
                0.182959,
                -0.206046,
                -0.493729,
                0.179684,
                -0.635625,
                -0.0891844,
                -0.220143,
                0.00231774,
                0.537309,
                -0.198715,
                -0.434302,
                0.119509,
                -0.00848606,
                -0.213686,
                -0.154182,
                0.203653,
                0.00898834,
                -0.165892,
                0.502054,
                0.0149051,
                -0.31758,
                -0.399661,
                -0.400314,
                0.0474643,
                -0.00141956,
                -0.288453,
                -0.559362,
                -0.0892066,
                0.0997281,
                0.237291,
                0.544757,
                0.155539,
                0.0486429,
                -0.413177,
                -0.517097,
                -0.252536,
                0.239934,
                0.044973,
                0.386037,
                0.0061451,
                0.502159,
                0.10729,
                0.170351,
                0.270023,
                0.159489,
                -0.413699,
                -0.0595303,
                -0.569446,
                -0.294556,
                0.250346,
                -0.124369,
                -0.376739,
                -0.713212,
                0.150112,
                0.200201,
                -0.367092,
                0.37443,
                0.880332,
                0.361864,
                -0.358246,
                -0.256948,
                0.111384,
                0.126559,
                0.0725266,
                0.0151122,
                -0.18698,
                -0.123965,
                -0.137898,
                0.284433,
                0.0255172,
                -0.155275,
                -0.0148702,
                0.107544,
                -0.0688136,
                -0.175761,
                -0.548255,
                0.185395,
                0.163756,
                0.0205612,
                0.270608,
                0.357363,
                -0.262424,
                0.477123,
                0.19445,
                -0.0896401,
                0.155954,
                0.189783,
                0.142006,
                0.428056,
                0.278409,
                -0.250072,
                -0.214073,
                -0.113803,
                0.117448,
                -0.283264,
                -0.296158,
                0.0262932,
                0.20545,
                -0.393192,
                0.0528179,
                0.1272,
                -0.0589606,
                0.281232,
                -0.0765784,
                -0.0337857,
                -0.0754676,
                -0.0562928,
                0.390824,
                0.0352541,
                -0.130167,
                -0.0514193,
                0.283749,
                -0.194157,
                0.050568,
                -0.41749,
                0.246689,
                0.0397296,
                0.094933,
                0.120018,
                -0.091864,
                0.27411,
                0.00273492,
                -0.434942,
                -0.146562,
                0.118345,
                0.0593596,
                0.273617,
                -0.152835,
                -0.230989,
                0.00961088,
                0.475185,
                0.0502843,
                0.0880193,
                0.0460903,
                -0.200725,
                -0.497869,
                -0.0122156,
                -0.192202,
                -0.299332,
                -0.356467,
                -0.198503,
                -0.119348,
                0.26005,
                0.00871629,
                0.167552,
                0.0715802,
                -0.402516,
                -0.184919,
                0.545584,
                -0.517288,
                -0.104281,
                -0.0822854,
                0.330024,
                0.194421,
                0.100286,
                0.315774,
                -0.241779,
                -0.122919,
                -0.0250589,
                -0.149794,
                0.33693,
                0.070257,
                -0.059856,
                -0.0271747,
                0.0291032,
                0.314808,
                -0.146849,
                0.15258,
                -0.0539721,
                -0.121315,
                0.227486,
                -0.266101,
                0.114785,
                -0.31605,
                -0.193458,
                0.0206401,
                0.484613,
                -0.00547983,
                -0.255614,
                0.316102,
                0.237759,
                -0.959476,
                -0.106556,
                0.121135,
                0.151138,
                -0.00623317,
                -0.430984,
                0.288995,
                0.521755,
                -0.159062,
                0.690879,
                0.0768058,
                0.220272,
                -0.106332,
                -0.415865,
                -0.727747,
                0.0894275,
                -0.162763,
                -0.156779,
                -0.644744,
                -0.031487,
                -0.0993161,
                0.326106,
                0.355869,
                0.501013,
                -0.215881,
                0.26369,
                0.131243,
                -0.276593,
                -0.32275,
                -0.102133,
                0.0437413,
                -0.122919,
                -0.221714,
                -0.281669,
                0.145676,
                -0.0874374,
                0.556017,
                0.656283,
                0.4379,
                0.139386,
                -0.20225,
                -0.180221,
                -0.0863921,
                0.295683,
                0.191181,
                -0.405647,
                -0.305237,
                0.25922,
                0.77206,
                0.252901,
                -0.0807421,
                0.0171646,
                -0.129641,
                0.339676,
                -0.18451,
                -0.0508966,
                0.0927977,
                0.216994,
                0.347634,
                -0.219134,
                -0.139576,
                0.459098,
                0.0433026,
                -0.0641213,
                0.0134757,
                0.0242394,
                -0.195652,
                -0.077768,
                -0.198167,
                -0.273708,
                -0.346348,
                -0.181145,
                -0.19603,
                -0.0032863,
                -0.0799029,
                0.0841011,
                0.235756,
                -0.0994386,
                0.0432771,
                -0.0126934,
                0.167291,
                -0.0798682,
                0.141801,
                -0.0594784,
                -0.129293,
                -0.13289,
                -0.185301,
                0.468059,
                0.182733,
                0.235143,
                0.460149,
                0.0729234,
                -0.0332179,
                -0.00436385,
                -0.194035,
                -0.0180722,
                -0.645087,
                0.0554397,
                -0.154244,
                0.263812,
                0.226183,
                -0.152784,
                -0.219866,
                -0.264443,
                -0.00678945,
                0.103702,
                0.368165,
                0.204038,
                -0.173636,
                0.19474,
                0.06304,
                -0.184661,
                0.180855,
                0.233172,
                -0.566074,
                -0.175518,
                0.0422262,
                0.0600034,
                0.115011,
                0.187922,
                0.177751,
                0.0674945,
                0.0647767,
                0.110727,
                -0.263342,
                0.367656,
                0.194401,
                0.256268,
                -0.223692,
                0.1716,
                0.239931,
                -0.0327772,
                0.000807842,
                -0.233181,
                0.392419,
                0.199315,
                0.14427,
                -0.147654,
                0.00686101,
                -0.0892271,
                -0.115767,
                -0.210588,
                0.523535,
                -0.024342,
                0.0664052,
                -0.458643,
                0.296591,
                -0.065065,
                -0.19427,
                0.0287082,
                0.374067,
                0.00816846,
                -0.172391,
                -0.0899557,
                -0.0739998,
                0.0430743,
                0.0123122,
                -0.147444,
                -0.0355724,
                0.24779,
                -0.0544377,
                -0.0594031,
                0.038116,
                0.00362309,
                0.235596,
                -0.00213235,
                0.441171,
                -0.405604,
                -0.285142,
                -0.238296,
                0.180358,
                0.101042,
                -0.438826,
                0.074273,
                -0.278968,
                0.274857,
                -0.227793,
                0.256567,
                0.268287,
                0.212168,
                -0.417975,
                -0.0727572,
                0.164014,
                -0.0177029,
                -0.125138,
                -0.0615515,
                0.318922,
                0.112375,
                -0.0635388,
                -0.0661455,
                0.162542,
                -0.127805,
                -0.341943,
                -0.34277,
                -0.326271,
                -0.0120818,
                -0.330419,
                0.123154,
                -0.26497,
                0.259017,
                0.0865025,
                0.143794,
                -0.606987,
                -0.172677,
                0.0909914,
                0.263328,
                0.364266,
                0.233211,
                0.0607334,
                -0.266006,
                0.0397609,
                -0.200997,
                0.0484489,
                0.0671812,
                0.0398019,
                -0.0692623,
                -0.390007,
                -0.0258309,
                0.689465,
                -0.406881,
                0.198977,
                -0.272152,
                0.0928366,
                -0.163213,
                -0.081382,
                -0.112249,
                0.0930471,
                0.230207,
                0.217025,
                0.386587,
                0.0244883,
                0.263866,
                0.122134,
                -0.0592026,
                -0.335375,
                0.526361,
                -0.133716,
                0.357555,
                -0.199524,
                -0.227797,
                0.100351,
                -0.363314,
                0.528056,
                0.227546,
                0.232866,
                -0.0574078,
                0.0416823,
                0.00474618,
                0.00630748,
                0.0623277,
                -0.0329908,
                0.00887993,
                -0.00447386,
                -0.0688792,
                0.265191,
                0.112117,
                0.157263,
                -0.280922,
                -0.0694428,
                0.117618,
                -0.0559293,
                0.15851,
                -0.187432,
                -0.102568,
                0.151761,
                0.100053,
                0.187537,
                -0.0453113,
                -0.189625,
                -0.0323143,
                0.0148646,
                0.185078,
                -0.355049,
                0.00660382,
                -0.00953558,
                0.00918627,
                0.155904,
                0.0114097,
                0.0308476,
                -0.052818,
                -0.177661,
                -0.0915759,
                0.0171854,
                -0.0767272,
                0.0247846,
                -0.00768257,
                0.0689064,
                0.0539544,
                0.11503,
                -0.0220677,
                -0.0119777,
                0.016758,
                -0.00384992,
                -0.0686289,
                -0.127762,
                -0.338064,
                0.337767,
                -0.160782,
                -0.0106517,
                -0.301989,
                -0.163437,
                0.353051,
                -0.566245,
                0.0870177,
                0.162877,
                0.0643782,
                0.167038,
                -0.120782,
                0.0235935,
                0.191632,
                -0.290228,
                -0.361171,
                -0.089683,
                -0.0287623,
                0.12477,
                0.227466,
                0.495512,
                -0.229197,
                -0.401081,
                -0.10351,
                0.510754,
                0.0290836,
                0.022944,
                0.280768,
                -0.126974,
                -0.0747438,
                -0.427916,
                0.501223,
                -0.0837339,
                -0.0126523,
                -0.113533,
                -0.296407,
                0.333483,
                0.275629,
                -0.251101,
                0.461787,
                0.417555,
                0.108191,
                0.0750262,
                0.213461,
                -0.343585,
                -0.643954,
                -0.0407716,
                0.258622,
                0.152288,
                -0.246888,
                -0.292058,
                0.149883,
                0.100227,
                0.108866,
                0.165892,
                0.0175368,
                -0.196091,
                0.0169438,
                0.203908,
                0.150121,
                0.236066,
                -0.00585505,
                0.292148,
                -0.165094,
                -0.122244,
                -0.200339,
                0.379593,
                0.0122896,
                -0.0931555,
                -9.80435e-005,
                0.0999046,
                -0.314554,
                -0.30241,
                -0.344391,
                -0.278058,
                -0.0151015,
                0.492668,
                -0.173512,
                0.0135564,
                0.0229683,
                -0.678393,
                0.857131,
                0.0628992,
                0.195637,
                -0.313216,
                -0.13753,
                0.315394,
                -0.0254579,
                -0.114898,
                -0.3057,
                -0.0491505,
                0.504849,
                0.0152236,
                -0.180688,
                -0.0303712,
                -0.292271,
                0.291736,
                0.147965,
                0.299468,
                0.182799,
                -0.750446,
                0.54474,
                -0.390876,
                0.240392,
                -0.185669,
                -0.259634,
                -0.0812618,
                -0.514726,
                -0.0593414,
                -0.168628,
                0.0430821,
                0.373094,
                -0.385748,
                -0.304222,
                0.10842,
                -0.131774,
                -0.0906355,
                0.0265787,
                -0.13085,
                0.222167,
                -0.346932,
                -0.31066,
                0.242325,
                -0.0681097,
                0.283912,
                -0.657861,
                -0.148253,
                0.260594,
                -0.280338,
                -0.477454,
                -0.208505,
                0.0432238,
                -0.326331,
                -0.596843,
                -0.194826,
                0.137426,
                -0.893178,
                -0.270643,
                -0.192248,
                0.131757,
                -0.0127905,
                -0.320767,
                0.174147,
                -0.0278329,
                0.257517,
                -0.203793,
                0.0525161,
                -0.621191,
                -0.155509,
                -0.320649,
                0.195465,
                0.00388284,
                0.338938,
                0.52234,
                0.270082,
                0.291913,
                0.233298,
                -0.156901,
                0.0406357,
                0.120477,
                -0.364263,
                -0.0887147,
                0.154845,
                -0.311796,
                0.310177,
                0.482944,
                -0.031997,
                0.35137,
                -0.346637,
                0.00493977,
                0.0940986,
                -0.0191748,
                0.607991,
                -0.203117,
                -0.29182,
                -0.136103,
                0.228788,
                -0.277129,
                0.354708,
                -0.178294,
                -0.00896082,
                -0.0744043,
                0.0762446,
                0.120362,
                0.292971,
                -0.0992927,
                -0.201662,
                -0.436929,
                0.468528,
                -0.171036,
                0.203247,
                0.323261,
                0.168501,
                -0.144611,
                0.00663638,
                -0.184941,
                0.182384,
                -0.500876,
                0.169908,
                -0.389532,
                0.202889,
                -0.138468,
                0.0133082,
                0.182341,
                0.00404141,
                -0.507983,
                0.218432,
                0.468777,
                0.357457,
                -0.17798,
                0.0440587,
                -0.0587772,
                0.54011,
                -0.275735,
                0.393821,
                0.318865,
                0.297646,
                0.0626325,
                -0.26104,
                -0.076819,
                -0.0522946,
                0.226237,
                -0.434185,
                -0.0265449,
                -0.765033,
                0.26706,
                0.123327,
                -0.0447572,
                -0.197818,
                -0.2605,
                -0.348561,
                -0.0163847,
                -0.0478361,
                0.448806,
                0.615857,
                -0.205534,
                0.247549,
                0.278964,
                0.0559125,
                0.0530872,
                -0.281489,
                0.1449,
                0.978272,
                0.195816,
                -0.0661329,
                0.0625919,
                -0.0139042,
                -0.0829724,
                -0.0349074,
                -0.0510025,
                -0.214502,
                0.344803,
                -0.170503,
                0.108362,
                -0.308464,
                -0.329048,
                0.327194,
                -0.313313,
                -0.159331,
                -0.0943531,
                0.219358,
                0.33189,
                -0.0862657,
                -0.0548416,
                -0.131798,
                -0.0911674,
                -0.0161451,
                -0.110537,
                -0.301004,
                0.208491,
                -0.0126103,
                0.023351,
                0.388354,
                -0.269332,
                0.372151,
                -0.10423,
                0.050253,
                0.0201489,
                0.102992,
                -0.0753546,
                0.00417779,
                -0.201558,
                0.239495,
                -0.152142,
                0.163291,
                -0.113995,
                -0.564337,
                0.0186773,
                0.157556,
                -0.293531,
                -0.101927,
                0.477469,
                -0.273973,
                -0.148404,
                -0.335781,
                0.155185,
                0.361239,
                0.119712,
                -0.230366,
                -0.158041,
                -0.253464,
                -0.0874957,
                -0.0804019,
                0.036072,
                -0.0702086,
                -0.0825135,
                0.0612459,
                0.139967,
                -0.204917,
                0.192726,
                0.0441551,
                0.465194,
                -0.0887706,
                0.245637,
                0.0832404,
                -0.195494,
                -0.0616071,
                -0.0674854,
                -0.346101,
                0.363839,
                0.338393,
                -0.554681,
                0.0993639,
                0.214718,
                0.406133,
                -0.193593,
                0.142918,
                0.000341234,
                -0.317611,
                -0.113953,
                -0.187461,
                -0.100514,
                -0.232937,
                0.157136,
                0.0199322,
                -0.158945,
                -0.277486,
                0.0983359,
                0.044897,
                -0.216265,
                0.135501,
                -0.0108575,
                -0.0924542,
                -0.0667478,
                -0.0308105,
                0.0710379,
                -0.120441,
                0.450549,
                -0.177144,
                -0.588022,
                0.104703,
                -0.13417,
                0.470151,
                0.329822,
                0.544882,
                0.00688855,
                -0.569689,
                -0.124755,
                0.299606,
                -0.459329,
                -0.0304497,
                0.0872117,
                0.105318,
                0.179841,
                0.280995,
                0.329966,
                0.209431,
                -0.295904,
                0.306352,
                -0.383158,
                0.0886593,
                -0.434424,
                -0.176405,
                -0.17869,
                -0.569523,
                0.0497064,
                -0.352096,
                0.0838257,
                -0.200103,
                0.199213,
                -0.427271,
                0.438224,
                -0.168114,
                -0.26051,
                0.229028,
                0.124718,
                1.00752,
                0.116077,
                -0.230264,
                0.626723,
                -0.373517,
                0.323851,
                -0.268394,
                0.342937,
                0.16972,
                -0.28939,
                0.433099,
                -0.256632,
                0.0944038,
                0.247847,
                0.323532,
                -0.312826,
                -0.249479,
                -0.157575,
                0.165117,
                -0.144852,
                -0.50616,
                0.826458,
                -0.273589,
                0.250532,
                0.084627,
                -0.291079,
                0.251286,
                0.215281,
                -0.0795486,
                -0.0607048,
                0.170253,
                0.00208843,
                0.348874,
                0.317378,
                0.404279,
                -0.0251277,
                0.0944657,
                -0.0708677,
                0.226609,
                0.616325,
                -0.219305,
                0.410214,
                -0.0246216,
                0.0370335,
                -0.469694,
                0.140305,
                0.206781,
                0.410548,
                -0.00376807,
                -0.368729,
                0.317432,
                -0.112824,
                0.0670427,
                0.092508,
                -0.0186339,
                0.0296764,
                0.13789,
                0.277439,
                0.0275415,
                -0.022167,
                0.343713,
                -0.18419,
                0.55187,
                0.248233,
                -0.160455,
                -0.102941,
                0.107745,
                0.289891,
                -0.435428,
                -0.0248574,
                -0.143202,
                0.134491,
                0.241617,
                0.0308831,
                0.0936176,
                -0.327895,
                -0.106118,
                0.252475,
                -0.584599,
                -0.236641,
                -0.632879,
                -0.180048,
                -0.116606,
                -0.0608015,
                0.142575,
                0.00567943,
                0.14843,
                -0.285679,
                -0.0946231,
                0.680048,
                -0.0873353,
                -0.138317,
                0.571349,
                -0.604445,
                0.619991,
                -0.120493,
                0.343953,
                0.144211,
                -0.321486,
                -0.163724,
                0.627635,
                -0.153327,
                0.203358,
                0.103557,
                0.348864,
                0.0363942,
                -0.257235,
                -0.0141923,
                -0.43899,
                -0.0884874,
                0.0795162,
                -0.141638,
                0.204881,
                -0.340373,
                0.272549,
                0.399624,
                0.0246875,
                -0.167798,
                0.259639,
                -0.260069,
                -0.154222,
                0.723191,
                0.108365,
                -0.0250656,
                -0.0263647,
                -0.0596601,
                0.441323,
                0.162008,
                0.535995,
                -0.444091,
                0.0427627,
                -0.207937,
                -0.0873186,
                0.175329,
                0.124404,
                0.20955,
                0.172702,
                -0.122873,
                -0.113836,
                0.0382924,
                -0.345817,
                -0.392786,
                -0.24389,
                0.127125,
                -0.845824,
                -0.0276473,
                0.734176,
                0.686632,
                0.180323,
                0.0938262,
                0.19945,
                0.348411,
                -0.424615,
                0.0655584,
                -0.0227103,
                0.204342,
                0.49288,
                -0.149069,
                -0.42496,
                0.418948,
                0.183352,
                0.479647,
                0.60739,
                -0.190526,
                0.170269,
                -0.243739,
                0.0711937,
                -0.391806,
                0.0547863,
                -0.0622414,
                -0.433714,
                0.246001,
                0.0730743,
                0.320986,
                0.15498,
                -0.0301172,
                0.401372,
                0.435196,
                -0.149934,
                -0.830673,
                0.089177,
                0.0120973,
                0.101063,
                0.470189,
                -0.0684558,
                -0.148552,
                -0.278196,
                0.31762,
                0.515898,
                0.0270657,
                0.19293,
                0.158471,
                -0.291855,
                0.483249,
                -0.0740234,
                0.391629,
                0.406262,
                -0.214993,
                -0.228099,
                -0.294184,
                0.824417,
                0.225017,
                -0.224265,
                0.53516,
                0.149826,
                -0.0630752,
                0.135221,
                -0.00897901,
                0.0246347,
                -0.140429,
                -0.327297,
                0.0734654,
                0.259316,
                0.194519,
                -0.062861,
                -0.116253,
                -0.285864,
                0.267581,
                -0.384989,
                0.43073,
                0.29838,
                -0.161877,
                0.124665,
                0.41401,
                0.456987,
                -0.0206475,
                0.257872,
                -0.081541,
                0.0547843,
                -0.770069,
                -0.246679,
                0.0797566,
                0.338049,
                0.0759247,
                -0.103653,
                -0.243311,
                0.542014,
                0.513674,
                -0.245816,
                -0.428376,
                -0.330597,
                -0.17042,
                -0.237188,
                -0.192318,
                0.0621123,
                -0.220506,
                0.272859,
                0.539968,
                0.128046,
                -0.209785,
                -0.118269,
                -0.250733,
                0.0258561,
                -0.127718,
                0.250604,
                0.197944,
                -0.00558933,
                -0.600074,
                -0.427897,
                0.290942,
                -0.227475,
                0.0729902,
                0.14699,
                -0.30989,
                -0.0417743,
                0.280758,
                0.168037,
                -0.0714641,
                0.0937097,
                0.382173,
                0.237728,
                -0.351498,
                0.495644,
                0.549009,
                0.346374,
                0.215555,
                0.212405,
                -0.0950659,
                -0.191823,
                0.0113667,
                0.552782,
                -0.376115,
                -0.0582571,
                0.520741,
                0.298229,
                -0.265219,
                -0.121395,
                -0.497038,
                0.0452068,
                0.400243,
                0.661495,
                0.260029,
                0.302562,
                0.0613717,
                -0.417693,
                0.282455,
                -0.212907,
                -0.307052,
                -0.240453,
                -0.361017,
                0.076286,
                -0.346888,
                0.491542,
                0.151903,
                -0.0738652,
                -0.00281169,
                0.0810885,
                0.114814,
                -0.120453,
                -0.376406,
                0.00922383,
                0.610536,
                0.410209,
                0.160183,
                0.276711,
                0.127822,
                0.4656,
                0.532695,
                -0.325467,
                0.153467,
                0.866169,
                -0.0877735,
                -0.161155,
                -0.0789105,
                -0.133859,
                0.562402,
                -0.192265,
                -0.0138291,
                0.273444,
                0.407,
                0.230927,
                0.165076,
                0.0285496,
                -0.569572,
                0.00728454,
                -0.130028,
                -0.753862,
                0.117925,
                -0.341189,
                0.256558,
                0.379735,
                0.127043,
                0.052621,
                -0.0665571,
                0.0847107,
                -0.423248,
                -0.0737355,
                0.0250929,
                -0.28685,
                -0.0740161,
                0.0158645,
                0.176353,
                0.511042,
                -0.805201,
                -0.327367,
                -0.0569034,
                0.102766,
                -0.525946,
                -0.300615,
                -0.0461954,
                -0.583679,
                0.226052,
                0.106209,
                0.467585,
                0.453421,
                0.386312,
                -0.102328,
                -0.225802,
                -0.401912,
                -0.688024,
                0.0140269,
                0.262936,
                -0.254096,
                -0.368553,
                -0.383732,
                -0.462125,
                0.505607,
                -0.144201,
                0.130195,
                0.127754,
                -0.231924,
                -0.121488,
                0.436817,
                -0.151093,
                -0.258367,
                0.641528,
                -0.128279,
                0.0654882,
                -0.0775775,
                0.0342447,
                -0.129675,
                -0.111981,
                -0.126795,
                -0.16837,
                0.115424,
                -0.108208,
                0.0477946,
                0.424722,
                -0.169558,
                -0.334657,
                -0.00581869,
                0.393488,
                -0.113945,
                -0.48649,
                -0.237659,
                -0.111577,
                0.562392,
                -0.125662,
                0.474884,
                -0.0356591,
                -0.169152,
                -0.175493,
                -0.202589,
                0.207308,
                0.1148,
                -0.00492301,
                0.135602,
                0.166429,
                -0.130987,
                -0.019451,
                0.416174,
                -0.436508,
                0.102956,
                -0.271247,
                -0.0993719,
                0.120783,
                -0.271426,
                -0.50988,
                0.170688,
                0.601454,
                0.0370706,
                0.0610382,
                -0.20002,
                -0.317105,
                0.17513,
                0.0314309,
                0.107334,
                0.0167029,
                -0.29318,
                0.106689,
                -0.113472,
                -0.107279,
                -0.0158259,
                -0.317259,
                -0.0346888,
                -0.250078,
                -0.321492,
                0.122262,
                0.0210631,
                0.00735111,
                -0.323694,
                -0.459372,
                0.235879,
                -0.518716,
                -0.0958465,
                0.129749,
                -0.0500161,
                -0.13897,
                0.17123,
                0.136908,
                -0.288353,
                -0.268613,
                -0.113858,
                0.121933,
                -0.215057,
                0.43346,
                -0.746301,
                0.162667,
                0.462609,
                -0.0608038,
                0.140035,
                -0.406293,
                -0.165219,
                -0.0728803,
                0.411125,
                -0.0305603,
                -0.117556,
                0.281348,
                -0.226767,
                -0.139563,
                -0.103341,
                0.17007,
                -0.652945,
                0.258718,
                -0.076016,
                0.194851,
                0.409226,
                -0.278389,
                0.632032,
                -0.0440882,
                -0.212756,
                -0.0255431,
                -0.0374135,
                -0.277767,
                -0.145938,
                0.363355,
                0.206111,
                -0.351811,
                -0.323892,
                0.0773307,
                -0.644315,
                -0.332858,
                0.131606,
                -0.172374,
                -0.294031,
                0.170782,
                -0.502794,
                0.0887992,
                0.066258,
                0.227543,
                -0.229333,
                -0.576368,
                -0.495196,
                0.424651,
                0.0370211,
                0.352793,
                0.279751,
                0.203785,
                -0.169535,
                -0.463644,
                0.289518,
                -0.330414,
                0.0470758,
                -0.694486,
                -0.0236898,
                0.0850126,
                0.0965902,
                -0.335574,
                0.383526,
                0.241415,
                0.0849027,
                -0.39093,
                -0.0499695,
                -0.0986733,
                0.124895,
                -0.484056,
                0.108324,
                0.0515582,
                -0.493742,
                -0.0768552,
                -0.0161667,
                0.172824,
                -0.0656337,
                -0.0378063,
                -0.0867735,
                0.0895206,
                -0.589352,
                -0.145096,
                0.108937,
                0.0354366,
                -0.222752,
                0.331751,
                0.277354,
                -0.280671,
                -0.0757762,
                -0.292901,
                -0.00229427,
                0.109696,
                -0.172868,
                0.0817272,
                -0.0850927,
                0.221366,
                0.043706,
                0.103739,
                -0.497751,
                -0.303101,
                -0.256052,
                -0.0543008,
                -0.438071,
                0.0274972,
                -0.214481,
                -0.234531,
                -0.106503,
                0.58679,
                0.228898,
                -0.0082858,
                0.117303,
                0.306221,
                0.279601,
                -0.122251,
                -0.113473,
                -0.132142,
                -0.209018,
                0.581662,
                0.338492,
                -0.316258,
                -0.410293,
                -0.259888,
                0.706555,
                0.0141961,
                -0.109737,
                0.00632526,
                -0.164948,
                -0.14927,
                0.0860869,
                0.172339,
                -0.296541,
                0.322901,
                -0.241907,
                -0.362692,
                -0.0860119,
                -0.233474,
                -0.234919,
                0.255229,
                0.452856,
                0.179171,
                0.0427944,
                -0.459623,
                -0.0691644,
                0.0491364,
                -0.134989,
                0.268019,
                -0.0372479,
                -0.00715678,
                -0.112551,
                -0.174578,
                -0.0954986,
                0.25862,
                -0.259913,
                -0.0447678,
                0.239377,
                -0.226993,
                -0.261759,
                0.240415,
                0.288885,
                0.119421,
                0.220411,
                -0.159542,
                0.103815,
                -0.269321,
                0.00902903,
                0.315443,
                -0.198912,
                0.1909,
                0.109463,
                0.097882,
                0.167765,
                0.302968,
                0.083714,
                -0.188346,
                0.216555,
                0.368005,
                0.210904,
                0.199624,
                -0.297856,
                -0.216681,
                -0.276183,
                -0.217536,
                -0.0307971,
                -0.28594,
                -0.216031,
                -0.0856184,
                0.00572019,
                0.145995,
                0.213905,
                -0.129303,
                -0.141831,
                0.401135,
                0.113831,
                0.104358,
                -0.362885,
                0.278784,
                0.244688,
                0.179362,
                -0.175015,
                0.109275,
                0.387624,
                0.287716,
                0.0585904,
                0.416306,
                0.123661,
                -0.660911,
                0.217979,
                -0.337463,
                -0.0554889,
                0.38216,
                -0.624687,
                -0.294016,
                -0.236306,
                0.169633,
                0.00955676,
                -0.118888,
                0.293575,
                -0.666071,
                -0.578283,
                0.102631,
                0.266081,
                0.196846,
                -0.0913012,
                -0.178169,
                0.198511,
                0.00569044,
                0.687825,
                0.147976,
                0.647785,
                -0.0853829,
                0.0346567,
                -0.429107,
                0.369958,
                -0.229371,
                -0.221964,
                -0.376811,
                0.121896,
                0.406948,
                -0.0652683,
                0.0996697,
                -0.225015,
                0.35498,
                0.431754,
                -0.389756,
                0.403302,
                -0.16462,
                -0.248304,
                0.0279798,
                0.25063,
                0.0945355,
                -0.234895,
                -0.121789,
                0.0666326,
                -0.112495,
                0.104769,
                0.0545049,
                -0.204401,
                0.156715,
                0.097598,
                -0.366883,
                0.415769,
                0.0483001,
                -0.146667,
                -0.24386,
                0.14011,
                0.118542,
                0.235095,
                0.0222025,
                -0.114125,
                0.0612089,
                0.150768,
                0.0366063,
                -0.0256555,
                0.13227,
                -0.0162356,
                -0.00185667,
                -0.485828,
                0.263082,
                0.159521,
                -0.0499576,
                0.464585,
                0.145974,
                0.0942829,
                -0.20933,
                -0.0491506,
                0.236545,
                -0.222834,
                -0.146089,
                0.142512,
                0.138331,
                0.0446591,
                0.00561468,
                0.0704906,
                0.248148,
                -0.00915615,
                0.0688433,
                -0.0597354,
                -0.0109062,
                -0.198138,
                0.22663,
                0.00769559,
                0.351589,
                0.161086,
                0.0431541,
                0.0845723,
                -0.438908,
                -0.0461773,
                0.0452314,
                0.349857,
                0.578128,
                -0.144396,
                0.105802,
                -0.266762,
                0.378028,
                0.0713575,
                0.272793,
                0.125874,
                -0.29548,
                -0.227772,
                -0.396582,
                0.0613246,
                -0.524348,
                -0.249722,
                -0.292115,
                0.349127,
                0.00160752,
                0.363266,
                -0.157891,
                -0.183945,
                0.122819,
                -0.229967,
                -0.2537,
                0.305691,
                -0.0809861,
                -0.119803,
                -0.339126,
                -0.171633,
                0.118481,
                -0.316419,
                0.521339,
                -0.409785,
                -0.216945,
                0.438012,
                -0.414443,
                0.0890545,
                -0.0756572,
                -0.334917,
                0.0285794,
                -0.072055,
                -0.102229,
                -0.184243,
                0.146503,
                0.105931,
                -0.125114,
                0.332056,
                -0.128453,
                -0.241833,
                -0.129065,
                -0.139062,
                -0.0738659,
                0.0680345,
                -0.090644,
                0.0511825,
                0.139928,
                -0.215653,
                -0.0217573,
                -0.196398,
                -0.0957061,
                -0.263022,
                0.226434,
                0.0981603,
                0.000320259,
                -0.216204,
                -0.0335285,
                0.035772,
                -0.228158,
                0.134785,
                -0.00927686,
                0.164651,
                -0.133639,
                0.111618,
                0.0226657,
                0.370152,
                -0.0570984,
                -0.112495,
                0.121664,
                0.0657721,
                -0.140291,
                -0.00400302,
                -0.157902,
                -0.12851,
                -0.0291802,
                -0.275343,
                -0.008497,
                -0.0684312,
                -0.174144,
                0.0349651,
                -0.791781,
                -0.0347698,
                -0.359895,
                0.0116033,
                -0.585626,
                -0.222849,
                0.344615,
                -0.418194,
                0.304011,
                -0.0164417,
                0.347077,
                0.40177,
                -0.21384,
                -0.14306,
                0.558937,
                -0.118963,
                -0.392729,
                -0.1161,
                0.309222,
                -0.0522248,
                0.053029,
                -0.299788,
                0.460723,
                -0.0114146,
                -0.368834,
                1.00448,
                -0.103437,
                -0.102512,
                -0.0362395,
                -0.306473,
                0.00112725,
                -0.109527,
                0.497966,
                0.636651,
                -0.481698,
                0.061035,
                -0.37831,
                0.372557,
                0.162801,
                -0.35435,
                0.755724,
                0.00421946,
                -0.401922,
                -0.12127,
                0.299246,
                0.126543,
                -0.202363,
                -0.00153467,
                0.416383,
                0.134173,
                -0.2762,
                0.48831,
                -0.0780986,
                -0.0611539,
                -0.148603,
                0.0223554,
                -0.26977,
                -0.0499981,
                0.362434,
                0.0291387,
                0.049827,
                0.19831,
                -0.197614,
                0.324486,
                -0.152365,
                -0.108157,
                -0.380029,
                -0.0995172,
                -0.197161,
                0.145819,
                -0.149713,
                0.491947,
                -0.0356248,
                -0.613601,
                -0.709432,
                0.116282,
                0.410711,
                -0.252964,
                0.0603966,
                -0.112105,
                -0.113071,
                -0.385664,
                0.0720119,
                -0.327566,
                0.63203,
                -0.171211,
                -0.184129,
                0.357668,
                -0.0950786,
                0.125366,
                -0.300364,
                0.22638,
                0.0420243,
                0.119296,
                -0.176162,
                -0.373194,
                -0.104937,
                -0.363446,
                -0.108842,
                -0.106658,
                -0.308469,
                -0.258232,
                -0.140221,
                0.285873,
                -0.335978,
                -0.347076,
                0.212651,
                -0.514041,
                -0.0333662,
                -0.375249,
                0.167081,
                0.128172,
                0.280143,
                -0.231918,
                0.19618,
                0.0197228,
                -0.0667605,
                0.14184,
                0.280027,
                -0.472564,
                0.337139,
                -0.0208288,
                -0.105741,
                0.226375,
                -0.108856,
                0.164546,
                -0.119223,
                0.172043,
                -0.0665351,
                -0.169034,
                0.188832,
                0.128106,
                -0.156214,
                -0.0677158,
                -0.486916,
                -0.141568,
                0.0894606,
                0.0694359,
                -0.0982293,
                0.172259,
                0.21992,
                -0.155921,
                -0.524781,
                -0.175566,
                -0.0902307,
                0.102898,
                -0.196069,
                0.342722,
                0.107786,
                -0.110323,
                -0.10758,
                -0.0444127,
                -0.330926,
                -0.430439,
                -0.279824,
                0.0028692,
                -0.313686,
                -0.563439,
                0.0234059,
                0.0254315,
                0.335427,
                0.104483,
                -0.191047,
                0.443251,
                0.308569,
                -0.711858,
                -0.212419,
                -0.488342,
                -0.0126322,
                -0.0756865,
                -0.00130156,
                0.34715,
                -0.194317,
                -0.14838,
                -0.441237,
                0.304578,
                0.0515783,
                -0.2841,
                -0.0650133,
                0.00362507,
                -0.253495,
                0.0703777,
                0.495942,
                0.413543,
                -0.58453,
                -0.242301,
                -0.554918,
                0.287784,
                -0.286921,
                -0.293691,
                0.279675,
                0.455464,
                0.0586235,
                -0.124396,
                -0.0433943,
                -0.000679336,
                -0.575541,
                0.284003,
                -0.0986244,
                -0.217811,
                0.148424,
                0.240877,
                0.0795088,
                -0.233122,
                -0.27258,
                0.103152,
                -0.0071391,
                0.334214,
                0.391321,
                -0.0280959,
                0.104388,
                -0.366014,
                -0.0629612,
                0.0870013,
                0.127163,
                0.438644,
                0.186228,
                0.111465,
                -0.204603,
                0.279734,
                -0.0182626,
                -0.0416687,
                0.484126,
                -0.316895,
                -0.261701,
                -0.0370359,
                0.256392,
                0.0447568,
                0.035813,
                0.288677,
                0.1175,
                -0.00509585,
                -0.117732,
                0.0889007,
                -0.358109,
                0.108077,
                -0.33435,
                0.0886509,
                0.188671,
                0.195127,
                -0.103973,
                0.167861,
                -0.140246,
                0.421523,
                -0.0502566,
                0.295808,
                0.150314,
                0.0393083,
                0.0888135,
                -0.0310372,
                -0.138883,
                0.115397,
                0.0577312,
                -0.173043,
                0.175981,
                -0.0312862,
                -0.004204,
                -0.180186,
                0.0537515,
                -0.00410419,
                -0.151901,
                -0.168242,
                0.166881,
                -0.0255302,
                -0.0712044,
                -0.239135,
                0.117072,
                0.102383,
                0.0611022,
                -0.256755,
                0.139447,
                -0.135086,
                -0.128015,
                -0.0411392,
                0.579042,
                -0.22113,
                0.0477739,
                0.182504,
                0.12831,
                -0.17958,
                0.00869179,
                0.0673392,
                0.00613781,
                0.289636,
                -0.008671,
                -0.233239,
                -0.0303762,
                0.0112818,
                0.187129,
                -0.115331,
                0.0933661,
                -0.24522,
                0.0898898,
                0.0224445,
                -0.293627,
                0.0486781,
                -0.0701462,
                -0.405479,
                0.163069,
                -0.0785713,
                -0.733938,
                0.70295,
                -0.0213209,
                -0.0444869,
                0.0365474,
                0.100365,
                -0.486239,
                0.0569809,
                0.31532,
                0.532616,
                0.34179,
                0.187673,
                -0.380158,
                0.505188,
                -0.0790961,
                -0.10101,
                0.0284828,
                -0.581643,
                -0.100536,
                0.282527,
                -0.143038,
                -0.183003,
                0.442575,
                -0.142991,
                -0.404335,
                0.166193,
                -0.025932,
                0.066939,
                -0.194319,
                -0.243171,
                -0.37539,
                0.254052,
                -0.154014,
                0.480662,
                0.150642,
                -0.29428,
                0.281569,
                -0.0175859,
                -0.142595,
                -0.272717,
                0.334035,
                0.265091,
                0.350748,
                0.0431907,
                0.257028,
                -0.199613,
                -0.0820548,
                0.028461,
                0.140358,
                0.190903,
                0.00445889,
                0.509798,
                -0.0763651,
                -0.141483,
                -0.535363,
                -0.100303,
                -0.181917,
                -0.170391,
                0.485162,
                -0.241959,
                0.183888,
                0.155492,
                -0.375152,
                0.175677,
                -0.528615,
                -0.423543,
                -0.145646,
                -0.281301,
                0.326905,
                0.595162,
                0.0249705,
                0.175756,
                0.0686953,
                0.281426,
                -0.221085,
                0.385354,
                0.55947,
                -0.0317573,
                -0.230691,
                -0.0787045,
                -0.162317,
                -0.534621,
                0.10053,
                0.0931285,
                0.649571,
                -0.129513,
                -0.137654,
                -0.351472,
                0.413019,
                -0.0547851,
                -0.307139,
                0.334958,
                -0.391466,
                0.226454,
                0.129032,
                0.0973184,
                0.234563,
                -0.0675636,
                0.0486891,
                -0.0948697,
                0.0785111,
                0.161339,
                0.20898,
                -0.331724,
                -0.00436983,
                0.219843,
                0.249318,
                0.154347,
                0.397806,
                -0.179387,
                0.221244,
                -0.269158,
                -0.0779214,
                0.272938,
                0.443833,
                -0.194601,
                -0.443096,
                -0.150533,
                0.129869,
                -0.119965,
                -0.157482,
                -0.0533557,
                -0.00645099,
                -0.0292131,
                0.229287,
                0.365157,
                -0.152937,
                -0.11668,
                0.145598,
                -0.204169,
                -0.326802,
                -0.231541,
                0.0475732,
                0.424662,
                0.000452917,
                0.179066,
                0.0656724,
                -0.31385,
                0.14243,
                0.205931,
                -0.262453,
                0.241949,
                -0.0827146,
                0.337985,
                0.0899614,
                0.716391,
                -0.00217573,
                0.264985,
                -0.229052,
                -0.00762715,
                -0.0158768,
                0.187432,
                -0.145174,
                0.0485169,
                0.47315,
                0.582721,
                -0.254347,
                0.0151499,
                -0.342418,
                0.1959,
                0.386493,
                0.101432,
                0.483708,
                -0.21702,
                0.0230092,
                -0.344087,
                0.503956,
                -0.322734,
                0.125653,
                -0.00178444,
                -0.224859,
                -0.042121,
                -0.185129,
                0.386629,
                0.32496,
                -0.357618,
                0.104613,
                0.290443,
                -0.0327087,
                -0.231774,
                0.103973,
                0.0557166,
                0.269662,
                0.00428649,
                -0.426788,
                0.299821,
                -0.0884492,
                0.0611093,
                -0.468028,
                -0.171952,
                -0.365174,
                -0.20056,
                -0.105466,
                -0.104196,
                -0.203131,
                0.277576,
                -0.324014,
                0.244745,
                -0.252006,
                -0.174102,
                0.291002,
                -0.233988,
                -0.327517,
                -0.00551399,
                -0.129792,
                -0.250401,
                0.205591,
                -0.263065,
                -0.413462,
                -0.163932,
                0.316258,
                0.0394752,
                -0.40365,
                -0.428768,
                0.153364,
                0.274712,
                -0.22424,
                -0.001773,
                -0.0747357,
                -0.0970174,
                0.161507,
                -0.181806,
                -0.230357,
                0.0101896,
                -0.0203462,
                0.364897,
                -0.354463,
                0.112522,
                0.0728578,
                -0.349669,
                0.209272,
                0.0564342,
                0.161982,
                -0.0170345,
                0.192629,
                -0.194016,
                0.357228,
                0.248902,
                0.145565,
                -0.102729,
                0.184762,
                -0.160147,
                -0.675241,
                0.358868,
                0.292823,
                0.431292,
                0.036183,
                -0.146534,
                0.446329,
                0.120884,
                -0.198971,
                -0.41651,
                -0.0999083,
                0.0121994,
                -0.188063,
                0.0801159,
                0.379354,
                -0.63389,
                -0.12135,
                0.165771,
                -0.0587106,
                0.0955589,
                0.107472,
                0.159893,
                -0.193633,
                -0.322273,
                0.179893,
                0.258137,
                0.469711,
                0.0438204,
                -0.439898,
                -0.0600523,
                0.0526844,
                -0.522096,
                0.186314,
                0.162018,
                0.257292,
                0.119333,
                0.152871,
                0.369761,
                0.305992,
                -0.194635,
                0.243913,
                -0.255925,
                -0.325449,
                -0.16826,
                -0.244213,
                0.501762,
                0.0605626,
                0.289326,
                0.545594,
                0.0392357,
                0.0693258,
                -0.330755,
                -0.0548154,
                0.0900347,
                -0.787447,
                0.0232787,
                0.482318,
                0.184696,
                0.251814,
                -0.161885,
                0.0731553,
                -0.21866,
                0.136299,
                -0.151695,
                0.155567,
                0.209494,
                -0.245815,
                -0.394594,
                0.0329172,
                -0.208663,
                0.134859,
                -0.346718,
                -0.0857663,
                -0.0766764,
                0.0831714,
                -0.13346,
                -0.0572015,
                0.0137764,
                0.0627796,
                -0.178519,
                -0.0556584,
                0.348654,
                0.270248,
                -0.0400629,
                -0.198596,
                0.0179887,
                0.154291,
                0.11729,
                0.097519,
                0.274783,
                -0.284676,
                -0.291223,
