{
    "layers": [
        {
            "name": "input_layer",
            "type": "input",
            "size": 50
        },
        {
            "name": "hidden_layer",
            "type": "blstm",
            "size": 200,
            "bias": 0
        },
        {
            "name": "output_layer",
            "type": "softmax",
            "size": 45,
            "bias": 0
        },
        {
            "name": "postoutput",
            "type": "multiclass_classification",
            "size": 45
        }
    ],
    "weights": {
        "hidden_layer": {
            "input": [
                0.339404,
                -0.09296,
                -0.27326,
                -0.546205,
                -0.162745,
                -0.52403,
                0.0501102,
                0.283358,
                0.49784,
                -0.246654,
                0.179666,
                -0.537971,
                -0.57191,
                -0.174079,
                0.12606,
                -0.0400185,
                0.386125,
                -0.403882,
                -0.142063,
                0.523137,
                -0.206449,
                0.129734,
                0.279806,
                0.120793,
                -0.13112,
                0.186646,
                0.163626,
                -0.27279,
                0.0961222,
                0.0897627,
                -0.0722218,
                -0.303509,
                -0.566498,
                -0.0404936,
                0.602805,
                -0.456464,
                -0.0975208,
                -0.170638,
                0.26123,
                0.0154213,
                -0.188097,
                0.439113,
                -0.610379,
                0.42942,
                -0.183005,
                -0.171704,
                0.61227,
                0.0180175,
                -0.23835,
                -0.0748955,
                0.226282,
                0.0271918,
                -0.222617,
                -0.0554019,
                0.161765,
                0.233704,
                -0.00986945,
                0.0363838,
                -0.0496338,
                -0.0563444,
                -0.049645,
                -0.056784,
                -0.0466787,
                -0.114584,
                0.0615581,
                0.179808,
                0.0967414,
                -0.206174,
                -0.230657,
                0.125015,
                -0.133362,
                -0.0802584,
                0.0578657,
                -0.010096,
                -0.017818,
                -0.186104,
                -0.0543601,
                0.0820872,
                -0.451479,
                0.217922,
                -0.228542,
                -0.139782,
                -0.186542,
                -0.172869,
                -0.104571,
                -0.272161,
                -0.260228,
                0.0550725,
                -0.110687,
                -0.0430396,
                0.112635,
                0.0174977,
                -0.0888513,
                0.104228,
                -0.184104,
                -0.0608328,
                0.1911,
                0.0214628,
                0.00681144,
                0.0641768,
                0.185608,
                0.106039,
                0.0951751,
                -0.384058,
                -0.132931,
                0.0140668,
                -0.320537,
                -0.0256408,
                -0.0812856,
                0.105525,
                -0.0330033,
                -0.252007,
                0.00289709,
                0.174075,
                0.148916,
                0.0425547,
                0.095184,
                -0.131498,
                -0.184118,
                -0.0904642,
                0.0372257,
                0.135234,
                0.0277741,
                0.0528907,
                -0.195689,
                0.123232,
                0.0650253,
                -0.0998457,
                -0.0822115,
                0.0973646,
                -0.0910446,
                0.174145,
                -0.0614285,
                0.111883,
                0.211482,
                -0.0147919,
                0.271478,
                0.00609585,
                0.42295,
                0.0543317,
                0.0145844,
                0.139792,
                0.188309,
                -0.0302823,
                -0.00671411,
                -0.109462,
                -0.145379,
                -0.180806,
                -0.0501391,
                0.0369216,
                0.0367161,
                0.137762,
                -0.0374271,
                -0.224621,
                0.287989,
                -0.0409079,
                -0.00284427,
                0.368782,
                0.117061,
                -0.135855,
                -0.181291,
                -0.110191,
                -0.249296,
                0.0757201,
                -0.224678,
                0.110638,
                0.0882267,
                -0.103947,
                -0.0572831,
                -0.147458,
                -0.102639,
                -0.0584325,
                0.0501051,
                -0.146134,
                0.204298,
                -0.200793,
                0.182932,
                -0.208624,
                0.0433519,
                -0.131436,
                -0.0391365,
                -0.151822,
                0.115359,
                0.149971,
                0.127347,
                0.0523451,
                0.0914598,
                -0.223098,
                0.320907,
                0.0595585,
                -0.281654,
                -0.107242,
                -0.0652672,
                -0.0530518,
                0.185284,
                -0.0754057,
                0.0362292,
                -0.0364412,
                -0.0138093,
                0.168657,
                -0.14848,
                0.0373623,
                -0.228386,
                0.227822,
                0.162106,
                -0.166389,
                0.34445,
                -0.188091,
                -0.139538,
                0.0226855,
                -0.0673324,
                -0.177021,
                0.05411,
                -0.397682,
                0.0709773,
                0.169222,
                0.00711236,
                0.130284,
                0.0181409,
                -0.0210949,
                0.0722808,
                0.0518131,
                0.0524706,
                -0.24167,
                -0.0933412,
                -0.107197,
                0.0411854,
                0.105015,
                0.227118,
                -0.190004,
                -0.0577984,
                0.187003,
                -0.160592,
                0.00450445,
                0.0440941,
                0.0793954,
                -0.320161,
                0.00218685,
                -0.354394,
                0.198886,
                -0.104012,
                -0.216095,
                -0.0432166,
                0.0506861,
                0.173425,
                0.277666,
                -0.0618677,
                -0.0552854,
                0.0412785,
                0.207307,
                0.0428415,
                -0.246975,
                -0.0785248,
                -0.0665519,
                -0.371764,
                0.359278,
                -0.12316,
                -0.213046,
                -0.0594657,
                -0.107471,
                0.151089,
                -0.000236263,
                0.100633,
                0.139946,
                -0.326834,
                0.0386009,
                -0.203738,
                0.276853,
                0.0472763,
                -0.166482,
                0.0689867,
                0.182554,
                -0.0343157,
                0.0573655,
                0.200336,
                0.226901,
                -0.0918764,
                -0.195446,
                0.526473,
                -0.317622,
                0.180737,
                -0.13388,
                -0.14322,
                0.0742272,
                0.122523,
                -0.00465257,
                0.377734,
                0.371074,
                -0.242409,
                -0.166598,
                0.244126,
                0.0474811,
                0.010711,
                -0.442572,
                0.204657,
                0.0897503,
                0.568428,
                -0.311842,
                0.622758,
                0.27366,
                0.236776,
                -0.0630974,
                0.0444622,
                -0.238692,
                0.132351,
                0.118013,
                0.209415,
                -0.0355889,
                -0.312055,
                0.0012712,
                0.399807,
                0.219606,
                -0.0671674,
                -0.0993837,
                0.24016,
                0.207678,
                -0.172554,
                -0.132644,
                0.215025,
                -0.0649304,
                0.0795825,
                0.0385018,
                -0.26831,
                0.144752,
                -0.173961,
                0.182487,
                -0.418768,
                0.0164408,
                -0.109509,
                -0.373253,
                0.00080336,
                -0.0516412,
                -0.0648892,
                0.0978677,
                0.0103809,
                0.0270718,
                0.00853375,
                -0.0179833,
                0.0948581,
                0.0642881,
                -0.0226004,
                -0.111868,
                0.0496149,
                -0.158603,
                -0.367429,
                0.0923531,
                -0.0486517,
                -0.171744,
                -0.0956104,
                0.144399,
                0.0837353,
                0.07361,
                0.193912,
                -0.213632,
                -0.336362,
                0.038781,
                0.0157876,
                0.097776,
                0.255758,
                -0.0477312,
                0.0671968,
                -0.358639,
                0.0394544,
                -0.279845,
                -0.0987685,
                0.187487,
                0.0644962,
                0.208006,
                -0.261928,
                0.162537,
                -0.0497681,
                -0.213977,
                -0.0231504,
                0.168347,
                -0.164111,
                0.18234,
                0.0863369,
                -0.316552,
                0.171799,
                0.423569,
                0.0881694,
                -0.363451,
                -0.056439,
                -0.0603746,
                0.15033,
                -0.116418,
                -0.304004,
                0.124685,
                0.00763195,
                -0.166087,
                -0.00317135,
                0.115185,
                -0.441147,
                0.0536519,
                -0.060919,
                0.209823,
                0.00365443,
                0.101467,
                -0.242027,
                -0.167429,
                0.181998,
                0.217174,
                0.224476,
                -0.18143,
                -0.131995,
                0.316958,
                -0.0359353,
                0.298304,
                0.249668,
                0.0153786,
                0.0700904,
                -0.176428,
                -0.141248,
                0.222121,
                -0.0489979,
                -0.0606906,
                -0.14982,
                -0.205777,
                -0.38598,
                0.228795,
                -0.198869,
                0.0681581,
                0.150609,
                -0.0061209,
                -0.0846102,
                0.0620531,
                0.139487,
                -0.211915,
                0.0930444,
                0.0320122,
                -0.25051,
                -0.176939,
                0.0663193,
                0.0820817,
                -0.123655,
                -0.170637,
                -0.0541397,
                -0.0336413,
                0.173968,
                -0.0266305,
                -0.0370604,
                0.040884,
                0.0176936,
                -0.0852123,
                0.168789,
                -0.210316,
                0.322326,
                0.0577515,
                0.333525,
                -0.138939,
                0.0850924,
                -0.260546,
                0.161244,
                -0.222176,
                0.282098,
                0.253182,
                -0.0608479,
                -0.194031,
                0.273026,
                -0.204954,
                0.405612,
                0.31931,
                -0.103523,
                0.159183,
                -0.285272,
                0.243792,
                -0.297401,
                0.375797,
                0.202012,
                -0.0972202,
                -0.055718,
                0.038338,
                0.0117739,
                0.496529,
                -0.041086,
                0.277874,
                -0.172067,
                -0.357487,
                -0.17036,
                -0.176601,
                -0.195345,
                0.0313729,
                0.355588,
                0.473232,
                0.251883,
                0.0232083,
                0.338941,
                0.0393413,
                0.0570752,
                -0.0438165,
                -0.303113,
                -0.0382876,
                0.357945,
                -0.184068,
                -0.00652689,
                -0.00713161,
                -0.0467201,
                0.188473,
                0.120123,
                0.0135644,
                -0.0436654,
                -0.439666,
                0.588404,
                0.344154,
                0.298036,
                0.0157179,
                -0.0323808,
                -0.522177,
                -0.374898,
                -0.436084,
                -0.604122,
                0.237422,
                0.329601,
                -0.170827,
                -0.0994661,
                0.0723829,
                -0.0197787,
                0.0136495,
                0.35217,
                0.0213849,
                -0.089785,
                0.213292,
                0.269245,
                0.253202,
                0.157478,
                -0.218489,
                -0.408438,
                -0.00852372,
                0.243673,
                -0.274539,
                0.106573,
                0.0457451,
                0.0816213,
                -0.316342,
                0.118836,
                0.00120225,
                -0.0614483,
                -0.369104,
                0.627,
                -0.211284,
                -0.301513,
                -0.517524,
                0.603082,
                -0.395296,
                0.0538878,
                -0.169946,
                0.0907352,
                0.149164,
                0.0905693,
                0.0980784,
                0.148697,
                0.0421062,
                0.518676,
                -0.182218,
                0.0745328,
                0.0619355,
                -0.0945854,
                0.167121,
                -0.0171799,
                -0.0229658,
                -0.221179,
                -0.0368366,
                -0.254552,
                0.31436,
                -0.535408,
                0.209712,
                0.376478,
                -0.437813,
                0.114554,
                0.337526,
                -0.0165601,
                -0.149749,
                0.187753,
                0.528368,
                -0.216547,
                -0.189587,
                -0.077633,
                -0.128565,
                0.288335,
                -0.256432,
                -0.287119,
                -0.0368615,
                -0.133427,
                -0.151202,
                0.203649,
                0.0419688,
                0.128556,
                -0.33526,
                0.0145015,
                0.1342,
                -0.214954,
                0.116001,
                0.00707477,
                -0.270569,
                -0.295172,
                0.141697,
                0.180405,
                -0.142307,
                -0.0436936,
                -0.32034,
                -0.226517,
                0.0997756,
                -0.00549908,
                0.361521,
                -0.0881504,
                0.0605629,
                0.280149,
                -0.0616116,
                -0.324444,
                0.164089,
                -0.13092,
                0.191123,
                0.50416,
                -0.169393,
                0.137986,
                0.167077,
                0.158562,
                0.356786,
                -0.180867,
                0.131411,
                -0.495175,
                -0.392693,
                -0.175528,
                0.471502,
                0.280515,
                -0.56255,
                -0.0453079,
                -0.0376823,
                -0.0864431,
                0.283557,
                0.232558,
                -0.0277466,
                0.0782303,
                -0.308619,
                -0.385356,
                0.150678,
                -0.149131,
                -0.236641,
                -0.477806,
                -0.153793,
                0.103658,
                -0.362432,
                0.305151,
                -0.43367,
                0.146767,
                -0.0702106,
                -0.266134,
                -0.439677,
                -0.187895,
                -0.017903,
                -0.0927126,
                0.426438,
                -0.306792,
                0.486736,
                0.0632266,
                -0.121055,
                0.070629,
                0.565804,
                0.504199,
                -0.039727,
                -0.227108,
                0.180404,
                -0.0203893,
                -0.498353,
                0.22045,
                0.324529,
                0.52716,
                0.000939737,
                -0.136864,
                -0.34762,
                0.0207825,
                0.415762,
                -0.098616,
                -0.108649,
                0.199044,
                -0.245288,
                -0.132003,
                0.369342,
                0.0139907,
                -0.495034,
                0.260617,
                -0.42019,
                0.00580264,
                -0.495653,
                0.393748,
                0.101253,
                0.0952144,
                0.467102,
                0.0572754,
                -0.033283,
                -0.0488663,
                -0.0190432,
                -0.260467,
                0.327472,
                -0.0285745,
                -0.508183,
                -0.0383879,
                0.252254,
                0.177799,
                0.368205,
                -0.123864,
                0.145186,
                0.13151,
                -0.217038,
                0.040091,
                -0.123059,
                0.0176984,
                0.139946,
                -0.172649,
                0.0234814,
                0.187481,
                0.15789,
                0.0295606,
                0.0283556,
                0.0210428,
                0.0179866,
                0.0894319,
                -0.28651,
                -0.0192302,
                0.0537027,
                0.0062725,
                0.0561494,
                -0.152745,
                0.281745,
                -0.0797251,
                -0.0528379,
                0.125877,
                0.0178514,
                -0.125969,
                -0.497997,
                -0.0103811,
                0.230539,
                -0.0264779,
                0.0242433,
                0.378237,
                0.200686,
                0.230883,
                -0.230735,
                0.261689,
                -0.088259,
                -0.396955,
                0.0146419,
                0.158888,
                -0.220324,
                0.193971,
                -0.285127,
                -0.00559767,
                -0.361092,
                -0.00147462,
                -0.0749125,
                -0.131228,
                0.0167748,
                0.467077,
                0.27963,
                0.116857,
                0.236119,
                -0.124498,
                0.296854,
                -0.071734,
                -0.242132,
                0.0988909,
                0.154951,
                -0.111641,
                0.252703,
                0.172903,
                -0.0835306,
                -0.023427,
                0.134771,
                0.328705,
                0.0899921,
                -0.0401695,
                -0.275948,
                0.20428,
                -0.176712,
                -0.209089,
                -0.0584407,
                -0.299085,
                -0.163171,
                -0.217022,
                0.174466,
                0.242869,
                0.0204729,
                -0.00717206,
                -0.0124447,
                -0.227353,
                -0.0985693,
                -0.0647851,
                -0.0708577,
                0.0640816,
                0.0293846,
                -0.360517,
                -0.394614,
                0.230864,
                -0.714661,
                -0.267589,
                0.112808,
                -0.190123,
                0.188834,
                -0.134753,
                -0.196063,
                -0.305456,
                0.111572,
                0.0674227,
                0.282843,
                0.283908,
                0.0785304,
                0.0803694,
                0.0641427,
                0.0220407,
                -0.0327833,
                -0.292967,
                0.0458766,
                0.309322,
                -0.149464,
                -0.167526,
                0.265049,
                0.340485,
                0.0432786,
                -0.0515909,
                -0.164456,
                -0.0751086,
                0.341186,
                -0.457867,
                -0.180252,
                0.0809891,
                -0.176737,
                -0.0480001,
                0.0612292,
                -0.0893546,
                -0.257673,
                -0.240499,
                0.118547,
                -0.00870151,
                -0.286292,
                -0.447191,
                0.143445,
                -0.140534,
                0.176969,
                0.357773,
                -0.231439,
                0.0552715,
                -0.295303,
                0.450508,
                -0.0235941,
                0.384487,
                0.193668,
                0.190598,
                -0.0157221,
                0.117044,
                0.0314777,
                -0.0327943,
                -0.108159,
                0.0698095,
                0.366897,
                0.102488,
                -0.169582,
                -0.216387,
                0.117602,
                -0.100318,
                -0.182694,
                0.280071,
                0.294749,
                0.100825,
                0.0106393,
                0.276227,
                0.1345,
                0.33301,
                0.236948,
                0.136282,
                -0.0461461,
                0.526867,
                -0.036584,
                0.175285,
                0.114182,
                0.460015,
                -0.350557,
                -0.182385,
                0.19976,
                -0.398966,
                -0.117815,
                -0.281011,
                0.203591,
                0.120973,
                -0.177397,
                0.282162,
                -0.143445,
                -0.0733302,
                -0.232971,
                -0.255985,
                0.22668,
                0.01627,
                -0.229668,
                0.0381728,
                -0.165508,
                -0.0697039,
                -0.0629304,
                0.298564,
                0.0513905,
                0.298836,
                0.0767865,
                0.230066,
                0.295188,
                0.163784,
                -0.288378,
                -0.229028,
                0.378332,
                0.00862474,
                -0.214392,
                0.158786,
                0.415059,
                0.384646,
                -0.247892,
                0.345541,
                0.175454,
                -0.412165,
                -0.104866,
                -0.279943,
                0.48115,
                -0.425769,
                0.0794011,
                0.265927,
                0.608702,
                0.098613,
                0.207819,
                -0.144743,
                0.114784,
                -0.373561,
                0.265889,
                0.07125,
                -0.0319615,
                0.0735452,
                -0.381858,
                0.474663,
                -0.411405,
                -0.0521304,
                -0.0265562,
                0.000781028,
                -0.315274,
                -0.191702,
                -0.309944,
                0.1337,
                -0.381723,
                0.388281,
                0.114922,
                0.0818972,
                -0.18963,
                0.342334,
                0.216829,
                0.129453,
                -0.175648,
                0.042126,
                0.136019,
                0.590421,
                -0.321484,
                0.204124,
                -0.00639586,
                -0.121482,
                -0.137881,
                -0.263804,
                0.112257,
                -0.0117579,
                0.0169732,
                0.208247,
                0.160099,
                -0.194493,
                -0.247256,
                -0.343647,
                -0.561492,
                -0.221727,
                0.18057,
                -0.00749594,
                -0.0173226,
                -0.293881,
                0.480864,
                -0.346419,
                -0.0523251,
                -0.240106,
                0.102713,
                -0.152223,
                -0.274466,
                0.177013,
                -0.0655774,
                0.0755331,
                -0.0358666,
                0.251115,
                -0.0890451,
                0.0488985,
                0.325253,
                0.288684,
                0.093547,
                0.524489,
                -0.146928,
                0.232726,
                0.140589,
                0.0960359,
                -0.249188,
                -0.226348,
                0.0129064,
                0.349671,
                -0.278598,
                -0.344579,
                -0.0422928,
                0.0691219,
                0.166125,
                0.123255,
                0.300178,
                -0.106856,
                -0.161753,
                0.160876,
                -0.340007,
                -0.131748,
                -0.021655,
                0.0386717,
                0.520207,
                0.752195,
                -0.0718127,
                0.0464469,
                -0.114626,
                0.523135,
                -0.00772875,
                0.0913618,
                -0.143486,
                0.264236,
                -0.012854,
                -0.23937,
                0.0923839,
                0.19979,
                -0.345481,
                0.16674,
                -0.252099,
                0.111666,
                -0.0896918,
                0.184973,
                0.120495,
                -0.1468,
                0.180499,
                0.132897,
                0.195172,
                0.0147927,
                -0.260313,
                -0.0894752,
                0.101897,
                -0.26385,
                -0.31978,
                -0.028499,
                -0.121096,
                0.175034,
                0.0490767,
                -0.144827,
                -0.263337,
                -0.147659,
                -0.0490042,
                -0.193976,
                0.0491692,
                0.128028,
                -0.0735674,
                0.488633,
                -0.0203863,
                0.131775,
                0.0459166,
                0.0387524,
                -0.0726299,
                0.47143,
                0.25764,
                0.228147,
                0.0214394,
                -0.0890113,
                -0.0780603,
                -0.0804792,
                -0.174549,
                0.253716,
                0.292741,
                -0.213842,
                0.0329208,
                0.0376258,
                0.306347,
                0.24659,
                0.201901,
                -0.0230887,
                -0.296909,
                -0.187083,
                0.10594,
                0.543506,
                0.220544,
                0.228777,
                0.258184,
                0.0182765,
                0.278361,
                -0.13997,
                0.283515,
                -0.0917244,
                -0.139814,
                0.27663,
                0.209648,
                -0.141397,
                -0.208513,
                -0.224171,
                0.0445431,
                0.276215,
                -0.0901828,
                0.168581,
                0.499971,
                0.225972,
                0.450396,
                -0.198629,
                -0.148267,
                0.277302,
                0.350414,
                -0.0636468,
                0.0889833,
                -0.133291,
                -0.134491,
                -0.102155,
                0.0648208,
                0.0935498,
                0.42661,
                0.442076,
                0.157861,
                -0.223435,
                0.513402,
                -0.158151,
                -0.0142461,
                0.0479835,
                -0.385813,
                0.305566,
                -0.401895,
                0.0272645,
                0.313048,
                -0.490065,
                -0.459769,
                -0.401316,
                -0.518179,
                -0.414091,
                -0.349188,
                0.322567,
                -0.133091,
                0.0179592,
                0.237928,
                -0.221978,
                -0.202602,
                0.214281,
                0.237943,
                -0.113374,
                -0.130915,
                -0.12401,
                -0.0937861,
                -0.0551231,
                -0.142664,
                0.0401736,
                0.283172,
                -0.274893,
                0.0852941,
                0.326502,
                -0.150421,
                -0.00171618,
                0.311336,
                -0.632392,
                -0.00483066,
                -0.292383,
                0.0419559,
                0.101092,
                0.0977932,
                0.190439,
                0.259852,
                0.0292827,
                -0.344133,
                -0.0474725,
                0.258611,
                0.106627,
                -0.44367,
                -0.125452,
                -0.203282,
                -0.298315,
                -0.273188,
                -0.235247,
                -0.538606,
                0.198757,
                -0.16347,
                0.369451,
                0.495597,
                0.54788,
                0.355009,
                0.272924,
                0.279308,
                -0.513807,
                0.250792,
                0.483501,
                -0.296692,
                -0.0134827,
                -0.0737271,
                -0.0945125,
                0.14054,
                0.545548,
                -0.5985,
                0.392938,
                0.276088,
                -0.365102,
                -0.0814714,
                -0.0349865,
                -0.3793,
                0.104214,
                -0.152784,
                0.463904,
                0.168472,
                0.212184,
                -0.0200263,
                -0.437233,
                0.0494053,
                -0.158063,
                0.186463,
                0.133559,
                -0.320236,
                -0.144665,
                0.0411838,
                -0.500515,
                0.29296,
                0.244696,
                0.211795,
                -0.0902,
                -0.00184928,
                -0.0933485,
                0.0860144,
                -0.119098,
                0.28494,
                -0.0657402,
                -0.273319,
                -0.414946,
                0.0265003,
                0.164902,
                -0.282791,
                -0.353633,
                0.166041,
                0.0265888,
                0.0819112,
                0.30033,
                -0.15192,
                -0.135512,
                -0.47936,
                -0.0928971,
                -0.0107931,
                -0.561307,
                0.177695,
                -0.0776708,
                0.182885,
                -0.171903,
                0.156081,
                0.23429,
                -0.0671128,
                -0.200642,
                0.003219,
                0.238216,
                0.0405804,
                -0.0264084,
                -0.0909671,
                -0.0443587,
                -0.260584,
                -0.146439,
                0.0762858,
                -0.0440471,
                0.369635,
                -0.0792441,
                -0.106088,
                -0.0546312,
                -0.0133721,
                0.142469,
                0.179687,
                -0.0103955,
                -0.0809018,
                0.161431,
                -0.0102291,
                0.00302225,
                -0.279415,
                -0.402909,
                0.177572,
                0.00227926,
                0.266369,
                0.124315,
                -0.0226259,
                -0.0931149,
                -0.0889557,
                -0.0260616,
                0.502952,
                -0.0658128,
                0.309979,
                0.258887,
                0.23739,
                0.00429727,
                -0.324401,
                0.120551,
                0.163094,
                -0.406998,
                0.0736225,
                0.332012,
                -0.217196,
                0.0502023,
                -0.0875233,
                0.0702623,
                -0.0704709,
                -0.0620896,
                0.0508573,
                -0.0618804,
                0.00202434,
                -0.253317,
                -0.399983,
                -0.373817,
                -0.335121,
                -0.0547041,
                -0.146318,
                0.716287,
                -0.102292,
                -0.231384,
                0.114927,
                0.263953,
                -0.213864,
                0.139337,
                0.496012,
                -0.327091,
                0.0330426,
                -0.304512,
                0.0235002,
                -0.0780215,
                -0.0328582,
                -0.033603,
                -0.353715,
                0.0648934,
                0.0217266,
                0.134501,
                0.17876,
                0.343605,
                0.308668,
                0.328395,
                0.170413,
                0.0252121,
                -0.259305,
                -0.0613025,
                -0.159229,
                -0.204509,
                0.131052,
                0.0558591,
                -0.0454146,
                -0.147692,
                -0.101705,
                -0.268237,
                0.126671,
                0.360286,
                -0.158816,
                -0.293005,
                -0.0127409,
                -0.0290979,
                0.381311,
                0.129531,
                0.259152,
                0.197827,
                0.140261,
                -0.258729,
                0.0752213,
                0.0851875,
                0.0295045,
                0.056582,
                -0.0956424,
                0.0128549,
                0.119545,
                0.244274,
                0.00317747,
                -0.0781904,
                -0.226773,
                -0.0167355,
                0.389362,
                -0.0452789,
                -0.00238029,
                0.0970069,
                -0.171633,
                0.0253336,
                0.0934067,
                -0.0965552,
                0.0134629,
                0.0809698,
                -0.0322656,
                -0.0290591,
                -0.172867,
                -0.00680303,
                -0.0516563,
                0.042382,
                0.160053,
                0.094426,
                0.201871,
                0.0900842,
                -0.0895738,
                0.0279167,
                -0.143324,
                0.130345,
                -0.2108,
                0.37187,
                -0.126557,
                -0.226648,
                0.0922739,
                -0.000762817,
                0.369061,
                0.0726313,
                0.145553,
                0.319597,
                0.0155269,
                0.0683352,
                0.114446,
                0.378817,
                -0.181003,
                -0.209459,
                -0.0547305,
                -0.323251,
                0.159301,
                0.248769,
                -0.183071,
                -0.141935,
                0.109471,
                0.0303677,
                -0.00480965,
                0.292724,
                -0.0814621,
                -0.167573,
                0.208706,
                -0.115066,
                -0.213995,
                0.159128,
                -0.0892192,
                0.0502555,
                0.0208282,
                0.246048,
                -0.209127,
                0.368799,
                0.139505,
                0.311333,
                0.163417,
                -0.266353,
                0.231657,
                0.0636345,
                -0.0704045,
                -0.0348198,
                0.0103612,
                0.0592514,
                0.0651938,
                0.00017317,
                -0.0885691,
                0.166301,
                0.364099,
                0.049695,
                -0.383237,
                -0.160051,
                0.3661,
                0.413859,
                0.216316,
                0.0100832,
                -0.0409437,
                -0.0965473,
                -0.184971,
                -0.254717,
                -0.151625,
                -0.0398262,
                0.0146999,
                -0.11187,
                -0.328798,
                0.318249,
                -0.0496057,
                -0.0587004,
                -0.166378,
                -0.164555,
                -0.113046,
                -0.0134559,
                -0.211207,
                0.0798121,
                -0.0307656,
                -0.0596397,
                -0.444483,
                -0.0922436,
                0.367073,
                0.255916,
                -0.0754073,
                -0.130233,
                0.126083,
                -0.176407,
                0.268199,
                -0.0256759,
                -0.00309603,
                0.0356036,
                0.0881842,
                -0.0631241,
                0.0397497,
                0.272842,
                -0.158972,
                -0.454656,
                0.408161,
                -0.128686,
                -0.0806882,
                -0.27976,
                -0.106452,
                -0.178503,
                0.320162,
                -0.0727266,
                -0.00706003,
                0.124581,
                -0.0665392,
                -0.111411,
                0.0702934,
                0.0362894,
                -0.237246,
                0.160478,
                0.0330336,
                0.18125,
                -0.0571792,
                -0.16167,
                -0.467701,
                0.225345,
                -0.17274,
                0.224852,
                -0.0876597,
                0.0161316,
                0.109047,
                -0.0444374,
                -0.225908,
                -0.0332536,
                -0.187995,
                0.25488,
                -0.0778758,
                -0.101834,
                -0.281244,
                -0.185903,
                0.295223,
                0.0102494,
                0.140222,
                0.379574,
                -0.292488,
                0.228376,
                -0.269271,
                0.324096,
                0.225145,
                -0.0911291,
                -0.114342,
                0.431377,
                0.304731,
                -0.012038,
                -0.196929,
                -0.0125427,
                -0.187048,
                0.0672304,
                0.194865,
                0.0947225,
                0.00948867,
                -0.147314,
                -0.0504296,
                0.244846,
                -0.02267,
                0.0200111,
                0.0652591,
                0.0232702,
                -0.288559,
                -0.0793483,
                -0.036841,
                0.494022,
                0.310198,
                -0.0141756,
                0.123345,
                0.4586,
                -0.0446735,
                -0.511253,
                -0.124624,
                0.0835654,
                0.213337,
                -0.218692,
                -0.0179939,
                0.240693,
                0.154167,
                0.172651,
                0.253812,
                0.0203832,
                -0.0866805,
                -0.025764,
                0.241668,
                -0.223036,
                0.0661955,
                0.0280089,
                -0.201987,
                0.116764,
                -0.396397,
                -0.0716953,
                0.317672,
                0.318105,
                -0.0604456,
                0.502366,
                -0.0998686,
                0.232725,
                0.185833,
                -0.15252,
                0.246646,
                -0.430246,
                0.12477,
                -0.128908,
                -0.187527,
                0.180271,
                -0.0692792,
                0.159202,
                -0.0660119,
                0.0357662,
                0.496975,
                -0.15116,
                0.376581,
                0.162299,
                -0.408423,
                0.095368,
                0.106727,
                0.366902,
                -0.162681,
                0.304182,
                0.196691,
                0.0841527,
                -0.160346,
                -0.025571,
                -0.0497504,
                -0.159944,
                0.070226,
                0.133522,
                0.091271,
                0.178242,
                0.251965,
                -0.275212,
                -0.197789,
                -0.0374171,
                -0.291483,
                -0.301938,
                -0.0106696,
                -0.280917,
                -0.377665,
                0.249922,
                0.109472,
                0.0764978,
                0.0650414,
                0.122482,
                0.159611,
                -0.168229,
                0.395107,
                0.41362,
                -0.0968095,
                -0.235778,
                -0.061912,
                -0.391947,
                0.242753,
                -0.0658575,
                0.301399,
                -0.384351,
                -0.509892,
                0.133879,
                -0.100206,
                0.0993745,
                0.217083,
                -0.206673,
                0.332904,
                0.189687,
                -0.163456,
                -0.0484032,
                0.346753,
                -0.245379,
                -0.150635,
                -0.0558345,
                0.282453,
                0.0238464,
                -0.0847051,
                0.15179,
                -0.526224,
                0.126414,
                0.0104153,
                -0.0904387,
                0.383735,
                0.149663,
                -0.00930501,
                0.0410508,
                -0.225426,
                -0.0136038,
                0.178668,
                -0.0575228,
                -0.165979,
                -0.460966,
                -0.0531367,
                -0.346271,
                0.262533,
                0.0302382,
                -0.0457185,
                -0.0957622,
                -0.042092,
                -0.182118,
                -0.143059,
                0.0803106,
                -0.225364,
                0.194928,
                -0.00515334,
                0.287342,
                0.0989833,
                -0.304568,
                -0.0205913,
                -0.121795,
                0.182286,
                -0.383629,
                -0.0622417,
                -0.202863,
                0.00353962,
                -0.224154,
                0.114883,
                0.441637,
                0.312158,
                -0.278785,
                -0.322206,
                -0.19956,
                0.393049,
                -0.112832,
                0.284993,
                0.0703744,
                0.0786507,
                -0.0127973,
                -0.26614,
                -0.0171098,
                0.0170725,
                0.143205,
                0.211723,
                0.106241,
                0.200833,
                -0.337359,
                0.109227,
                -0.357446,
                0.557425,
                0.214498,
                -0.334433,
                -0.000644274,
                -0.00346624,
                -0.0128144,
                -0.0401981,
                0.062975,
                -0.0701863,
                -0.038354,
                -0.160813,
                -0.495007,
                0.332526,
                -0.163829,
                -0.297939,
                0.516295,
                0.0536243,
                0.0398381,
                0.363205,
                0.0403502,
                -0.0369585,
                -0.207399,
                0.404491,
                0.214176,
                0.355566,
                0.191273,
                -0.472075,
                -0.0550496,
                0.556883,
                -0.289613,
                0.236584,
                0.0647023,
                -0.0976641,
                -0.341731,
                0.00196242,
                0.149842,
                -0.290271,
                0.205163,
                0.114449,
                0.134643,
                -0.034513,
                -0.0291621,
                0.679718,
                -0.307818,
                -0.792931,
                -0.295583,
                -0.366903,
                0.0920474,
                0.135134,
                0.392182,
                -0.826485,
                -0.0451561,
                0.396202,
                0.745255,
                0.372711,
                0.0577255,
                0.200068,
                -0.127412,
                -0.41207,
                -0.979439,
                0.171348,
                0.220136,
                -0.0113769,
                -0.057079,
                0.13549,
                -0.111137,
                -0.349091,
                0.0933163,
                -0.102561,
                0.547498,
                -0.528417,
                -0.00294217,
                -0.646655,
                0.206032,
                0.321939,
                0.436782,
                0.255765,
                -0.108202,
                -0.160742,
                0.154702,
                -0.33427,
                0.129129,
                0.285808,
                0.260328,
                -0.495853,
                0.198483,
                -0.179269,
                -0.111112,
                0.0854706,
                -0.336045,
                0.355082,
                0.147801,
                -0.0877143,
                -0.0631631,
                0.0420854,
                -0.208132,
                -0.0613529,
                -0.116629,
                -0.214353,
                0.0123599,
                -0.257884,
                0.361238,
                0.144158,
                0.312324,
                -0.132476,
                0.229488,
                -0.256383,
                0.220169,
                0.469466,
                0.0825362,
                -0.350785,
                0.125223,
                0.194882,
                0.460547,
                -0.246605,
                -0.429349,
                -0.00034122,
                -0.195794,
                0.210859,
                0.304885,
                0.134982,
                -0.013662,
                -0.29881,
                0.0900896,
                -0.210055,
                0.045272,
                -0.113895,
                -0.176299,
                -0.384534,
                0.239885,
                0.118182,
                0.201067,
                0.0652231,
                -0.181816,
                0.052599,
                0.170309,
                0.0559445,
                -0.242516,
                -0.0714414,
                -0.216367,
                -0.280567,
                -0.351917,
                0.300913,
                -0.0382961,
                0.262895,
                -0.111736,
                -0.024619,
                -0.200718,
                0.0200511,
                0.0724117,
                0.276177,
                0.0936251,
                -0.36422,
                -0.506162,
                0.0924912,
                -0.0684577,
                -0.651561,
                -0.14211,
                0.0189245,
                -0.216826,
                -0.223242,
                -0.272225,
                0.187852,
                0.319528,
                0.134161,
                -0.0251509,
                0.179987,
                -0.48268,
                0.320645,
                -0.0141645,
                0.0723149,
                -0.254269,
                0.0949674,
                0.316227,
                0.505812,
                0.418232,
                0.013238,
                -0.241146,
                0.456885,
                0.477072,
                0.0936483,
                -0.0217716,
                -0.11028,
                -0.0597215,
                0.280151,
                -0.563731,
                -0.0833207,
                0.519611,
                -0.326031,
                -0.0687958,
                -0.0987341,
                0.379411,
                0.281476,
                0.311066,
                -0.0133634,
                -0.0555551,
                0.022782,
                0.0293943,
                -0.353396,
                0.115732,
                -0.302,
                -0.0810599,
                0.00359963,
                0.370121,
                -0.216531,
                0.137349,
                0.0952767,
                0.170916,
                0.0496393,
                0.118137,
                -0.0546859,
                0.113817,
                0.394795,
                0.395709,
                -0.0127636,
                0.25346,
                0.0551756,
                -0.412151,
                0.0479451,
                0.134621,
                -0.0201482,
                0.133481,
                -0.0157217,
                0.286617,
                -0.165605,
                -0.050382,
                -0.00920766,
                -0.24718,
                -0.296752,
                0.488693,
                0.296575,
                0.194506,
                0.128594,
                -0.0136757,
                -0.347084,
                -0.0695654,
                0.410484,
                0.403958,
                -0.297093,
                -0.524763,
                -0.0587894,
                0.129139,
                -0.209731,
                -0.128101,
                0.298813,
                -0.219775,
                -0.0632947,
                -0.0420182,
                0.17971,
                -0.0940432,
                -0.421357,
                -0.0769728,
                0.0948537,
                0.120432,
                -0.476038,
                -0.178736,
                -0.123694,
                0.495433,
                0.11775,
                0.21523,
                0.278903,
                0.158815,
                -0.123882,
                0.0467013,
                0.147243,
                -0.0687255,
                0.00628842,
                0.258855,
                0.114968,
                -0.321232,
                -0.111017,
                -0.303889,
                0.212297,
                -0.0881636,
                -0.11947,
                0.0872371,
                0.536738,
                0.0566203,
                0.0943547,
                -0.230277,
                -0.254257,
                -0.203291,
                0.197205,
                0.04759,
                0.369386,
                -0.132767,
                -0.346064,
                0.152646,
                -0.0714439,
                -0.216213,
                0.193268,
                0.432659,
                0.227145,
                -0.103942,
                0.0912378,
                -0.576221,
                -0.248134,
                -0.46701,
                -0.291523,
                0.0979,
                -0.488142,
                0.0234566,
                -0.0399601,
                0.0798789,
                0.521429,
                0.0176585,
                0.386216,
                -0.847397,
                -0.258646,
                -0.189492,
                0.27948,
                -0.483567,
                -0.478014,
                -0.0727565,
                0.114133,
                0.0243964,
                0.071,
                -0.175717,
                0.0858152,
                0.157799,
                0.0941402,
                0.122889,
                -0.492821,
                -0.0885392,
                0.027837,
                -0.136873,
                0.0919393,
                -0.00245305,
                0.133697,
                -0.0493125,
                0.16862,
                0.220026,
                0.0760673,
                0.251048,
                0.506364,
                0.234662,
                0.0857433,
                0.242527,
                0.264049,
                -0.00271476,
                0.281421,
                -0.0675919,
                0.144587,
                0.156713,
                0.0490016,
                -0.0309923,
                -0.240514,
                0.154378,
                0.230277,
                0.175751,
                0.164495,
                0.130512,
                -0.481101,
                -0.00570289,
                -0.0519403,
                0.0437657,
                -0.0710852,
                0.0516403,
                0.0946657,
                0.00303082,
                0.35499,
                -0.0377527,
                0.280062,
                -0.177245,
                0.265964,
                -0.360572,
                0.0327919,
                0.189547,
                -0.0301599,
                -0.208239,
                0.0936134,
                -0.10237,
                -0.309338,
                -0.1078,
                0.167582,
                -0.0409057,
                -0.245554,
                -0.386724,
                -0.112593,
                0.13611,
                0.109319,
                -0.00135216,
                0.00834231,
                -0.107489,
                -0.420962,
                0.187636,
                -0.00201984,
                0.27002,
                -0.337985,
                -0.0224801,
                -0.0520645,
                0.185279,
                0.0929561,
                0.0298179,
                -0.422211,
                -0.10118,
                -0.14282,
                -0.166826,
                0.372928,
                0.0213342,
                -0.218514,
                0.0303738,
                0.0329375,
                -0.159972,
                -0.0333458,
                -0.393184,
                -0.10285,
                0.313791,
                0.295019,
                -0.0971462,
                0.138541,
                0.478111,
                -0.4659,
                0.0791534,
                -0.191087,
                -0.0313718,
                -0.401571,
                0.182429,
                -0.0958047,
                -0.0985938,
                -0.217582,
                0.103303,
                0.0710742,
                0.0250567,
                -0.224715,
                -0.111943,
                0.358908,
                0.0679825,
                -0.246466,
                -0.0706901,
                0.255151,
                0.0478304,
                -0.134395,
                -0.00938673,
                0.239574,
                0.176715,
                0.12996,
                -0.114554,
                0.486583,
                0.060817,
                -0.464971,
                -0.486094,
                -0.276717,
                -0.216446,
                0.321048,
                0.594794,
                -0.0947745,
                -0.0712696,
                0.108549,
                0.0196903,
                0.241419,
                0.0203856,
                -0.608999,
                0.0406848,
                -0.297432,
                -0.00538435,
                0.0294563,
                -0.179841,
                0.153125,
                0.256622,
                -0.216202,
                -0.13718,
                -0.179161,
                0.284188,
                -0.310323,
                -0.226883,
                0.286619,
                0.369086,
                -0.162178,
                -0.107144,
                -0.197869,
                0.23204,
                -0.0384028,
                -0.144707,
                0.0153508,
                0.150424,
                0.150024,
                0.0186989,
                0.522461,
                0.00793901,
                -0.442095,
                0.2054,
                0.0973411,
                -0.0539426,
                -0.129053,
                -0.356007,
                -0.193306,
                -0.161849,
                -0.328474,
                0.228656,
                0.0936162,
                0.355536,
                -0.011239,
                -0.355276,
                -0.155858,
                -0.168187,
                0.167093,
                0.116527,
                -0.0810328,
                0.636624,
                -0.0894321,
                0.360079,
                0.0511103,
                0.155085,
                -0.232878,
                0.251621,
                -0.211211,
                -0.731578,
                -0.93177,
                0.0816424,
                -0.0225832,
                0.154897,
                0.0300062,
                0.118809,
                0.344121,
                -0.218451,
                -0.151976,
                -0.414284,
                -0.525252,
                -0.347481,
                -0.615394,
                0.139204,
                -0.152094,
                0.149491,
                0.287076,
                -0.148888,
                -0.0879258,
                0.157953,
                -0.145663,
                0.0813953,
                -0.0217859,
                0.476071,
                0.264559,
                0.00283956,
                -0.0294091,
                0.180347,
                -0.185986,
                -0.458257,
                0.0864041,
                -0.249939,
                -0.0921471,
                -0.169119,
                -0.0635231,
                -0.17643,
                0.168706,
                -0.00155983,
                0.320385,
                0.338052,
                -0.139941,
                -0.031682,
                0.579086,
                -0.0132491,
                0.0456187,
                -0.253368,
                -0.295583,
                0.117372,
                -0.477124,
                -0.0175144,
                -0.0850956,
                0.143026,
                -0.442036,
                0.170181,
                0.0711949,
                0.224672,
                0.116571,
                -0.47184,
                -0.245476,
                -0.15222,
                -0.0619037,
                -0.169125,
                -0.263606,
                -0.225293,
                -0.354946,
                0.428818,
                0.294543,
                -0.136116,
                -0.221747,
                0.212915,
                -0.40491,
                -0.0510564,
                -0.100379,
                0.0190346,
                0.2318,
                0.14185,
                -0.215855,
                0.271229,
                0.166686,
                -0.250126,
                -0.369686,
                0.0864201,
                -0.306018,
                -0.068454,
                -0.139509,
                -0.100835,
                0.213478,
                -0.342284,
                -0.20285,
                0.0737347,
                -0.378667,
                -0.0415834,
                -0.100147,
                -0.291347,
                0.0351314,
                -0.129169,
                -0.16777,
                0.257543,
                -0.216264,
                0.0839832,
                0.303651,
                -0.0396363,
                0.101757,
                0.0488104,
                0.156054,
                0.437377,
                0.111447,
                0.0789644,
                0.187682,
                -0.24088,
                -0.0603838,
                -0.3758,
                -0.293392,
                -0.210812,
                -0.0332583,
                0.107345,
                0.0970556,
                0.23246,
                -0.204477,
                0.190125,
                0.228229,
                -0.155767,
                0.400966,
                -0.370502,
                -0.218825,
                -0.00338277,
                -0.0845089,
                0.278838,
                -0.657837,
                -0.406459,
                0.18633,
                0.0293024,
                0.265606,
                -0.157182,
                0.41143,
                -0.164026,
                0.219319,
                0.133115,
                0.452535,
                -0.221086,
                0.283895,
                -0.0293161,
                -0.039314,
                0.0679713,
                -0.268586,
                0.550667,
                0.0120564,
                0.0605442,
                0.0704798,
                -0.0916314,
                -0.282617,
                -0.0284492,
                -0.126219,
                0.350779,
                0.163066,
                -0.395778,
                -0.208395,
                0.20631,
                -0.0353355,
                -0.0790246,
                -0.286525,
                -0.108502,
                0.562243,
                0.959456,
                -0.402877,
                -0.0406336,
                -0.0908703,
                0.103684,
                0.0894598,
                -0.025302,
                0.0902492,
                -0.083796,
                0.0562483,
                0.150801,
                0.168362,
                0.0251561,
                0.0151156,
                -0.383649,
                -0.147747,
                -0.29925,
                -0.202596,
                -0.281289,
                -0.513789,
                0.254553,
                -0.0960696,
                -0.118511,
                0.16125,
                -0.287081,
                0.116351,
                0.245652,
                -0.137968,
                -0.235036,
                -0.436516,
                0.360402,
                -0.00691485,
                0.0929011,
                0.218446,
                -0.235616,
                -0.256278,
                -0.113806,
                0.27018,
                0.193462,
                0.224745,
                -0.305363,
                0.0770438,
                -0.0197282,
                0.0685539,
                -0.173071,
                -0.277626,
                -0.00885232,
                -0.191027,
                0.0873687,
                -0.120953,
                0.0329685,
                -0.285303,
                -0.131582,
                -0.409129,
                -0.155752,
                -0.371457,
                -0.0889693,
                -0.00574653,
                0.154548,
                -0.0983046,
                -0.0621714,
                -0.466973,
                -0.206276,
                -0.0184018,
                0.190677,
                -0.0311244,
                0.0218778,
                0.260349,
                0.160927,
                -0.32183,
                -0.00699071,
                0.300669,
                -0.568708,
                0.104692,
                -0.465121,
                0.101012,
                -0.244741,
                -0.162872,
                -0.0289842,
                0.0252171,
                0.124627,
                -0.0325603,
                0.242644,
                0.339151,
                -0.272398,
                -0.0707365,
                0.355045,
                -0.270302,
                -0.202956,
                0.00381769,
                -0.0916198,
                0.160585,
                -0.662292,
                0.163876,
                0.296089,
                -0.279361,
                0.0685096,
                0.091576,
                0.159565,
                -0.043082,
                -0.360516,
                -0.223783,
                0.224942,
                0.0929016,
                -0.32866,
                -0.124001,
                -0.0702666,
                -0.494155,
                -0.235451,
                0.234693,
                0.714021,
                -0.252439,
                -0.0529377,
                -0.477903,
                -0.281998,
                0.0352095,
                0.0462416,
                -0.057591,
                -0.229441,
                -0.0580019,
                0.125039,
                0.0313133,
                0.142975,
                0.00765674,
                -0.297734,
                -0.34946,
                0.880724,
                0.344618,
                0.0327681,
                0.329078,
                0.215025,
                0.161589,
                -0.0705303,
                0.364554,
                -0.175233,
                -0.393855,
                0.0302997,
                -0.234964,
                -0.36418,
                -0.0433591,
                0.307589,
                -0.37977,
                0.063232,
                -0.391373,
                0.0487725,
                0.245403,
                -0.565834,
                -0.398131,
                -0.0839043,
                0.0289768,
                -0.298305,
                0.310618,
                -0.0394273,
                0.00557668,
                0.287696,
                0.0342757,
                0.393088,
                -0.0632334,
                0.25274,
                -0.233963,
                -0.195323,
                0.471688,
                0.217725,
                -0.389854,
                0.0485006,
                0.00812256,
                -0.239689,
                -0.180822,
                0.189985,
                -0.203859,
                0.183016,
                0.0172168,
                -0.0164334,
                -0.150017,
                -0.418796,
                0.560447,
                -0.249651,
                -0.560176,
                0.0903367,
                0.0255986,
                -0.141804,
                -0.167742,
                0.175231,
                -0.241993,
                0.85973,
                -0.18549,
                -0.0966618,
                0.0194218,
                -0.0411396,
                -0.114893,
                -0.519188,
                0.196339,
                0.242776,
                -0.294886,
                -0.393167,
                -0.415321,
                -0.324531,
                0.327525,
                -0.118804,
                -0.033696,
                -0.402925,
                -0.108634,
                -0.149671,
                -0.326991,
                0.134807,
                0.331659,
                -0.0409983,
                0.0425588,
                -0.236571,
                0.0584114,
                0.0636711,
                -0.502402,
                0.0583991,
                0.230909,
                -0.185266,
                -0.424263,
                0.433777,
                0.202564,
                0.237083,
                0.369741,
                -0.00472277,
                0.224362,
                0.0489389,
                -0.306066,
                -0.0626047,
                0.0582206,
                0.0663322,
                0.359024,
                0.206305,
                -0.11111,
                -0.0841569,
                -0.0110112,
                0.309221,
                -0.417646,
                0.359839,
                0.327227,
                -0.106936,
                0.182599,
                0.148789,
                0.335032,
                -0.0746365,
                -0.440904,
                0.0745392,
                -0.0837597,
                -0.183529,
                -0.0621493,
                0.381274,
                0.200081,
                -0.163331,
                -0.227359,
                -0.114378,
                0.291495,
                -0.0552129,
                -0.225129,
                -0.314953,
                0.0610139,
                -0.327075,
                0.171278,
                0.0937777,
                -0.253236,
                -0.0934397,
                -0.137332,
                0.0475814,
                0.0823559,
                -0.143638,
                0.235881,
                -0.0316093,
                -0.356513,
                0.24478,
                -0.523577,
                -0.00293356,
                -0.153953,
                -0.337663,
                -0.287286,
                0.291938,
                0.0529321,
                -0.169611,
                -0.280446,
                0.302705,
                -0.105654,
                0.227329,
                -0.192178,
                -0.209021,
                0.352891,
                -0.144442,
                0.256454,
                -0.105777,
                0.255487,
                -0.0620987,
                -0.428033,
                0.0210758,
                0.0926762,
                0.0996723,
                0.0317029,
                -0.0210626,
                0.0486669,
                0.282732,
                0.212574,
                0.123583,
                -0.399425,
                -0.117754,
                -0.0499564,
                0.0763266,
                0.16172,
                0.296647,
                -0.288042,
                0.267532,
                -0.100315,
                0.0638323,
                -0.183763,
                0.296873,
                -0.0495109,
                0.113357,
                -0.0113334,
                0.137073,
                -0.392763,
                -0.0837756,
                -0.167101,
                -0.0520432,
                0.00640061,
                0.282295,
                -0.136326,
                0.126251,
                -0.106753,
                0.0943666,
                -0.000886849,
                0.379718,
                0.321355,
                0.213441,
                0.308878,
                -0.232629,
                -0.0345843,
                0.0696045,
                -0.0543442,
                0.0685221,
                0.178435,
                0.104654,
                -0.0925539,
                -0.40625,
                -0.291665,
                0.447666,
                -0.262621,
                0.168085,
                -0.0854418,
                0.148838,
                0.039453,
                -0.0819519,
                0.0504708,
                -0.0513625,
                0.143164,
                0.234862,
                -0.0567203,
                0.1024,
                -0.175643,
                -0.181095,
                -0.256719,
                0.0983712,
                0.080373,
                -0.0259934,
                0.168933,
                -0.193552,
                -0.364041,
                0.104004,
                0.138106,
                0.0483204,
                -0.385129,
                0.0798704,
                -0.140254,
                0.014612,
                0.08267,
                -0.0154485,
                -0.272367,
                -0.389753,
                -0.30461,
                -0.38172,
                0.135771,
                -0.253379,
                -0.165355,
                0.147691,
                -0.0633425,
                -0.0105137,
                0.138297,
                0.413751,
                0.243271,
                0.444488,
                -0.362608,
                0.0932227,
                -0.315647,
                -0.200272,
                0.193525,
                -0.0222364,
                0.17837,
                0.216723,
                0.152345,
                -0.375394,
                -0.232147,
                -0.211023,
                -0.14892,
                0.574993,
                -0.0495297,
                0.156384,
                -0.40419,
                -0.123533,
                0.134677,
                0.230926,
                -0.240239,
                -0.299362,
                0.406241,
                -0.0942606,
                0.336533,
                -0.494884,
                -0.770194,
                0.0308438,
                0.293106,
                -0.103686,
                -0.888626,
                -0.212112,
                0.492382,
                0.221828,
                0.423016,
                0.177065,
                0.153321,
                0.270517,
                -0.2418,
                -0.426772,
                0.779487,
                0.197709,
                0.20336,
                0.0715587,
                -0.0281678,
                0.603321,
                0.342273,
                0.869313,
                0.429005,
                0.155573,
                0.0254059,
                -0.152903,
                -0.555213,
                -0.373938,
                -0.213904,
                0.205506,
                0.41672,
                -0.0280978,
                0.236043,
                0.312347,
                0.163249,
                -0.210357,
                -0.133871,
                1.19226,
                0.268716,
                0.590218,
                -0.389453,
                -0.156949,
                0.296356,
                -0.835394,
                -0.10538,
                -0.0865685,
                -0.00921574,
                0.216154,
                0.659764,
                0.397026,
                -0.350987,
                -0.22905,
                0.0413703,
                0.424597,
                0.424345,
                0.114931,
                0.0849516,
                -0.0492882,
                0.0560527,
                -0.204838,
                0.0822524,
                0.0562126,
                -0.175885,
                -0.0311735,
                0.0186021,
                -0.307153,
                0.215526,
                -0.0796427,
                0.0701021,
                -0.0630197,
                -0.145721,
                -0.143292,
                -0.418407,
                0.159445,
                -0.289071,
                0.477112,
                -0.0734784,
                -0.100593,
                0.424807,
                -0.131143,
                0.37764,
                -0.0243348,
                -0.204439,
                -0.0368863,
                -0.158353,
                0.198469,
                -0.420959,
                0.176534,
                0.177858,
                -0.304368,
                0.262636,
                0.0210467,
                0.0478376,
                0.254659,
                0.134759,
                0.270203,
                -0.175517,
                -0.19915,
                -0.262419,
                0.364719,
                -0.325412,
                0.00317766,
                -0.0573866,
                -0.547493,
                0.135939,
                -0.0895856,
                -0.44042,
                0.280058,
                0.233544,
                0.0845423,
                -0.374549,
                -0.228316,
                0.0449917,
                -0.185736,
                -0.267842,
                0.191691,
                -0.224141,
                0.1086,
                -0.317868,
                0.0358014,
                0.181545,
                0.00929896,
                -0.0139534,
                0.0717683,
                0.76773,
                -0.0461122,
                -0.532399,
                0.0982175,
                0.100889,
                0.103548,
                -0.336627,
                0.381521,
                0.229845,
                0.0980174,
                -0.235702,
                -0.0586435,
                0.192055,
                -0.0370288,
                0.112348,
                -0.219498,
                -0.115268,
                -0.416693,
                -0.171823,
                -0.258949,
                -0.0722567,
                -0.84562,
                0.092907,
                0.0675885,
                -0.277951,
                -0.0871976,
                -0.259594,
                -0.145821,
                -0.375284,
                -0.350475,
                0.14635,
                0.520834,
                -0.592265,
                0.322603,
                -0.311442,
                -0.139171,
                0.345978,
                0.03033,
                -0.32309,
                -0.216173,
                0.203882,
                -0.464869,
                0.336812,
                -0.000990382,
                -0.293886,
                0.160957,
                0.166668,
                0.123353,
                0.0450054,
                -0.228407,
                0.0452877,
                0.068641,
                0.158224,
                0.017823,
                0.460516,
                -0.0259823,
                0.275514,
                -0.527166,
                -0.129741,
                0.294724,
                -0.369014,
                0.158375,
                -0.308531,
                0.337711,
                0.19301,
                -0.125994,
                -0.296027,
                0.156061,
                0.15387,
                0.0673125,
                -0.141594,
                -0.111544,
                0.370877,
                0.0363152,
                -0.168222,
                -0.270507,
                -0.00830297,
                -0.144209,
                0.182205,
                -0.195604,
                -0.0844916,
                0.0478961,
                0.214582,
                0.120903,
                -0.341014,
                -0.0236797,
                0.391622,
                0.00452746,
                -0.0242203,
                0.296124,
                0.58633,
                -0.0843966,
                0.0145342,
                0.114582,
                -0.141354,
                0.206885,
                -0.154105,
                0.523292,
                0.0618428,
                0.510694,
                -0.136135,
                -0.237423,
                -0.210011,
                0.317294,
                -0.117058,
                0.0159631,
                -0.184181,
                -0.311089,
                0.266704,
                0.367448,
                0.0940466,
                -0.409178,
                -0.0960827,
                0.0462761,
                -0.389095,
                0.266715,
                -0.0618275,
                0.326113,
                0.102082,
                -0.416681,
                -0.00959767,
                -0.00885908,
                0.198192,
                0.017095,
                0.0319149,
                -0.139755,
                -0.166011,
                0.203332,
                0.0156087,
                0.07898,
                0.256469,
                -0.160012,
                0.367352,
                0.488311,
                0.108117,
                -0.253492,
                -0.151342,
                0.190019,
                0.166936,
                -0.0285456,
                0.282387,
                0.0938416,
                -0.236985,
                -0.328389,
                0.621026,
                0.237157,
                -0.109516,
                -0.218897,
                -0.206491,
                0.424608,
                -0.0278459,
                0.313524,
                0.195514,
                0.223673,
                -0.0445158,
                -0.292044,
                0.424197,
                -0.0160588,
                -0.466236,
                -0.128327,
                -0.0490633,
                0.19241,
                0.121221,
                0.128166,
                -0.146505,
                0.0149966,
                -0.0843075,
                -0.0894287,
                0.246619,
                -0.242964,
                -0.153124,
                -0.0406851,
                -0.37509,
                -0.153304,
                0.217812,
                0.359037,
                0.157287,
                0.0801897,
                -0.0072956,
                0.279597,
                0.314639,
                0.197375,
                -0.019645,
                -0.480354,
                0.0822899,
                0.14149,
                0.0625981,
                -0.184345,
                -0.159141,
                -0.157997,
                0.224817,
                -0.233484,
                -0.35731,
                0.0933822,
                -0.126247,
                -0.570731,
                -0.0137219,
                0.0500226,
                -0.0255275,
                0.0191977,
                0.0138109,
                -0.0513039,
                -0.0740679,
                0.273559,
                -0.0289051,
                0.0904093,
                -0.483697,
                -0.517855,
                0.193505,
                0.104731,
                -0.315058,
                0.372121,
                -0.115694,
                -0.253957,
                0.0584696,
                0.0255655,
                -0.151243,
                0.220464,
                -0.133229,
                -0.0148812,
                0.0509698,
                0.10701,
                -0.28097,
                -0.15133,
                -0.0101597,
                0.00292972,
                0.176038,
                0.353729,
                -0.1763,
                0.215629,
                -0.113961,
                -0.24541,
                0.314667,
                0.445763,
                0.225514,
                -0.273251,
                -0.00281093,
                -0.139829,
                0.223869,
                0.0478542,
                0.382488,
                0.0591583,
                -0.29333,
                -0.377277,
                0.362209,
                0.251031,
                -0.334684,
                -0.372259,
                -0.177788,
                0.0500786,
                -0.236617,
                -0.130772,
                0.114748,
                0.493998,
                0.171464,
                -0.465308,
                -0.0315162,
                0.248222,
                -0.0295266,
                -0.177364,
                0.49361,
                -0.411804,
                0.647244,
                -0.20867,
                -0.254672,
                0.177622,
                -0.433723,
                -0.35315,
                -0.169652,
                -0.139229,
                0.151161,
                0.0453332,
                -0.363752,
                -0.503813,
                0.0343316,
                -0.0747598,
                -0.0341408,
                0.0806321,
                -0.32979,
                0.173071,
                0.229585,
                -0.014479,
                -0.33222,
                -0.109802,
                -0.211942,
                -0.376598,
                -0.0378802,
                -0.211588,
                0.116424,
                -0.0116783,
                0.244641,
                0.125219,
                -0.0301111,
                -0.0523576,
                0.180383,
                -0.0105767,
                0.294973,
                -0.118107,
                0.159005,
                -0.157024,
                0.0458203,
                -0.0650852,
                0.243162,
                -0.274433,
                -0.155157,
                0.500575,
                -0.0482325,
                0.170608,
                -0.425108,
                0.0268929,
                -0.0940833,
                -0.242012,
                -0.410311,
                0.332545,
                -0.0806653,
                0.0823011,
                -0.164135,
                0.187055,
                -0.184168,
                0.0300996,
                -0.274389,
                -0.0560997,
                -0.596811,
                -0.112898,
                -0.204435,
                0.452157,
                0.307867,
                -0.466098,
                -0.277306,
                -0.173012,
                0.243002,
                0.239941,
                -0.37993,
                -0.293216,
                -0.170823,
                0.0981491,
                -0.163528,
                0.0183691,
                -0.0109428,
                0.242507,
                -0.16127,
                0.0967533,
                0.379148,
                0.192433,
                0.0761689,
                0.143484,
                -0.155678,
                -0.161594,
                0.235149,
                0.13464,
                -0.0920701,
                -0.0885549,
                0.322135,
                -0.127346,
                0.0560824,
                -0.167876,
                -0.467361,
                -0.106496,
                0.174044,
                0.0585723,
                -0.268599,
                -0.0678639,
                -0.146689,
                -0.330095,
                -0.170103,
                -0.0646206,
                0.396107,
                0.115868,
                -0.27451,
                0.175509,
                -0.0279286,
                0.217175,
                0.184435,
                -0.0794761,
                0.0117291,
                0.0391083,
                -0.0140713,
                0.0258862,
                -0.178916,
                0.534406,
                -0.264447,
                0.238006,
                -0.0944636,
                0.0751636,
                0.230337,
                0.549896,
                0.0693613,
                0.0653456,
                0.167452,
                -0.169722,
                0.0374555,
                -0.257655,
                -0.419129,
                -0.381446,
                0.120782,
                0.016317,
                0.195597,
                -0.468851,
                0.431251,
                0.0935682,
                -0.410537,
                -0.496466,
                0.0237339,
                0.166107,
                -0.558264,
                0.114906,
                -0.451391,
                -0.0155528,
                0.393828,
                0.21997,
                0.136957,
                -0.210615,
                0.381359,
                -0.522665,
                0.0595648,
                0.0255824,
                0.350638,
                0.378659,
                0.300187,
                -0.299696,
                -0.141887,
                -0.089694,
                -0.445107,
                0.0447363,
                0.142304,
                -0.190058,
                0.218708,
                -0.163134,
                0.10228,
                0.027443,
                -0.188954,
                0.285178,
                0.0920435,
                -0.435327,
                0.151393,
                0.201145,
                0.291164,
                -0.150708,
                -0.20778,
                -0.23182,
                -0.0552382,
                -0.431007,
                -0.162138,
                0.0769992,
                0.0373409,
                0.0855578,
                0.0484735,
                0.173043,
                -0.00519285,
                -0.0378334,
                -0.00308552,
                -0.217724,
                -0.0291817,
                -0.0687058,
                0.210361,
                -0.282119,
                -0.10583,
                0.174784,
                -0.347122,
                -0.395039,
                -0.547393,
                0.306996,
                -0.0389328,
                0.288278,
                -0.333488,
                0.195524,
                -0.373571,
                -0.0653185,
                0.083561,
                0.0973697,
                -0.15479,
                -0.0493731,
                0.104163,
                0.151944,
                0.483016,
                -0.155068,
                0.443871,
                -0.22502,
                0.0878312,
                0.00634288,
                -0.276816,
                -0.11846,
                -0.165737,
                0.170236,
                0.0241197,
                -0.0203917,
                0.586013,
                0.213134,
                -0.0309996,
                -0.0826642,
                0.217419,
                0.180848,
                0.227562,
                0.000746526,
                -0.127942,
                0.206519,
                0.142533,
                0.137113,
                0.740444,
                0.0715644,
                -0.250897,
                0.262028,
                -0.115671,
                -0.0386482,
                -0.140582,
                -0.185627,
                0.45881,
                0.17005,
                0.18348,
                -0.0194345,
                -0.16415,
                0.104836,
                -0.271649,
                0.17365,
                -0.16619,
                0.622096,
                -0.243907,
                0.0618207,
                0.284548,
                -0.0406491,
                -0.100636,
                -0.386144,
                0.017448,
                0.253667,
                0.299534,
                0.334363,
                -0.289477,
                -0.297813,
                0.275957,
                -0.166606,
                0.261143,
                0.0954604,
                0.00758145,
                -0.14336,
                -0.182149,
                -0.0096966,
                -0.135498,
                0.243892,
                0.0591066,
                -0.156463,
                -0.0102297,
                0.103047,
                0.403261,
                0.0842736,
                0.00246085,
                0.0811796,
                0.114805,
                0.0409836,
                0.171227,
                -0.189284,
                -0.0093015,
                -0.0643669,
                0.124603,
                -0.0158324,
                -0.0696547,
                0.278232,
                0.127453,
                -0.38597,
                0.142999,
                0.347079,
                0.0173637,
                0.0644045,
                0.179723,
                0.423319,
                0.13833,
                -0.0774302,
                0.173987,
                0.360673,
                0.40166,
                -0.208005,
                -0.0332531,
                0.00121161,
                -0.302042,
                0.310748,
                0.214416,
                0.591075,
                0.120357,
                -0.414011,
                -0.162288,
                -0.328788,
                0.361979,
                0.681476,
                -0.0973915,
                0.596544,
                0.234277,
                -0.367297,
                -0.0150131,
                -0.233482,
                -0.434918,
                0.20653,
                -0.0502204,
                -0.408395,
                -0.206043,
                0.266981,
                0.367104,
                -0.0730091,
                0.0994919,
                -0.379756,
                0.0260522,
                0.1619,
                -0.103745,
                0.275477,
                0.0622994,
                -0.558322,
                0.308311,
                0.0150407,
                -0.30286,
                0.0475632,
                0.167487,
                0.0804354,
                -0.227865,
                -0.00984504,
                0.0433361,
                -0.491359,
                -0.276839,
                -0.515315,
                -0.0809547,
                -0.116427,
                0.305066,
                -0.0603453,
                -0.109229,
                0.124501,
                -0.0153831,
                0.0228999,
                0.103748,
                -0.405398,
                -0.19131,
                -0.227809,
                0.145665,
                -0.0028583,
                0.104659,
                -0.100615,
                0.063235,
                0.0131131,
                -0.305451,
                5.80922e-005,
                -0.0836443,
                0.110554,
                0.226566,
                0.0769525,
                0.139285,
                0.128448,
                0.284815,
                0.185756,
                0.251012,
                0.0441361,
                -0.263377,
                0.310933,
