{
    "layers": [
        {
            "name": "input_layer",
            "type": "input",
            "size": 50
        },
        {
            "name": "hidden_layer",
            "type": "blstm",
            "size": 200,
            "bias": 0
        },
        {
            "name": "output_layer",
            "type": "softmax",
            "size": 17,
            "bias": 0
        },
        {
            "name": "postoutput",
            "type": "multiclass_classification",
            "size": 17
        }
    ],
    "weights": {
        "hidden_layer": {
            "input": [
                -0.165063,
                0.0837056,
                0.174671,
                0.0297971,
                -0.272553,
                -0.129487,
                -0.0619269,
                -0.125803,
                -0.0283861,
                -0.0627239,
                0.0886739,
                0.127796,
                -0.128294,
                0.22931,
                -0.164675,
                0.342846,
                -0.182737,
                -0.126782,
                -0.0674552,
                -0.148489,
                -0.0787459,
                0.113632,
                0.30713,
                -0.300325,
                0.34435,
                -0.0581228,
                -0.129524,
                -0.139815,
                -0.0344306,
                -0.0471698,
                0.243873,
                0.122754,
                0.432104,
                0.136842,
                0.231274,
                0.222517,
                -0.0137636,
                0.00276212,
                -0.22596,
                0.119329,
                0.148935,
                0.0131652,
                0.354078,
                -0.502563,
                -0.0355917,
                -0.134695,
                -0.0275197,
                0.161805,
                -0.218069,
                0.237921,
                0.0188937,
                0.157864,
                0.276707,
                -0.0374813,
                0.192587,
                0.0749175,
                0.0704908,
                0.157108,
                0.14004,
                -0.224113,
                -0.137572,
                -0.0361014,
                -0.118776,
                -0.0687764,
                -0.0394147,
                -0.176436,
                0.0243877,
                0.150677,
                -0.156724,
                0.116957,
                -0.155161,
                0.0118829,
                -0.166549,
                0.0603435,
                -0.00716272,
                0.0558691,
                -0.0412132,
                -0.0972835,
                0.141148,
                0.0576312,
                -0.0523087,
                -0.0740322,
                0.0593619,
                0.264809,
                -0.0666159,
                0.0434,
                0.174059,
                -0.103373,
                -0.1619,
                0.022756,
                -0.0348538,
                0.209371,
                0.0861546,
                0.107966,
                -0.110228,
                -0.207064,
                0.072327,
                -0.108985,
                -0.0350784,
                0.0104722,
                -0.0321294,
                0.398797,
                -0.132975,
                -0.109499,
                0.264777,
                0.174105,
                -0.249518,
                -0.314826,
                -0.176159,
                -0.0913648,
                0.0297583,
                -0.0805131,
                0.306922,
                -0.0657149,
                0.191105,
                0.0962539,
                0.198335,
                0.00737594,
                0.152768,
                -0.160315,
                -0.182623,
                0.146493,
                0.505117,
                0.132108,
                -0.0564842,
                -0.193289,
                0.140688,
                0.0251182,
                0.283626,
                -0.222575,
                -0.286447,
                0.0333401,
                -0.347733,
                0.030218,
                -0.188908,
                -0.191922,
                -0.143926,
                -0.0551261,
                0.388003,
                0.444829,
                0.260079,
                0.262818,
                -0.138719,
                -0.0355188,
                -0.142976,
                0.16884,
                -0.111269,
                -0.168662,
                -0.144464,
                0.0179822,
                -0.383285,
                0.191187,
                0.218506,
                0.190538,
                -0.212529,
                -0.209981,
                0.393802,
                -0.0490706,
                0.158609,
                0.0150894,
                -0.0539574,
                -0.114799,
                -0.21087,
                0.277805,
                0.00438786,
                -0.110014,
                -0.176996,
                0.0676114,
                0.0591594,
                0.169826,
                0.172006,
                -0.442073,
                -0.475463,
                0.171036,
                0.224105,
                0.0405041,
                0.0705281,
                -0.0556096,
                0.137904,
                -0.120521,
                0.168387,
                -0.279479,
                -0.214647,
                0.467422,
                -0.0272302,
                0.417341,
                -0.239801,
                -0.368819,
                0.0650093,
                0.199978,
                0.292472,
                0.154921,
                0.133474,
                -0.0853789,
                0.143685,
                -0.0128886,
                -0.141952,
                0.182337,
                0.265079,
                0.0744065,
                0.260539,
                -0.172306,
                -0.288275,
                0.04483,
                -0.0801185,
                0.197857,
                -0.0877846,
                -0.0872191,
                0.0410984,
                0.110398,
                0.0469413,
                0.000556024,
                -0.0969196,
                -0.099821,
                -0.0580591,
                0.0551041,
                -0.111455,
                0.21767,
                0.129275,
                0.00599173,
                -0.0894349,
                -0.133904,
                -0.263554,
                0.194977,
                -0.11371,
                -0.089432,
                0.0232729,
                0.0516104,
                0.206661,
                0.0119735,
                -0.0720994,
                0.0669182,
                -0.0608196,
                0.101648,
                0.0359292,
                0.0088449,
                0.115161,
                0.123051,
                -0.0627628,
                0.0532084,
                0.118875,
                0.184514,
                0.0604711,
                -0.0359706,
                -0.0317747,
                -0.0474976,
                -0.102008,
                -0.038859,
                0.0329915,
                -0.0130712,
                -0.200632,
                -0.0961497,
                0.163043,
                0.0043581,
                0.0681224,
                0.101099,
                0.160097,
                -0.0814271,
                -0.181583,
                -0.0594777,
                -0.0644184,
                0.0490589,
                0.095689,
                0.0201057,
                -0.16678,
                0.0691196,
                0.194849,
                -0.210498,
                -0.0481667,
                0.236729,
                -0.280098,
                0.123184,
                0.258915,
                -0.0112858,
                0.0351523,
                -0.061345,
                0.0656613,
                0.136055,
                -0.164876,
                0.116531,
                -0.0895079,
                0.0657883,
                -0.227502,
                -0.138431,
                -0.0168275,
                0.326038,
                0.0717984,
                0.183069,
                0.133447,
                0.157382,
                -0.211066,
                -0.0768857,
                -0.130285,
                -0.114562,
                -0.132751,
                0.186605,
                -0.0368857,
                0.0571126,
                0.106598,
                0.168787,
                -0.263131,
                -0.0731044,
                -0.130621,
                -0.393338,
                0.135064,
                0.0189941,
                -0.0336803,
                0.2403,
                0.0743239,
                -0.110866,
                -0.149329,
                0.387272,
                0.0990433,
                -0.144423,
                -0.185062,
                0.224693,
                -0.0320457,
                0.21412,
                -0.188851,
                -0.139528,
                -0.0729406,
                0.0624624,
                -0.120672,
                -0.219995,
                -0.00645594,
                0.248575,
                -0.342071,
                0.00712188,
                0.00929552,
                -0.110954,
                0.013511,
                -0.0404684,
                0.01758,
                0.0808136,
                -0.0597593,
                -0.20938,
                0.0677352,
                0.0129221,
                0.159724,
                -0.167164,
                0.0516753,
                0.0794099,
                -0.45854,
                -0.0377238,
                0.0798711,
                -0.152254,
                0.267064,
                -0.189341,
                -0.197009,
                0.103481,
                -0.00539593,
                -0.178443,
                -0.422574,
                0.104013,
                -0.0116437,
                0.340587,
                -0.412022,
                0.324807,
                0.0229827,
                0.18584,
                0.0178272,
                0.253295,
                -0.240966,
                0.24284,
                -0.170138,
                -0.171154,
                -0.0547776,
                -0.538766,
                -0.351859,
                -0.0189384,
                0.167949,
                0.0695545,
                -0.262362,
                -0.11088,
                -0.221996,
                0.218918,
                0.183389,
                0.073183,
                -0.430661,
                -0.0572714,
                0.0640726,
                -0.45514,
                -0.251781,
                -0.135752,
                0.464777,
                0.161056,
                0.657054,
                -0.203308,
                0.229355,
                -0.422149,
                -0.248016,
                0.628209,
                0.0978456,
                -0.205949,
                -0.0338969,
                0.134487,
                0.0131075,
                -0.00615307,
                0.474655,
                0.049286,
                -0.22135,
                0.307007,
                -0.262935,
                -0.0132921,
                -0.120639,
                -0.176451,
                0.299569,
                -0.355547,
                0.203375,
                -0.0186632,
                0.176286,
                -0.0980681,
                -0.26644,
                -0.042026,
                0.101393,
                0.134415,
                -0.193019,
                0.0399212,
                -0.39942,
                -0.069559,
                0.101213,
                0.148734,
                0.111508,
                0.131629,
                0.0349531,
                -0.0313847,
                -0.167291,
                -0.167805,
                0.281151,
                0.0243895,
                0.115992,
                0.0131455,
                0.129943,
                -0.146589,
                0.0318026,
                -0.00163424,
                -0.118013,
                0.0688582,
                0.111276,
                0.161563,
                -0.0830549,
                -0.0186158,
                -0.0668398,
                0.00409887,
                -0.210919,
                0.0769946,
                0.197163,
                0.0667854,
                0.169534,
                -0.028218,
                -0.492479,
                -0.0957824,
                -0.217893,
                0.270159,
                0.11266,
                0.128386,
                -0.0129233,
                -0.0701598,
                0.258933,
                0.00698348,
                -0.064509,
                0.260427,
                -0.0198912,
                -0.0777417,
                0.216327,
                -0.233019,
                0.166136,
                0.186711,
                -0.596874,
                0.276713,
                -0.162603,
                0.160701,
                0.200356,
                -0.792899,
                0.161255,
                0.217369,
                0.0830236,
                -0.0527224,
                0.030979,
                0.725309,
                0.32866,
                -0.0506938,
                0.131236,
                -0.346884,
                -0.0337726,
                0.0570788,
                -0.017199,
                0.0827555,
                -0.0858975,
                0.0472786,
                0.314935,
                0.142796,
                0.324202,
                -0.534014,
                0.0473782,
                -0.0579987,
                0.0347925,
                0.0535839,
                0.0141527,
                0.0512146,
                -0.0228912,
                0.190011,
                0.0153346,
                -0.107354,
                -0.0655143,
                0.0954109,
                0.0529509,
                0.0975438,
                0.0210166,
                0.00401716,
                -0.177242,
                0.143364,
                0.0599073,
                -0.115167,
                -0.108293,
                -0.101032,
                -0.0485574,
                -0.21188,
                0.277315,
                -0.221472,
                0.0786671,
                0.000539286,
                -0.217613,
                -0.0609779,
                0.0453134,
                -0.130222,
                -0.120278,
                -0.281028,
                0.117024,
                0.129121,
                -0.298277,
                -0.0150061,
                0.0593382,
                -0.165546,
                -0.20678,
                0.0872037,
                -0.306551,
                -0.179513,
                -0.0434994,
                0.253954,
                -0.263865,
                0.1849,
                0.0278978,
                -0.0342184,
                0.0665575,
                -0.110562,
                0.0595938,
                -0.138145,
                -0.056402,
                0.117561,
                0.0929827,
                0.244994,
                -0.138741,
                -0.205399,
                0.179561,
                0.0566731,
                -0.101097,
                -0.0774546,
                0.294331,
                0.004562,
                -0.0916044,
                0.200788,
                -0.137832,
                0.0532701,
                -0.184712,
                -0.265073,
                0.139385,
                -0.25866,
                0.0906162,
                0.0692404,
                0.382531,
                -0.159174,
                -0.283103,
                0.0670687,
                0.053507,
                0.065421,
                -0.143002,
                0.121072,
                -0.158998,
                0.168324,
                -0.0925569,
                0.139151,
                -0.274802,
                -0.118348,
                -0.419315,
                -0.120609,
                0.0125571,
                -0.0649054,
                0.0517345,
                -0.162854,
                0.160611,
                0.090398,
                -0.378441,
                -0.0435608,
                0.185833,
                -0.0613822,
                -0.112286,
                -0.127363,
                0.203104,
                -0.031427,
                0.102729,
                0.131719,
                0.0803091,
                -0.3044,
                0.169467,
                0.0679484,
                -0.0113935,
                -0.278601,
                -0.132215,
                -0.0410149,
                0.0874473,
                -0.287601,
                -0.263713,
                -0.0106878,
                0.241043,
                0.40252,
                0.0212272,
                0.333616,
                0.00478245,
                0.0385862,
                0.269684,
                0.0644347,
                -0.245782,
                0.0498651,
                -0.211836,
                0.320537,
                -0.174839,
                0.00935435,
                0.283276,
                0.0845301,
                0.0964234,
                0.29465,
                -0.12347,
                -0.0346837,
                -0.0376214,
                -0.0296748,
                -0.284605,
                -0.0687875,
                0.0866055,
                -0.0802521,
                -0.0172523,
                0.0286506,
                0.296776,
                0.142878,
                -0.247999,
                -0.0024959,
                0.133688,
                -0.00454119,
                -0.240993,
                0.0402786,
                0.120327,
                -0.232379,
                -0.167255,
                -0.0573388,
                -0.0520171,
                0.297201,
                -0.35305,
                0.0744243,
                0.246289,
                0.276466,
                -0.414784,
                -0.0117279,
                -0.0536102,
                -0.193606,
                0.124539,
                -0.0710507,
                0.220884,
                -0.0458039,
                0.151693,
                -0.039394,
                0.120644,
                0.0621317,
                -0.217528,
                0.0297544,
                -0.362179,
                -0.0819825,
                0.148813,
                0.0381261,
                -0.404754,
                -0.0787204,
                -0.0142546,
                0.0285755,
                -0.293899,
                -0.0648198,
                -0.0133272,
                -0.0987039,
                0.0349061,
                -0.146264,
                -0.429529,
                0.169319,
                -0.15556,
                -0.244196,
                0.0566066,
                0.13254,
                -0.0374847,
                0.213871,
                0.236305,
                0.0483914,
                0.0255945,
                -0.225333,
                -0.0237509,
                0.0758907,
                0.376944,
                -0.124916,
                0.0745176,
                -0.0479683,
                -0.142331,
                0.240419,
                -0.0292311,
                -0.192866,
                0.0141851,
                0.113899,
                0.182329,
                -0.228261,
                0.0983232,
                0.0619318,
                0.0992199,
                -0.102092,
                -0.04304,
                -0.117953,
                -0.229434,
                0.0581621,
                -0.191224,
                0.113198,
                0.111757,
                0.0751739,
                0.077064,
                0.161754,
                -0.333558,
                -0.208154,
                -0.0780619,
                0.057286,
                -0.462211,
                0.0521502,
                -0.196619,
                0.05202,
                -0.276893,
                0.117545,
                0.271034,
                -0.0256912,
                0.0554368,
                -0.0630718,
                -0.0648958,
                0.229718,
                0.014857,
                -0.0273181,
                -0.17411,
                -0.0444196,
                0.0176961,
                -0.187732,
                -0.09312,
                0.175193,
                -0.282087,
                0.142486,
                -0.0735091,
                0.189274,
                0.20759,
                0.0200723,
                0.126431,
                -0.106611,
                0.116429,
                0.0693876,
                0.00508548,
                -0.366641,
                -0.326099,
                0.0240901,
                -0.0373906,
                -0.0613605,
                -0.304894,
                -0.285407,
                0.0201938,
                -0.136015,
                0.111115,
                0.169591,
                0.394218,
                0.124841,
                -0.231462,
                0.240751,
                -0.138981,
                0.215785,
                0.130316,
                -0.100499,
                0.392631,
                0.104081,
                0.0606607,
                -0.222256,
                0.531438,
                -0.3861,
                0.194093,
                0.118857,
                0.0323939,
                -0.374997,
                -0.260643,
                0.150368,
                -0.325352,
                0.082788,
                -0.11432,
                -0.288993,
                -0.0668137,
                -0.323621,
                -0.378304,
                0.0218872,
                0.310933,
                0.196357,
                0.0473454,
                -0.254561,
                -0.0680929,
                -0.08862,
                0.13566,
                -0.307836,
                0.226037,
                -0.357195,
                -0.0895881,
                -0.200831,
                -0.0835164,
                -0.00163679,
                0.207452,
                0.0791018,
                0.132231,
                0.0233851,
                0.0974607,
                0.124772,
                0.0464997,
                0.12935,
                0.168321,
                -0.348169,
                0.254394,
                0.316382,
                -0.0522369,
                -0.00707882,
                -0.201127,
                -0.0646668,
                -0.143819,
                0.143508,
                -0.031745,
                0.252967,
                -0.00670333,
                0.0791287,
                -0.179135,
                0.12743,
                0.0346089,
                -0.054118,
                0.146469,
                -0.112707,
                0.168823,
                -0.18999,
                -0.339297,
                0.100448,
                -0.220841,
                -0.0326923,
                -0.338644,
                0.105792,
                0.0347048,
                0.557774,
                -0.161418,
                -0.0439637,
                0.203742,
                -0.284309,
                0.292716,
                -0.271829,
                0.42015,
                0.532177,
                0.200992,
                0.0840527,
                0.172116,
                -0.0854087,
                0.109972,
                0.0642113,
                -0.178768,
                -0.128217,
                0.0715409,
                0.130467,
                -0.0601555,
                -0.389672,
                0.17276,
                0.546608,
                -0.146647,
                -0.225378,
                0.323456,
                -0.140511,
                0.347657,
                0.122567,
                0.304694,
                0.237555,
                0.0284801,
                -0.220985,
                -0.274951,
                -0.0485625,
                0.232124,
                -0.189134,
                -0.104166,
                0.157998,
                -0.663744,
                -0.437704,
                0.283012,
                0.20926,
                0.109954,
                0.259008,
                -0.045103,
                0.0136592,
                -0.234147,
                0.154971,
                -0.154522,
                -0.0331223,
                0.482228,
                -0.0255133,
                0.233514,
                0.0952848,
                0.00107656,
                -0.164831,
                -0.155087,
                -0.0941581,
                -0.010235,
                -0.22583,
                -0.106101,
                0.165159,
                -0.177149,
                0.223055,
                -0.0594271,
                0.0654856,
                -0.16117,
                0.0741659,
                -0.252137,
                -0.0304021,
                -0.183655,
                -0.0204518,
                0.355765,
                -0.322239,
                0.37339,
                0.155909,
                -0.22277,
                -0.0839887,
                -0.08953,
                0.161742,
                0.0684646,
                -0.0318418,
                0.0342413,
                0.35698,
                -0.0270946,
                -0.126157,
                -0.092587,
                0.174297,
                0.200835,
                0.310852,
                -0.168113,
                -0.0723668,
                -0.123214,
                -0.216268,
                -0.112974,
                0.142301,
                0.180204,
                -0.119684,
                -0.0710754,
                0.373111,
                0.0565187,
                -0.172822,
                -0.441102,
                0.111055,
                -0.23529,
                0.430864,
                -0.120212,
                0.335116,
                0.00777613,
                -0.0278519,
                -0.00788416,
                0.161028,
                0.0418431,
                -0.189148,
                0.417708,
                0.2068,
                -0.35703,
                0.132812,
                0.179268,
                -0.0157184,
                -0.269185,
                -0.0540482,
                -0.193824,
                -0.0572116,
                -0.443618,
                0.0646742,
                -0.0653065,
                0.368666,
                -0.070965,
                -0.278465,
                0.136129,
                0.045134,
                0.150196,
                -0.285237,
                0.0918028,
                0.0841193,
                0.102906,
                -0.0500837,
                -0.215022,
                0.2182,
                -0.0492774,
                -0.196435,
                -0.343399,
                -0.414423,
                -0.406253,
                0.415136,
                0.0100917,
                -0.147142,
                0.0627746,
                0.0549997,
                -0.19241,
                0.0447537,
                -0.151902,
                0.0785177,
                0.0375203,
                -0.0392096,
                -0.014712,
                0.220808,
                -0.228349,
                0.30055,
                -0.014441,
                -0.105917,
                -0.10279,
                0.130002,
                0.21156,
                -0.146937,
                -0.0201342,
                -0.0670191,
                0.20708,
                0.217323,
                -0.0131721,
                0.224017,
                -0.370528,
                0.100839,
                -0.0954921,
                -0.273901,
                0.159606,
                -0.0552981,
                0.161073,
                0.0646573,
                0.182269,
                -0.0189584,
                -0.0443371,
                -0.160352,
                -0.185688,
                -0.0831721,
                0.0815373,
                0.079617,
                -0.0756376,
                -0.136533,
                -0.100967,
                -0.21437,
                -0.0967208,
                0.171293,
                -0.0192384,
                0.0833516,
                -0.369427,
                0.146695,
                0.196056,
                -0.426678,
                0.31052,
                -0.0880039,
                0.555294,
                -0.0842837,
                0.110168,
                -0.0587053,
                0.0769801,
                -0.399661,
                -0.126035,
                0.172671,
                -0.149736,
                0.0484791,
                -0.142076,
                0.0900309,
                -0.22738,
                0.223756,
                0.016936,
                -0.276316,
                -0.0357565,
                0.164458,
                -0.0564399,
                0.0740008,
                0.0343964,
                -0.0986899,
                0.324593,
                0.0764905,
                -0.0220367,
                0.0125808,
                -0.0916,
                0.0583371,
                -0.141237,
                0.352372,
                -0.190582,
                0.0615977,
                0.0852879,
                0.257502,
                -0.382915,
                -0.158045,
                0.351787,
                0.0266978,
                -0.497949,
                0.261023,
                0.110308,
                0.168588,
                0.0181433,
                -0.264506,
                0.0627829,
                -0.207836,
                0.0945992,
                -0.271771,
                0.171871,
                0.248515,
                -0.0699626,
                0.0393672,
                -0.107702,
                -0.125665,
                -0.42232,
                -0.0969022,
                0.113761,
                -0.133827,
                -0.0956114,
                -0.11668,
                0.227051,
                -0.0822732,
                0.118646,
                -0.0452754,
                -0.170694,
                0.146146,
                0.00994752,
                -0.121782,
                -0.0814689,
                -0.157396,
                -0.00763326,
                -0.109255,
                -0.288423,
                0.0274025,
                -0.077559,
                -0.0260312,
                -0.261038,
                -0.0397052,
                0.0867278,
                -0.00502673,
                0.0689182,
                -0.0261078,
                0.157416,
                0.0519911,
                0.0121542,
                -0.169118,
                -0.173685,
                -0.0314163,
                -0.0886008,
                0.203819,
                0.0504362,
                -0.311077,
                -0.244741,
                -0.00190234,
                0.197646,
                -0.0440366,
                0.201839,
                -0.473188,
                -0.0513465,
                0.154883,
                -0.108601,
                -0.119917,
                -0.118309,
                -0.0502586,
                -0.0841352,
                -0.154098,
                -0.300883,
                -0.355481,
                0.185206,
                0.283885,
                0.27166,
                0.104331,
                0.347749,
                -0.189071,
                0.0793635,
                0.0172738,
                -0.0928914,
                -0.143138,
                -0.0471784,
                0.152806,
                -0.108856,
                0.162225,
                -0.127901,
                0.0804433,
                0.234686,
                -0.0346909,
                -0.0263918,
                0.0414622,
                -0.290457,
                -0.120668,
                -0.292266,
                0.0111736,
                -0.216463,
                0.267764,
                0.0326973,
                0.024923,
                -0.0323141,
                -0.14751,
                -0.281891,
                -0.132452,
                0.0227553,
                0.175674,
                -0.239218,
                -0.10482,
                -0.24414,
                0.235916,
                0.042956,
                0.127336,
                0.180349,
                0.21251,
                0.146035,
                -0.258067,
                0.0380764,
                -0.00650731,
                -0.308895,
                0.131282,
                -0.012574,
                0.0931649,
                -0.0907581,
                0.415572,
                -0.0389458,
                -0.214121,
                -0.0866468,
                0.476705,
                0.313233,
                0.121383,
                0.105312,
                -0.267551,
                -0.0269851,
                -0.0338778,
                -0.202002,
                -0.00790457,
                0.0861839,
                0.16449,
                0.188631,
                -0.117764,
                0.133317,
                0.0490792,
                -0.229174,
                -0.195021,
                -0.0332335,
                -0.255792,
                -0.281544,
                -0.0984405,
                -0.0603076,
                -0.132315,
                0.0786312,
                -0.167174,
                0.227986,
                -0.0325406,
                0.0150404,
                -0.094657,
                0.0853265,
                0.249221,
                0.132198,
                -0.0711495,
                -0.0475844,
                0.0048612,
                0.454639,
                0.17629,
                -0.171478,
                0.146707,
                -0.193099,
                -0.121393,
                0.101997,
                -0.140158,
                -0.000217857,
                -0.0696605,
                -0.349798,
                -0.0859081,
                0.114079,
                -0.204231,
                -0.222412,
                -0.0252801,
                -0.208698,
                0.117232,
                0.165239,
                0.0159405,
                0.0902217,
                0.025853,
                -0.0961656,
                -0.0875303,
                -0.276626,
                -0.038945,
                0.0856003,
                -0.0351377,
                0.238972,
                -0.200757,
                0.0142016,
                0.187134,
                0.102818,
                -0.13916,
                0.17292,
                0.0949759,
                -0.189794,
                -0.226063,
                0.173619,
                0.214743,
                -0.507177,
                0.0122728,
                0.297601,
                0.0696912,
                -0.0876469,
                -0.152976,
                0.418492,
                -0.00210807,
                0.0815476,
                -0.205331,
                -0.340881,
                0.179055,
                -0.140103,
                -0.349399,
                0.0102074,
                0.256846,
                0.224645,
                -0.16763,
                -0.0989595,
                -0.160941,
                0.48727,
                0.195274,
                0.232208,
                0.183315,
                0.203002,
                -0.0673731,
                -0.113434,
                -0.00723351,
                0.0961041,
                0.129948,
                0.274371,
                -0.0344605,
                -0.0184316,
                0.366712,
                0.394691,
                -0.0151997,
                0.341908,
                0.185927,
                -0.200595,
                0.285974,
                -0.136719,
                0.0204794,
                -0.292907,
                -0.132069,
                -0.324576,
                0.142017,
                0.352932,
                0.0865472,
                -0.249683,
                0.0229928,
                -0.478075,
                -0.0125583,
                -0.197542,
                0.150263,
                0.138443,
                -0.308841,
                -0.149402,
                -0.0175038,
                0.0937235,
                -0.00704091,
                0.122285,
                -0.0248766,
                -0.0391789,
                0.276935,
                -0.193005,
                -0.236228,
                -0.384887,
                -0.1075,
                0.208261,
                0.162292,
                -0.109348,
                0.048814,
                0.334254,
                -0.0623149,
                0.0738144,
                0.237878,
                -0.271005,
                0.121933,
                0.0874191,
                -0.144971,
                -0.172164,
                -0.0691087,
                -0.0501383,
                -0.0299658,
                -0.0307041,
                -0.049479,
                -0.184442,
                -0.123513,
                -0.0338442,
                0.0167969,
                -0.0472578,
                0.108113,
                0.00872226,
                0.156019,
                -0.00380992,
                -0.0317589,
                -0.0954228,
                -0.135383,
                -0.18881,
                -0.0105587,
                -0.0032451,
                0.0419543,
                -0.00113219,
                0.0370524,
                -0.0218599,
                0.0496589,
                -0.0927922,
                0.19748,
                0.343181,
                0.0132029,
                0.114573,
                -0.0154875,
                0.128929,
                0.320407,
                0.0151846,
                -0.230073,
                0.15536,
                -0.0909639,
                -0.170835,
                0.0689176,
                -0.131,
                0.0363294,
                0.0678478,
                0.0317314,
                0.0318095,
                0.0721886,
                0.0626614,
                -0.125584,
                0.20108,
                -0.104301,
                0.269925,
                -0.0940273,
                0.247144,
                0.0993601,
                -0.0626415,
                -0.218204,
                0.12046,
                0.122104,
                0.0359073,
                0.190398,
                -0.0204129,
                -0.139516,
                0.0698798,
                -0.0881944,
                -0.0181882,
                0.12965,
                0.00598336,
                -0.118896,
                0.00978332,
                0.0128599,
                0.187028,
                -0.00486371,
                0.105357,
                0.150509,
                0.0417325,
                -0.232749,
                -0.0111988,
                -0.0660725,
                0.0182649,
                -0.0725528,
                -0.00842025,
                -0.226923,
                0.263075,
                0.0810132,
                0.0410724,
                -0.296298,
                -0.0465097,
                0.209996,
                -0.00905267,
                -0.00606577,
                0.053235,
                0.18776,
                -0.0761867,
                -0.0393494,
                -0.0596789,
                -0.125494,
                0.0296292,
                -0.0288615,
                -0.105133,
                -0.134132,
                -0.0891791,
                0.433007,
                -0.0510159,
                -0.229913,
                0.0985454,
                -0.0205795,
                0.0858587,
                0.165692,
                0.0597139,
                0.126456,
                0.256891,
                -0.0393153,
                0.280525,
                0.0222555,
                0.240193,
                -0.316829,
                0.134573,
                -0.0976772,
                0.0688234,
                -0.102996,
                0.190472,
                0.138825,
                0.155383,
                -0.235444,
                0.00198901,
                -0.106405,
                -0.0364666,
                0.191388,
                0.139151,
                -0.256977,
                -0.108175,
                -0.287493,
                0.0122775,
                0.00164917,
                -0.084028,
                0.0510119,
                -0.0326091,
                -0.298892,
                -0.217259,
                0.31799,
                0.482415,
                0.422273,
                -0.00280728,
                0.078457,
                -0.0205108,
                0.236744,
                -0.087932,
                -0.0637075,
                -0.172476,
                0.227225,
                0.104245,
                -0.114717,
                -0.27242,
                0.00234146,
                0.259682,
                0.224791,
                0.143026,
                0.198581,
                0.156459,
                0.287438,
                0.122286,
                -0.0245065,
                -0.165845,
                -0.180643,
                -0.304834,
                0.132378,
                0.173437,
                0.0762516,
                0.455453,
                0.14236,
                -0.0681987,
                -0.0482715,
                0.0766397,
                0.408079,
                0.0579688,
                0.22652,
                0.0705411,
                -0.56614,
                -0.172766,
                0.146354,
                -0.0713698,
                -0.0486125,
                0.00726927,
                0.272114,
                0.114916,
                -0.0248116,
                0.0612366,
                0.256627,
                -0.14435,
                -0.121359,
                -0.0463454,
                0.0890004,
                0.474351,
                0.163208,
                0.200191,
                -0.0405476,
                0.153068,
                -0.137129,
                0.0422649,
                -0.645363,
                -0.0662898,
                0.180944,
                0.178512,
                0.23975,
                -0.184555,
                0.470311,
                0.376162,
                0.245518,
                0.241945,
                -0.12582,
                -0.0571291,
                0.0872677,
                0.264923,
                -0.345825,
                0.407077,
                0.30029,
                0.417269,
                0.171429,
                -0.19985,
                0.163793,
                0.0794301,
                0.0909032,
                -0.0134879,
                -0.551674,
                -0.1751,
                -0.152017,
                -0.201509,
                0.267538,
                0.123435,
                0.204261,
                0.0235057,
                -0.0910879,
                -0.123247,
                -0.0370063,
                0.271179,
                -0.027609,
                -0.0788485,
                -0.574956,
                -0.027224,
                0.101279,
                0.144091,
                0.259433,
                0.0832424,
                -0.124503,
                0.0773419,
                -0.164407,
                -0.147294,
                -0.109656,
                -0.115442,
                0.179124,
                0.472451,
                -0.384102,
                -0.236493,
                0.0302377,
                0.265091,
                0.343921,
                0.0926654,
                -0.0357766,
                0.238747,
                0.175262,
                -0.184735,
                0.0179882,
                -0.199857,
                0.217826,
                0.141361,
                0.371699,
                0.197746,
                0.324334,
                0.240031,
                -0.0574051,
                -0.0393814,
                -0.301391,
                0.00780375,
                0.298063,
                -0.0922314,
                0.165237,
                0.309078,
                -0.62928,
                0.0604589,
                -0.354111,
                0.16737,
                -0.241163,
                -0.142709,
                0.344127,
                0.086966,
                -0.337022,
                -0.181946,
                -0.0144707,
                -0.149469,
                0.168416,
                -0.60388,
                -0.00522246,
                0.871761,
                -0.185547,
                -0.0372911,
                -0.329366,
                -0.170783,
                0.19137,
                0.0697743,
                -0.213709,
                -0.403845,
                -0.1562,
                -0.68652,
                -0.459595,
                -0.198204,
                0.12932,
                -0.131872,
                0.409914,
                0.549422,
                0.0976832,
                0.127293,
                0.257144,
                0.185576,
                -0.180026,
                -0.169168,
                -0.0116398,
                -0.399068,
                -0.468568,
                -0.12265,
                0.206539,
                -0.500057,
                0.418892,
                0.39046,
                -0.211515,
                -0.28798,
                -0.0245009,
                -0.0253653,
                0.00833137,
                -0.0322936,
                0.152847,
                0.0871129,
                -0.114458,
                0.415099,
                -0.158304,
                -0.142564,
                -0.108742,
                0.0316829,
                0.242322,
                0.255374,
                -0.0914216,
                -0.428021,
                -0.192655,
                -0.0977151,
                0.144878,
                0.180051,
                -0.205137,
                -0.267049,
                -0.324566,
                0.628807,
                -0.0225667,
                -0.0228808,
                0.130751,
                -0.0707229,
                -0.375545,
                -0.0641419,
                0.34534,
                -0.269068,
                0.245388,
                0.319673,
                0.168775,
                0.0210649,
                0.15214,
                -0.0826902,
                0.163484,
                0.310843,
                0.231472,
                -0.350887,
                0.107939,
                -0.0518197,
                0.224745,
                -0.0555232,
                0.0434373,
                -0.0315809,
                -0.226578,
                -0.303666,
                -0.12736,
                -0.397748,
                -0.2759,
                -0.271768,
                -0.112837,
                0.0205284,
                0.140497,
                0.2318,
                0.142965,
                0.2583,
                0.171723,
                -0.188041,
                -0.170889,
                0.00765097,
                0.11653,
                0.144883,
                0.379665,
                -0.0408071,
                0.162408,
                -0.0658742,
                0.211582,
                0.171017,
                0.0604635,
                -0.1964,
                -0.368745,
                0.111934,
                0.0581845,
                -0.189545,
                -0.159779,
                0.16065,
                0.489549,
                0.0366355,
                0.0422297,
                0.336938,
                -0.127976,
                0.0388614,
                -0.0643863,
                0.334641,
                0.0179439,
                -0.150204,
                -0.24538,
                0.0863742,
                0.544996,
                0.186223,
                0.0969527,
                0.0844733,
                -0.204633,
                0.00151353,
                0.301614,
                0.266098,
                0.265882,
                -0.0399738,
                0.0222986,
                0.0974322,
                0.337503,
                -0.188751,
                -0.28649,
                -0.00605629,
                0.00561185,
                0.476446,
                0.0796157,
                0.751841,
                0.354283,
                -0.125132,
                -0.0753935,
                0.0559322,
                -0.0763182,
                -0.103939,
                0.0757822,
                0.153019,
                -0.138819,
                0.134137,
                0.0313273,
                -0.350318,
                0.0152697,
                0.22528,
                0.296195,
                0.583553,
                -0.18632,
                -0.172316,
                -0.112519,
                0.119404,
                -0.118279,
                -0.316162,
                0.0681639,
                0.187695,
                -0.0432735,
                0.296012,
                0.00346285,
                0.425312,
                -0.269259,
                0.522731,
                -0.133926,
                -0.0369118,
                0.0656978,
                0.590006,
                -0.416102,
                0.00719008,
                -0.0820475,
                -0.344667,
                -0.220208,
                0.146536,
                0.0135918,
                0.287541,
                0.186494,
                -0.117948,
                0.00395088,
                0.259615,
                -0.180714,
                0.0456272,
                -0.0525183,
                0.157282,
                -0.250478,
                -0.254712,
                -0.158775,
                0.0783203,
                -0.0892745,
                -0.0323454,
                0.124828,
                -0.266735,
                -0.272238,
                -0.127604,
                -0.257648,
                -0.0702606,
                -0.112555,
                -0.0331186,
                0.241603,
                0.0594494,
                0.0217801,
                -0.222803,
                0.373863,
                0.301467,
                0.0176183,
                -0.165226,
                0.295487,
                0.191319,
                -0.03805,
                0.158529,
                -0.0807274,
                0.19499,
                0.138093,
                0.0352115,
                0.110711,
                0.144582,
                0.0939922,
                -0.278091,
                0.236462,
                0.0134645,
                0.0288932,
                0.168134,
                -0.104946,
                -0.110645,
                -0.169622,
                -0.14626,
                0.0433806,
                -0.255507,
                -0.241145,
                -0.28307,
                -0.0679166,
                -0.238057,
                -0.45679,
                0.0914231,
                -0.150773,
                0.046425,
                0.146911,
                -0.0442941,
                -0.112605,
                0.0659561,
                -0.151087,
                0.241017,
                -0.243607,
                -0.304816,
                -0.0800477,
                -0.049358,
                -0.132785,
                -0.00270338,
                -0.0985541,
                -0.437635,
                -0.216063,
                0.0936597,
                0.0729638,
                -0.0630771,
                0.0446833,
                0.390542,
                0.0346445,
                0.159484,
                -0.0403788,
                0.130156,
                0.455623,
                -0.0598504,
                0.262802,
                -0.0682255,
                -0.00912718,
                -0.253027,
                -0.0199328,
                -0.0214033,
                -0.0893955,
                0.0191032,
                -0.291009,
                -0.21097,
                0.303436,
                0.257722,
                0.0257963,
                -0.00134967,
                -0.0392302,
                0.238204,
                0.16624,
                -0.0883625,
                -0.0352938,
                0.0322584,
                0.100332,
                0.0564808,
                0.229375,
                0.241261,
                -0.136734,
                0.242148,
                0.141331,
                0.022042,
                -0.0768053,
                -0.0456722,
                -0.186016,
                -0.147796,
                0.131209,
                -0.0880459,
                0.172211,
                -0.0985457,
                -0.0662142,
                0.0708818,
                0.189393,
                -0.0450944,
                0.410808,
                0.168825,
                -0.0329373,
                -0.0574644,
                0.145022,
                0.232289,
                -0.052493,
                -0.0271432,
                0.22422,
                0.0703967,
                0.0589543,
                0.1373,
                0.105765,
                -0.00508261,
                -0.0103651,
                0.266506,
                -0.101344,
                -0.226349,
                -0.396353,
                -0.145844,
                0.253086,
                0.0950377,
                0.017761,
                -0.453712,
                -0.0206988,
                -0.0371856,
                0.154847,
                -0.142425,
                0.0461241,
                -0.00345161,
                0.161729,
                -0.0397963,
                -0.0308116,
                0.0922809,
                0.0195234,
                -0.311586,
                -0.255956,
                -0.232973,
                -0.321719,
                0.0761811,
                0.0190684,
                0.147997,
                0.0805991,
                -0.0507773,
                -0.126191,
                0.13314,
                -0.0287462,
                -0.158607,
                0.275392,
                0.0883081,
                -0.314555,
                -0.096713,
                -0.0143427,
                -0.0724713,
                0.085036,
                -0.224287,
                -0.0495203,
                0.113465,
                -0.0226786,
                -0.231293,
                -0.0125414,
                -0.113867,
                -0.0311508,
                -0.0664082,
                0.00842302,
                0.224037,
                0.0694868,
                -0.0290508,
                -0.178907,
                0.0289471,
                -0.196107,
                0.0641191,
                0.068589,
                -0.0956314,
                -0.372636,
                -0.0093596,
                0.00285956,
                -0.0818984,
                -0.0637179,
                0.0552108,
                -0.0996335,
                -0.227119,
                -0.244204,
                0.14399,
                -0.200426,
                0.0763658,
                0.330468,
                -0.0574922,
                0.0823752,
                0.234894,
                -0.135667,
                0.0384427,
                0.142927,
                -0.0362199,
                -0.154306,
                -0.052407,
                -0.253052,
                -0.185734,
                0.0317216,
                0.117202,
                0.411828,
                -0.133424,
                -0.0999359,
                0.240219,
                0.077392,
                0.0294598,
                0.0947639,
                -0.0632073,
                -0.0627061,
                -0.245681,
                -0.260446,
                0.0844429,
                -0.0209252,
                0.0567519,
                0.306577,
                -0.111854,
                0.0502401,
                -0.110351,
                -0.0643012,
                0.011808,
                0.0301993,
                0.0950134,
                -0.0556389,
                0.123444,
                -0.24478,
                -0.188479,
                0.189339,
                -0.142967,
                0.572142,
                0.118094,
                0.225866,
                0.111353,
                -0.112748,
                -0.0701641,
                0.418698,
                -0.0544328,
                0.177998,
                -0.133961,
                0.218815,
                0.434867,
                -0.414572,
                0.542991,
                -0.112987,
                -0.218889,
                0.436684,
                0.0559461,
                -0.0243193,
                -0.129379,
                0.471895,
                -0.171191,
                -0.0754208,
                0.0578963,
                -0.13128,
                0.11811,
                0.144819,
                0.0385098,
                -0.0702907,
                0.347648,
                -0.0183864,
                -0.0298939,
                0.227959,
                -0.223463,
                -0.114203,
                -0.529262,
                0.219357,
                -0.0845892,
                0.00459703,
                -0.0761421,
                -0.0230402,
                0.0280195,
                -0.179965,
                0.0527224,
                -0.11119,
                -0.105395,
                0.0202267,
                -0.0311087,
                0.0169409,
                -0.185768,
                0.118627,
                -0.00440515,
                -0.016234,
                -0.136171,
                -0.0114422,
                0.25372,
                0.0188567,
                -0.0691546,
                -0.0198322,
                0.00295198,
                -0.147268,
                0.178379,
                0.112791,
                -0.0158914,
                0.131107,
                0.148592,
                0.079707,
                0.0776998,
                0.152821,
                -0.0834441,
                0.0601931,
                -0.0786234,
                -0.0816017,
                -0.0392014,
                -0.120534,
                0.138208,
                -0.0418248,
                -0.0308015,
                0.0894697,
                -0.0339147,
                0.02713,
                0.0584808,
                0.0315241,
                -0.0531147,
                0.0384159,
                0.0389625,
                -0.116713,
                0.0848803,
                0.0913012,
                -0.15943,
                0.0173059,
                0.0774773,
                0.221411,
                -0.281277,
                0.287909,
                -0.17482,
                -0.166528,
                -0.238799,
                0.171401,
                -0.0352038,
                -0.233056,
                0.303469,
                -0.183205,
                0.0105313,
                0.139615,
                -0.0152791,
                -0.0882337,
                -0.187962,
                -0.396516,
                -0.202201,
                -0.20419,
                -0.336783,
                -0.118402,
                0.313176,
                -0.304545,
                0.131798,
                -0.159019,
                0.25601,
                -0.0998953,
                -0.410408,
                0.129454,
                -0.0766569,
                0.158208,
                0.107313,
                -0.147623,
                0.0557582,
                0.0809696,
                -0.0805931,
                -0.132087,
                0.0521473,
                -0.119411,
                0.0552474,
                0.106033,
                0.0546398,
                -0.287579,
                -0.321136,
                0.234262,
                0.110971,
                0.325368,
                -0.148338,
                -0.162389,
                0.103556,
                0.122425,
                -0.289897,
                -0.159909,
                -0.244957,
                0.210493,
                -0.103695,
                -0.13053,
                -0.239041,
                0.447318,
                0.163348,
                0.186299,
                -0.451642,
                -0.0525243,
                0.286342,
                -0.247831,
                -0.301597,
                0.087263,
                -0.0765666,
                -0.351203,
                -0.0278121,
                -0.174878,
                -0.114084,
                -0.207804,
                0.370182,
                -0.0383784,
                0.186286,
                0.189953,
                0.451747,
                -0.134042,
                -0.388484,
                0.0488968,
                -0.193817,
                -0.0629796,
                0.0648414,
                -0.347587,
                -0.0153579,
                0.00154998,
                0.122516,
                0.0121212,
                0.178488,
                -0.0164451,
                -0.0958349,
                -0.0281955,
                0.153897,
                -0.1172,
                -0.0599232,
                -0.0729824,
                -0.100801,
                0.459735,
                -0.0672731,
                0.0550228,
                -0.218466,
                -0.14025,
                0.0349749,
                0.0122826,
                0.0651183,
                0.299018,
                -0.347586,
                0.14101,
                -0.0138048,
                -0.0768712,
                -0.157365,
                -0.041532,
                0.188403,
                -0.231465,
                -0.166281,
                0.128692,
                -0.049164,
                -0.110544,
                0.0352026,
                0.247172,
                -0.289061,
                0.284933,
                0.0825209,
                0.155513,
                -0.246197,
                -0.271783,
                -0.224431,
                -0.213785,
                -0.0740467,
                -0.150618,
                -0.0131867,
                0.116809,
                0.147923,
                -0.150466,
                -0.0465474,
                0.356904,
                -0.227303,
                0.103406,
                -0.0930538,
                0.179836,
                0.205283,
                -0.041495,
                -0.0538817,
                0.119784,
                -0.334078,
                0.241825,
                -0.0302916,
                0.233811,
                0.0474996,
                0.0549818,
                -0.0662089,
                0.0505516,
                0.149136,
                -0.126753,
                0.00291657,
                -0.235401,
                -0.0839423,
                -0.226391,
                -0.0913912,
                0.180716,
                0.291066,
                -0.421468,
                -0.219436,
                -0.121206,
                0.125818,
                0.223346,
                0.332403,
                0.0940139,
                -0.254631,
                0.0338325,
                0.016052,
                -0.0256653,
                -0.106202,
                0.16903,
                0.0920023,
                0.141047,
                0.0405253,
                0.0629704,
                0.126074,
                0.0322676,
                0.135602,
                -0.208928,
                -0.106603,
                0.077386,
                0.0568895,
                0.0853086,
                -0.23461,
                0.147977,
                -0.0434325,
                0.377987,
                0.242933,
                0.0785985,
                0.268589,
                0.180571,
                -0.430695,
                0.00122434,
                0.0979138,
                0.0808226,
                0.152474,
                -0.053357,
                -0.440558,
                -0.264195,
                0.056576,
                0.305581,
                0.151285,
                -0.0408897,
                -0.141459,
                0.388903,
                -0.0970388,
                -0.188523,
                -0.161763,
                -0.425359,
                -0.273385,
                0.0303859,
                -0.0387737,
                0.146219,
                -0.0604374,
                -0.238976,
                -0.0317341,
                0.00322471,
                -0.352718,
                -0.0425356,
                0.175418,
                0.0073793,
                0.163651,
                -0.0327656,
                0.10208,
                0.0687114,
                0.118279,
                0.243149,
                -0.0866192,
                -0.0882323,
                0.0589292,
                -0.208315,
                -0.0359962,
                -0.11216,
                0.0370566,
                0.217281,
                -0.17984,
                -0.146586,
                -0.22853,
                0.0447475,
                0.0985282,
                -0.109025,
                -0.0723766,
                0.172937,
                0.0265569,
                0.00648691,
                0.165356,
                -0.10697,
                -0.00656279,
                0.0470852,
                0.000257624,
                0.130147,
                0.0768787,
                0.178348,
                -0.0309802,
                -0.227488,
                -0.105078,
                -0.0583642,
                0.170851,
                -0.0161936,
                0.0808964,
                -0.0935744,
                -0.234475,
                0.0665314,
                0.0883619,
                -0.140387,
                -0.0347563,
                0.119848,
                -0.165693,
                -0.0660022,
                -0.151805,
                0.0622892,
                -0.00787936,
                -0.139454,
                0.215272,
                -0.199155,
                0.122677,
                0.191041,
                -0.0773319,
                -0.0546122,
                -0.0546919,
                -0.124897,
                -0.100451,
                -0.173926,
                -0.134497,
                -0.0763368,
                0.00266767,
                0.0650902,
                -0.0468906,
                0.0784403,
                0.0135331,
                -0.131124,
                -0.2513,
                -0.0273735,
                0.0988475,
                0.00602608,
                -0.0873908,
                -0.0518559,
                0.0210513,
                0.165688,
                0.0157967,
                -0.127009,
                0.0531479,
                -0.0316386,
                0.209492,
                -0.255414,
                0.00990808,
                0.0996187,
                -0.0805487,
                -0.0323671,
                -0.237219,
                0.0237356,
                0.0440816,
                -0.0194387,
                0.161223,
                -0.0589199,
                -0.338451,
                -0.228449,
                -0.0764296,
                -0.102181,
                -0.096315,
                -0.0347732,
                -0.0197273,
                -0.123471,
                -0.0107851,
                0.139302,
                0.0627335,
                -0.0562624,
                0.222434,
                0.0558617,
                -0.122039,
                0.133799,
                -0.020261,
                -0.0265625,
                0.049197,
                -0.0399552,
                -0.00865069,
                -0.00309682,
                0.130136,
                0.139654,
                0.19291,
                -0.24463,
                0.11784,
                -0.0706897,
                0.318776,
                0.099357,
                -0.0618833,
                -0.12705,
                0.124735,
                0.359591,
                -0.114693,
                -0.0698859,
                -0.316923,
                0.173497,
                -0.002317,
                -0.133042,
                -0.0372101,
                -0.0290212,
                -0.04321,
                0.172694,
                0.0212473,
                -0.00215909,
                0.219776,
                -0.130348,
                -0.333537,
                0.307801,
                0.00957737,
                -0.160893,
                0.195362,
                0.120771,
                0.0898334,
                0.0625397,
                -0.164309,
                0.277599,
                -0.127932,
                -0.205826,
                0.240272,
                -0.208803,
                -0.393842,
                0.038394,
                0.095786,
                0.179105,
                0.00548933,
                0.125274,
                -0.0401088,
                0.142291,
                -0.333384,
                -0.409081,
                -0.121395,
                -0.00757683,
                -0.0583614,
                0.248369,
                -0.13299,
                0.117215,
                -0.0320349,
                -0.0862489,
                0.155483,
                0.183808,
                0.133236,
                -0.24749,
                -0.31758,
                0.041263,
                -0.0171192,
                0.0333443,
                -0.113695,
                -0.170126,
                0.159524,
                0.112483,
                0.157993,
                -0.163687,
                0.0938816,
                0.0895799,
                -0.241609,
                -0.264319,
                0.334105,
                -0.268855,
                0.00628257,
                -0.0119526,
                -0.0942619,
                0.146214,
                0.247691,
                -0.201953,
                -0.038008,
                0.0624906,
                -0.0846464,
                -0.0499436,
                -0.511795,
                -0.239709,
                0.315841,
                0.170355,
                0.108118,
                -0.0356337,
                -0.172677,
                -0.156499,
                0.121771,
                -0.106288,
                0.457686,
                0.136557,
                -0.195916,
                0.0359421,
                -0.0576302,
                -0.0553407,
                -0.0779156,
                0.28421,
                -0.0998178,
                -0.152189,
                -0.163652,
                -0.0869797,
                0.232983,
                0.224808,
                0.313906,
                0.0557297,
                0.0881969,
                -0.12671,
                0.200149,
                -0.0733699,
                -0.0258637,
                0.0146761,
                0.343946,
                -0.28534,
                -0.279972,
                0.465514,
                0.0404218,
                0.0554474,
                -0.0758447,
                0.34175,
                -0.0585309,
                -0.111528,
                -0.285893,
                -0.140606,
                -0.11379,
                -0.0592459,
                0.254025,
                -0.348607,
                -0.0307801,
                -0.317092,
                -0.0516913,
                -0.25072,
                -0.191782,
                0.0249079,
                -0.0598285,
                0.153998,
                -0.285456,
                -0.267565,
                -0.137813,
                0.216425,
                -0.11683,
                -0.184078,
                -0.191894,
                -0.109034,
                -0.125315,
                0.0499676,
                -0.0438913,
                -0.00795157,
                -0.282042,
                -0.0921481,
                -0.00464935,
                -0.201224,
                -0.0100924,
                0.00572712,
                0.64628,
                -0.0159138,
                0.29549,
                0.503206,
                -0.0338788,
                -0.100355,
                0.32258,
                0.48161,
                0.234247,
                -0.450057,
                -0.35262,
                0.0132594,
                0.0523799,
                0.367848,
                0.634,
                -0.135226,
                -0.34357,
                0.261297,
                0.00474733,
                0.0510383,
                -0.381333,
                0.0736915,
                -0.0115583,
                -0.431987,
                0.448485,
                0.426391,
                -0.103674,
                -0.107626,
                0.176394,
                -0.347942,
                -0.54372,
                -0.221677,
                -0.250246,
                -0.328951,
                0.217874,
                -0.179107,
                -0.0597263,
                0.323347,
                -0.039275,
                0.0199513,
                -0.102215,
                0.0148006,
                -0.0826822,
                0.116406,
                -0.0317261,
                0.195044,
                -0.0220014,
                -0.308209,
                0.173223,
                0.144198,
                -0.000125351,
                0.253498,
                -0.1783,
                -0.133685,
                -0.131767,
                -0.099305,
                -0.0290948,
                0.208953,
                0.311266,
                -0.144018,
                -0.239869,
                -0.148504,
                0.417491,
                -0.14841,
                -0.378286,
                0.0588571,
                -0.168484,
                -0.0923055,
                0.216113,
                -0.244968,
                -0.146774,
                -0.121194,
                0.0796996,
                0.00824235,
                0.183318,
                0.152883,
                0.27621,
                -0.0143682,
                0.145148,
                -0.0555729,
                0.00330963,
                0.112046,
                0.074347,
                0.0642658,
                0.0357271,
                -0.13291,
                -0.334621,
                0.0158761,
                0.257355,
                0.154887,
                0.0480928,
                0.190658,
                -0.0652335,
                -0.147498,
                -0.0805793,
                0.0722669,
                0.340071,
                -0.0584902,
                -0.109985,
                -0.308232,
                -0.078066,
                -0.182285,
                0.15905,
                0.103787,
                0.03963,
                0.0665311,
                -0.162693,
                -0.233318,
                -0.245357,
                0.0283125,
                0.00637298,
                0.0319731,
                -0.101015,
                -0.103619,
                0.422519,
                0.0766678,
                0.0274501,
                -0.104426,
                -0.1033,
                0.00296609,
                -0.0331091,
                0.309604,
                -0.0953572,
                -0.0962811,
                -0.46798,
                -0.0197584,
                -0.127489,
                0.0862344,
                -0.00688413,
                0.0803566,
                -0.428104,
                -0.171902,
                -0.115442,
                -0.0953784,
                -0.0206324,
                -0.236715,
                0.192851,
                -0.113168,
                -0.111233,
                -0.0671215,
                -0.0400428,
                0.023584,
                0.318867,
                0.0739236,
                -0.00157842,
                -0.267494,
                -0.248668,
                -0.231012,
                0.0949484,
                -0.0476703,
                -0.196518,
                0.123801,
                -0.072942,
                -0.044343,
                0.0934484,
                0.010892,
                0.148505,
                -0.102679,
                -0.320182,
                0.413615,
                -0.292058,
                -0.11876,
                0.0058566,
                -0.0833686,
                -0.394481,
                -0.282747,
                -0.258377,
                -0.0792751,
                0.191702,
                0.24966,
                0.097547,
                -0.150088,
                -0.117725,
                0.231225,
                0.295954,
                -0.109686,
                -0.314568,
                -0.356286,
                -0.180701,
                0.11271,
                -0.0241038,
                -0.181821,
                -0.102229,
                -0.222555,
                0.148822,
                0.000757464,
                -0.188592,
                -0.249508,
                -0.212453,
                -0.0368089,
                0.0536505,
                -0.0281323,
                -0.1835,
                0.0392815,
                0.00398013,
                0.146699,
                -0.201001,
                0.00557994,
                -0.0241682,
                0.206619,
                0.344545,
                0.0429579,
                0.0208484,
                0.079224,
                0.14691,
                -0.227068,
                -0.073758,
                -0.211039,
                0.13878,
                -0.0272101,
                0.143207,
                -0.358468,
                0.0513285,
                -0.0590835,
                0.119856,
                0.193109,
                -0.12241,
                -0.175516,
                -0.36162,
                -0.0728631,
                0.135002,
                -0.0701767,
                -0.151014,
                -0.0238719,
                -0.138587,
                -0.0196984,
                0.0337298,
                0.157367,
                -0.00341967,
                0.0813284,
                0.156948,
                -0.0331428,
                0.155706,
                0.106221,
                -0.0527148,
                -0.105082,
                0.0982751,
                0.118268,
                0.0403509,
                0.276303,
                0.135463,
                -0.0477525,
                -0.0474163,
                -0.134562,
                0.096295,
                0.134658,
                0.0752813,
                0.250309,
                0.160941,
                -0.153221,
                0.27417,
                0.17795,
                0.367611,
                0.27924,
                0.176644,
                0.192592,
                -0.379954,
                -0.025183,
                0.233819,
                -0.252689,
                -0.183984,
                0.099006,
                0.0314063,
                0.227884,
                0.515405,
                -0.163343,
                -0.049383,
                0.0584991,
                0.163798,
                0.1459,
                0.348357,
                -0.593651,
                -0.341154,
                0.335094,
                -0.162542,
                -0.156695,
                -0.183965,
                0.0432178,
                -0.00160994,
                -0.0659458,
                0.240337,
                -0.0400718,
                0.0576616,
                0.01464,
                0.554838,
                -0.0237657,
                -0.0932833,
                0.476755,
                -0.0983286,
                -0.0948242,
                0.151784,
                0.0790947,
                -0.656373,
                0.15633,
                0.340467,
                -0.567066,
                -0.0269297,
                -0.116679,
                0.227949,
                -0.273343,
                -0.0290615,
                -0.0969071,
                -0.0444469,
                0.169,
                -0.226533,
                0.0098579,
                -0.0708755,
                -0.18492,
                0.0732072,
                -0.0421156,
                0.0349634,
                0.101645,
                0.179361,
                -0.119952,
                0.134877,
                -0.0373544,
                -0.104075,
                -0.121982,
                -0.0155628,
                -0.176689,
                0.0317061,
                -0.199337,
                -0.137772,
                -0.07713,
                -0.0536985,
                -0.0594957,
                -0.0805333,
                0.0417976,
                -0.225587,
                0.12935,
                0.137851,
                -0.179339,
                0.1591,
                -0.0804175,
                0.150857,
                -0.0379195,
                0.12812,
                0.00951276,
                0.0970441,
                -0.164653,
                -0.0512461,
                0.0603572,
                -0.0928695,
                0.125589,
                -0.00977586,
                -0.264891,
                -0.010173,
                -0.0621565,
                -0.494086,
                -0.278805,
                -0.434073,
                0.054656,
                -0.0186001,
                -0.129718,
                -0.107542,
                0.11304,
                0.0923357,
                0.0174321,
                -0.288323,
                0.134734,
                0.236589,
                -0.263925,
                -0.217992,
                0.040426,
                0.166067,
                -0.124237,
                -0.0109157,
                -0.124935,
                -0.122425,
                0.335167,
                -0.047582,
                -0.194795,
                0.190798,
                0.12145,
                0.0587111,
                -0.0670851,
                -0.107606,
                0.0446165,
                0.0303468,
                -0.368441,
                -0.0200639,
                -0.270518,
                0.411378,
                0.022243,
                0.1837,
                0.0168862,
                -0.199315,
                3.20616e-006,
                -0.368505,
                0.177473,
                -0.130777,
                -0.141038,
                0.285567,
                0.228876,
                -0.0341808,
                0.0546351,
                0.0390546,
                0.25742,
                0.0735907,
                0.296293,
                0.102638,
                0.0281281,
                0.137762,
                0.023037,
                -0.0521465,
                -0.250743,
                -0.259279,
                0.131293,
                0.189777,
                -0.346255,
                -0.0110613,
                0.00956711,
                0.00262189,
                0.138204,
                -0.0877287,
                -0.150239,
                0.0922103,
                -0.0377413,
                0.220485,
                -0.224369,
                -0.122067,
                0.332113,
                0.22558,
                -0.0803709,
                -0.159944,
                0.0450687,
                -0.053934,
                -0.162382,
                0.0280162,
                -0.233232,
                -0.528018,
                0.0925645,
                0.24781,
                0.0950759,
                -0.162771,
                -0.153298,
                -0.0142039,
                -0.0759754,
                -0.176312,
                -0.432501,
                0.0108223,
                -0.0148433,
                -0.264926,
                0.0906721,
                -0.0575255,
                0.396865,
                -0.0192973,
                -0.000926709,
                -0.0535297,
                0.242533,
                -0.0323629,
                0.180346,
                -0.048846,
                -0.173789,
                0.255416,
                -0.185961,
                0.301565,
                -0.0343639,
                0.102148,
                0.203116,
                -0.104447,
                0.138602,
                -0.00133659,
                0.164451,
                -0.20243,
                0.0824269,
                -0.053108,
                -0.149335,
                0.0114351,
                -0.131291,
                -0.0663295,
                0.159392,
                0.0920058,
                -0.133127,
                -0.133643,
                -0.0855319,
                0.0747979,
                -0.117498,
                0.0298427,
                -0.0140658,
                0.239804,
                -0.0277108,
                0.0655636,
                0.0494957,
                -0.0970037,
                -0.0442046,
                -0.147338,
                0.0896853,
                0.0141479,
                0.121987,
                0.193054,
                -0.040613,
                -0.156893,
                -0.0959509,
                -0.0399549,
                0.0529701,
                0.0426353,
                0.0367368,
                0.297067,
                0.207296,
                0.0798537,
                -0.264522,
                0.119058,
                -0.192722,
                -0.331117,
                0.0274713,
                0.0848607,
                0.448744,
                0.253892,
                0.0163314,
                0.0921505,
                -0.0279054,
                0.449593,
                -0.162109,
                0.147456,
                0.275126,
                0.0168474,
                0.339313,
                0.15948,
                -0.0753184,
                -0.522611,
                0.314766,
                0.0300018,
                0.357175,
                0.120031,
                0.0466985,
                -0.251629,
                0.445935,
                0.311387,
                -0.205476,
                0.240441,
                0.0745694,
                0.252818,
                -0.379166,
                0.621908,
                -0.421458,
                -0.0605168,
                -0.116886,
                0.218273,
                0.414455,
                -0.182863,
                0.179307,
                -0.0563616,
                -0.0673197,
                0.42292,
                0.209962,
                0.234386,
                0.0261021,
                0.231848,
                -0.0795909,
                -0.122398,
                0.00217435,
                0.121226,
                0.092332,
                -0.197806,
                0.0431593,
                -0.101674,
                0.0512835,
                0.135959,
                -0.0385656,
                0.118496,
                -0.0199087,
                0.178986,
                0.132427,
                -0.0402029,
                -0.227148,
                0.174022,
                0.0561193,
                -0.00923591,
                0.136274,
                -0.0262619,
                -0.0113089,
                -0.0925771,
                0.00718155,
                0.0511735,
                -0.029322,
                -0.178478,
                0.125953,
                0.0415352,
                0.0425853,
                0.0843386,
                -0.136224,
                0.0119452,
                -0.0279415,
                -0.112477,
                0.197086,
                0.141978,
                0.109796,
                -0.0442181,
                -0.0537606,
                -0.0856736,
                0.0515463,
                0.0410746,
                0.0933225,
                -0.234569,
                0.0294154,
                -0.0601702,
                0.168604,
                -0.090156,
                -0.0733873,
                -0.124978,
                0.0645804,
                0.00346234,
                -0.307551,
                -0.169317,
                0.0770938,
                0.186705,
                0.0216244,
                0.294842,
                0.232609,
                0.0480374,
                -0.0799863,
                0.220944,
                -0.424882,
                -0.0741439,
                0.126728,
                0.31502,
                0.0581041,
                -0.213525,
                -0.123225,
                0.0672368,
                -0.0354084,
                0.0233292,
                -0.328735,
                -0.0205125,
                0.291427,
                0.225742,
                0.0275593,
                0.249789,
                -0.0837672,
                -0.18201,
                -0.109266,
                -0.0333737,
                0.0900594,
                -0.053574,
                0.0306692,
                0.0563081,
                -0.11772,
                0.0427047,
                0.0335322,
                -0.057019,
                0.00953252,
                -0.0104428,
                0.182552,
                0.131139,
                -0.153536,
                -0.280931,
                -0.0189412,
                -0.175751,
                0.236116,
                0.263743,
                0.35374,
                -0.14137,
                -0.232983,
                -0.000963753,
                -0.0978271,
                -0.0875887,
                0.1056,
                0.549418,
                -0.0146914,
                0.00107123,
                0.273819,
                0.0927248,
                0.231596,
                -0.599767,
                -0.139972,
                0.0798473,
                -0.00333886,
                -0.0929914,
                -0.566377,
                -0.418399,
                0.124224,
                0.0793642,
                0.0513224,
                0.262844,
                0.23724,
                0.0558287,
                0.0280464,
                0.162915,
                -0.168803,
                0.147031,
                0.0730922,
                0.0879793,
                0.277311,
                -0.0319716,
                0.0210746,
                -0.157903,
                0.0820309,
                0.0865832,
                0.379632,
                0.394115,
                -0.165161,
                -0.12342,
                -0.258168,
                0.421068,
                0.196263,
                0.270294,
                0.0742036,
                0.00635047,
                -0.0313945,
                0.258989,
                -0.13231,
                0.0575994,
                -0.211179,
                0.125393,
                -0.112629,
                0.103124,
                -0.0416892,
                -0.0674197,
                0.0245224,
                -0.0454658,
                0.0636419,
                0.0743346,
                0.104115,
                -0.0408661,
                0.090519,
                0.104327,
                -0.0738252,
                0.106681,
                -0.00389725,
                -0.0257511,
                0.0179998,
                -0.0128549,
                0.205281,
                -0.189564,
                0.214943,
                -0.0201162,
                0.0429968,
                0.00127285,
                0.0690266,
                -0.0707121,
                0.222133,
                -0.0650802,
                0.190297,
                -0.0786821,
                0.0548006,
                -0.133773,
                -0.136249,
                0.261735,
                -0.298915,
                0.0211293,
                0.228431,
                -0.0621027,
                -0.146139,
                0.0752885,
                0.0216647,
                -0.0772828,
                0.0499943,
                -0.352832,
                0.0475403,
                0.107592,
                -0.000787763,
                -0.0231872,
                -0.155504,
                -0.0655772,
                -0.288841,
                -0.0897038,
                0.019912,
                0.112216,
                -0.298927,
                -0.035246,
                0.252299,
                -0.0630825,
                -0.00843515,
                -0.0352356,
                0.160293,
                -0.122508,
                0.335809,
                0.0668542,
                -0.233108,
                0.186082,
                0.17973,
                -0.140713,
                -0.268119,
                -0.116742,
                -0.186797,
                0.155044,
                -0.0122305,
                -0.180428,
                -0.0722076,
                -0.0532201,
                0.122171,
                -0.0714284,
                0.21005,
                -0.131696,
                -0.0214806,
                -0.0835584,
                0.210083,
                -0.0305176,
                -0.0526593,
                0.0215423,
                -0.00276991,
                -0.43971,
                0.0336791,
                -0.0526403,
                -0.115484,
                0.136262,
                -0.187171,
                -0.0645772,
                -0.0648198,
                -0.171654,
                0.102261,
                0.0509566,
                0.0360663,
                -0.0977619,
                0.147446,
                -0.193596,
                -0.0904441,
                -0.0698279,
                0.195858,
                -0.0902225,
                0.0775974,
                -0.0277249,
                -0.0235689,
                0.154694,
                -0.182448,
                0.026495,
                0.0165133,
                -0.178675,
                -0.092709,
                0.0831803,
                -0.0040385,
                -0.199741,
                -0.0648087,
                -0.0333088,
                0.00698235,
                -0.167928,
                -0.159705,
                0.0157359,
                -0.102499,
                -0.166931,
                -0.113133,
                -0.0157275,
                0.120004,
                0.0733208,
                -0.066632,
                -0.037055,
                -0.023342,
                -0.0175255,
                0.0378398,
                -0.0851873,
                0.00273107,
                0.0219769,
                0.0103888,
                0.0910737,
                -0.0164716,
                -0.136756,
                -0.00413712,
                -0.221607,
                -0.14311,
                -0.00232776,
                -0.249176,
                -0.00635329,
                -0.229931,
                -0.176645,
                0.104678,
                0.107285,
                0.0455327,
                -0.273211,
                0.0108238,
                0.0197122,
                -0.0184942,
                0.0333937,
                0.11152,
                -0.00140718,
