{
    "layers": [
        {
            "name": "input_layer",
            "type": "input",
            "size": 50
        },
        {
            "name": "hidden_layer",
            "type": "blstm",
            "size": 100,
            "bias": 0
        },
        {
            "name": "output_layer",
            "type": "softmax",
            "size": 40,
            "bias": 0
        },
        {
            "name": "postoutput",
            "type": "multiclass_classification",
            "size": 40
        }
    ],
    "weights": {
        "hidden_layer": {
            "input": [
                -0.0199592,
                -0.188846,
                0.288995,
                -0.238793,
                -0.028908,
                0.270086,
                -0.216175,
                -0.92363,
                -0.240377,
                0.015135,
                0.462198,
                0.0183674,
                0.107155,
                0.579571,
                0.149351,
                0.0956336,
                0.991482,
                -0.529993,
                -0.0248988,
                0.0369372,
                -0.885619,
                -0.36455,
                -0.0916639,
                -0.304772,
                0.70843,
                -0.342665,
                0.58479,
                -0.545318,
                0.449974,
                0.183104,
                0.153725,
                0.168773,
                0.744529,
                0.42209,
                0.217213,
                0.0513895,
                0.723483,
                0.275846,
                -0.23099,
                -1.25563,
                -0.179991,
                -0.414272,
                0.0203044,
                -0.240986,
                0.418964,
                -0.0344663,
                -0.278377,
                0.199812,
                -0.239286,
                -0.112958,
                -0.041806,
                0.109028,
                0.9917,
                0.595495,
                0.166248,
                0.302218,
                0.586185,
                -0.063751,
                -0.0400587,
                0.315415,
                -0.698421,
                1.23968,
                -0.889829,
                0.262659,
                0.0349065,
                0.554591,
                0.83965,
                0.809285,
                -0.045591,
                -0.730383,
                0.691659,
                0.350325,
                -0.232677,
                0.218536,
                -0.212378,
                0.0749411,
                -0.696402,
                -0.319702,
                -0.930771,
                0.4926,
                -1.42866,
                0.288417,
                0.355952,
                -0.0861417,
                -0.0114686,
                0.279641,
                -0.211894,
                -1.07949,
                -0.108577,
                0.46786,
                0.396928,
                0.19472,
                0.747823,
                0.307364,
                0.284423,
                0.0588902,
                0.452078,
                -0.550028,
                0.427341,
                -0.876114,
                0.0802794,
                -0.19499,
                0.255697,
                -0.686302,
                0.0605212,
                -0.162666,
                -0.509705,
                -0.700564,
                0.481155,
                0.287133,
                -0.574858,
                0.401248,
                -0.0213572,
                -0.55011,
                0.555353,
                -0.154684,
                0.288355,
                0.833889,
                0.158657,
                -0.309682,
                -0.184693,
                -0.0460252,
                -0.0206204,
                0.458592,
                -0.445292,
                0.700412,
                0.474347,
                -0.267578,
                -0.046994,
                -0.379307,
                0.223966,
                -0.618371,
                -0.568549,
                -0.108879,
                -0.307147,
                -0.833432,
                -0.520469,
                -0.775702,
                -0.804732,
                -0.0184699,
                0.456541,
                0.131435,
                0.144058,
                0.9487,
                -0.0490643,
                0.0917518,
                0.706799,
                -0.27109,
                0.384449,
                0.599807,
                0.882079,
                -0.392163,
                0.281847,
                -0.329852,
                1.1867,
                0.808282,
                0.501985,
                -1.31518,
                -0.0126809,
                0.179188,
                -0.547313,
                0.47102,
                -1.61758,
                0.815231,
                0.423052,
                0.990217,
                0.996825,
                0.697317,
                -0.76815,
                -0.635164,
                -0.240387,
                -0.257627,
                -1.71729,
                -0.303815,
                0.412069,
                1.0518,
                -0.243274,
                -1.7893,
                -0.841938,
                0.682327,
                0.288809,
                -0.887172,
                1.04666,
                -0.249122,
                -0.246879,
                -0.666862,
                0.486635,
                -0.732429,
                -0.944092,
                -0.731636,
                0.228175,
                -0.239207,
                0.729691,
                -0.459747,
                0.916452,
                0.572084,
                0.844961,
                0.0439955,
                -0.352416,
                0.0341751,
                0.388561,
                -0.25561,
                -0.0872087,
                0.460352,
                -0.114612,
                0.665942,
                0.300156,
                0.406323,
                0.301375,
                0.805419,
                -0.597603,
                -0.212851,
                -0.703844,
                0.504284,
                -0.30211,
                0.212486,
                0.0556865,
                0.466849,
                0.652647,
                -0.092993,
                1.11724,
                0.542726,
                -0.560297,
                0.231007,
                -0.887708,
                0.568088,
                -0.4468,
                -0.153568,
                -0.465511,
                -0.0617614,
                0.0982749,
                -0.240619,
                0.37904,
                -0.188513,
                -0.724758,
                -0.364494,
                -0.414727,
                -0.650626,
                0.575101,
                0.344693,
                0.552537,
                -0.234903,
                0.0849526,
                0.0474625,
                0.490719,
                -0.229869,
                0.427001,
                0.228939,
                -0.0577064,
                0.108883,
                -0.0340554,
                0.742386,
                -0.0432618,
                1.17465,
                -0.393413,
                -1.93672,
                0.273765,
                0.221568,
                1.08319,
                -1.06723,
                -1.31568,
                0.805281,
                1.51758,
                0.109374,
                0.215936,
                -1.33661,
                -0.588196,
                -0.600802,
                -0.171672,
                0.294785,
                0.909026,
                1.13911,
                1.07388,
                0.715689,
                -0.631215,
                -1.16617,
                -1.3529,
                2.23634,
                -2.5889,
                -0.515736,
                -2.44075,
                1.29915,
                -1.35898,
                1.0358,
                0.616228,
                2.25863,
                -1.52544,
                -1.2324,
                2.33901,
                2.37619,
                0.206303,
                0.457216,
                0.533635,
                0.961431,
                -0.357467,
                -0.181529,
                -0.189808,
                -2.14368,
                0.841818,
                -0.508947,
                0.260646,
                -0.261198,
                0.042592,
                -0.469993,
                0.276788,
                0.180551,
                -0.78859,
                -0.793541,
                0.308889,
                0.923083,
                -1.28685,
                -0.0143938,
                -0.0200616,
                -0.812403,
                0.42511,
                -0.616029,
                0.159492,
                0.548805,
                0.797476,
                -0.356849,
                0.705834,
                -0.219083,
                -0.35169,
                -0.0202007,
                -0.480365,
                -0.470143,
                -0.283215,
                0.266402,
                -0.295774,
                -0.363437,
                -0.205139,
                0.222175,
                -0.465462,
                0.806775,
                0.489034,
                -1.03902,
                -0.791759,
                -0.904565,
                -0.473362,
                0.652487,
                0.317836,
                0.804002,
                0.036851,
                0.889192,
                0.589648,
                -0.898132,
                -0.117059,
                0.0417895,
                0.276489,
                0.403628,
                0.856212,
                -0.346366,
                -0.041493,
                -1.02797,
                0.629902,
                1.5642,
                -0.296772,
                -0.746115,
                0.37948,
                0.133178,
                0.16677,
                -0.68622,
                -0.629775,
                0.411421,
                -0.286164,
                -0.121781,
                -0.488861,
                -0.536635,
                0.329849,
                0.305702,
                -0.885316,
                -0.891305,
                -1.501,
                -1.35423,
                0.431266,
                0.821813,
                0.933346,
                -0.984092,
                0.838943,
                0.383906,
                1.52376,
                -0.648257,
                0.632899,
                -0.378918,
                -0.11223,
                -0.862817,
                0.145552,
                0.825437,
                -0.842652,
                -2.02141,
                0.0462691,
                -0.332126,
                0.0467233,
                -0.871759,
                0.791673,
                0.461315,
                -0.60083,
                1.01995,
                -0.890844,
                0.680792,
                0.389741,
                0.0704149,
                -0.687456,
                0.299972,
                0.32996,
                0.374363,
                0.417814,
                -0.6425,
                0.260269,
                0.393997,
                -0.300246,
                -0.00412029,
                -0.523996,
                0.467214,
                -0.106575,
                -0.446474,
                0.403891,
                -0.374723,
                0.12086,
                -0.534872,
                -0.611661,
                -0.109979,
                -0.525148,
                -0.420072,
                0.306894,
                0.472539,
                0.0798281,
                -0.0211854,
                -0.201423,
                0.0810664,
                0.0621771,
                0.395453,
                0.0342726,
                0.0851153,
                -0.200417,
                -0.185405,
                -0.298127,
                -0.330469,
                -0.333189,
                -0.62807,
                0.239688,
                -0.515381,
                1.14091,
                -0.386679,
                0.709854,
                0.521524,
                0.173573,
                -0.536276,
                0.535158,
                0.0138119,
                -0.143015,
                -0.013689,
                -0.126244,
                0.151949,
                -0.298704,
                -0.588885,
                -0.254226,
                -0.0704146,
                0.340536,
                -0.0778351,
                -0.222246,
                -0.1178,
                0.598362,
                -0.502856,
                0.104411,
                -0.585385,
                -0.470205,
                -0.233414,
                0.288307,
                0.171616,
                0.0485237,
                0.279798,
                0.499258,
                -0.0718421,
                -0.343814,
                -0.100888,
                0.00402489,
                0.720303,
                -0.14728,
                -0.440115,
                -0.0554574,
                0.186609,
                -0.78132,
                0.24257,
                0.25216,
                0.107724,
                -0.51492,
                -0.36165,
                0.571256,
                0.478421,
                -0.114239,
                -0.0774712,
                0.0421449,
                0.41942,
                -0.457055,
                -0.153551,
                -0.12593,
                -0.302684,
                0.387043,
                -0.0396402,
                0.104001,
                -0.0654546,
                0.933331,
                -0.291595,
                0.0425941,
                0.231679,
                -0.194961,
                0.150282,
                -0.772658,
                0.554981,
                0.632618,
                1.01006,
                -0.0895876,
                -0.0917356,
                -0.219661,
                0.800743,
                0.537743,
                0.558563,
                0.583675,
                -0.417543,
                0.23049,
                -0.0294548,
                0.0858054,
                0.168246,
                0.455245,
                0.231696,
                -0.160578,
                -0.474926,
                0.551926,
                0.0912974,
                -0.945436,
                -0.108803,
                0.501559,
                0.038163,
                -0.224586,
                -0.633547,
                0.440541,
                -0.592802,
                -0.136328,
                0.279939,
                0.582481,
                0.306291,
                0.144423,
                -0.123787,
                0.197603,
                0.0154272,
                0.411468,
                -0.00488723,
                0.295511,
                -0.767823,
                0.224486,
                -0.370962,
                -0.195635,
                0.832513,
                -0.0431539,
                -0.405389,
                -0.469888,
                -0.787972,
                0.6165,
                -0.0609594,
                -1.79437,
                -0.572466,
                -0.517148,
                -0.794996,
                0.589911,
                -0.347516,
                -1.01354,
                0.450816,
                -0.129606,
                -0.178751,
                1.30795,
                0.671448,
                -0.0347687,
                -0.0407594,
                -1.06683,
                -0.342839,
                -0.765455,
                0.24899,
                -1.81728,
                -0.475908,
                -0.309983,
                -0.197773,
                -0.650779,
                0.746364,
                0.264642,
                0.944256,
                -0.766944,
                -0.687106,
                0.470148,
                1.13382,
                0.165317,
                0.483937,
                0.111235,
                1.21048,
                -0.517713,
                -0.313879,
                0.071087,
                -1.17465,
                0.509794,
                0.682538,
                -0.808736,
                0.333568,
                -0.199008,
                -0.554072,
                -0.176779,
                -0.120345,
                -0.0704331,
                0.795061,
                -0.906772,
                0.178273,
                1.38726,
                -0.099406,
                0.884219,
                -0.243425,
                -0.442536,
                -0.323228,
                0.807604,
                -0.275147,
                0.524341,
                0.0504657,
                -0.958386,
                -0.491465,
                0.716912,
                -0.0224616,
                0.718941,
                -0.66443,
                0.979304,
                0.332408,
                2.20694,
                0.0151404,
                0.502306,
                0.820126,
                -0.189032,
                -0.428369,
                0.0718733,
                -0.693022,
                0.688709,
                0.758628,
                -1.05935,
                -0.84046,
                -0.506635,
                0.115007,
                -0.58713,
                -0.478612,
                0.143062,
                -0.34984,
                -0.184699,
                0.851434,
                -0.166854,
                -0.15132,
                -0.481978,
                0.211958,
                -0.465284,
                0.233992,
                -0.472724,
                0.232974,
                -0.0136403,
                0.781215,
                0.0420252,
                -0.0599781,
                0.11491,
                -0.124716,
                0.575085,
                -0.215534,
                -0.45965,
                -0.582006,
                -0.288995,
                -0.169112,
                0.611699,
                0.16076,
                0.0340341,
                0.347262,
                0.487592,
                -0.122505,
                -0.347396,
                -0.249349,
                -0.0041303,
                0.959975,
                0.650454,
                0.0982487,
                -0.339677,
                0.751555,
                -0.433395,
                -0.483207,
                -0.15442,
                0.226943,
                -0.448711,
                0.0471747,
                0.74074,
                -0.141335,
                0.0450944,
                -0.0755302,
                -0.060919,
                0.06064,
                -0.2543,
                0.0385789,
                -0.295134,
                -0.577953,
                0.362371,
                -0.183113,
                -1.62143,
                0.0360636,
                -1.42377,
                2.71617,
                -2.22421,
                -1.71228,
                -0.687649,
                1.53496,
                2.36067,
                -1.80436,
                -2.59116,
                -2.69465,
                1.91992,
                -2.00529,
                0.777209,
                -2.47309,
                -4.36261,
                -1.44647,
                0.600517,
                1.12936,
                3.51674,
                2.06907,
                2.22921,
                0.364217,
                -3.41947,
                -1.82091,
                -1.50974,
                3.78598,
                -2.47052,
                -0.984939,
                -1.59066,
                1.24788,
                -2.4668,
                0.804417,
                0.426084,
                4.16177,
                -3.19849,
                0.00575282,
                3.85636,
                3.22272,
                0.25171,
                0.951274,
                -1.8178,
                2.31904,
                -2.70325,
                -1.057,
                -1.75068,
                -3.5764,
                0.692272,
                0.491508,
                0.520478,
                -0.228814,
                -0.241589,
                -0.762052,
                0.498556,
                0.798678,
                0.0828233,
                -0.874181,
                -0.557546,
                0.786233,
                0.971321,
                0.315463,
                -0.79879,
                0.675249,
                -0.408772,
                0.223757,
                1.36842,
                0.00997263,
                0.296923,
                -0.559008,
                -1.31917,
                -0.544625,
                -0.727912,
                -0.542553,
                1.02728,
                0.654345,
                0.704758,
                -0.925741,
                1.22423,
                0.221421,
                0.925074,
                -0.226189,
                0.504464,
                -0.135881,
                -0.0216155,
                -1.54207,
                0.759611,
                0.324304,
                -1.48507,
                -1.3985,
                -0.345375,
                -0.809872,
                0.930483,
                -0.715103,
                1.15016,
                0.3968,
                0.443247,
                0.958134,
                0.0186603,
                0.187416,
                -0.0285359,
                0.283134,
                0.11417,
                0.0157094,
                -0.268902,
                0.325317,
                0.0587291,
                0.218927,
                0.157631,
                -0.200153,
                0.229043,
                0.222844,
                0.381605,
                -0.275745,
                0.198337,
                0.107382,
                -0.502202,
                -0.281632,
                0.10549,
                0.146919,
                0.147399,
                0.14125,
                0.227189,
                -0.204859,
                0.0920199,
                0.0242661,
                -0.379961,
                0.0187582,
                -0.0112166,
                0.184843,
                -0.584899,
                0.162837,
                -0.0272952,
                -0.30304,
                -0.310913,
                0.283679,
                -0.492466,
                -0.414425,
                0.444197,
                0.263995,
                0.264292,
                0.024941,
                -0.0642088,
                -0.0427741,
                -0.493559,
                -0.0705939,
                -0.0321517,
                -0.737386,
                -0.249574,
                -0.404534,
                0.0862908,
                -0.367245,
                0.208396,
                -0.081125,
                -0.10081,
                0.745172,
                -0.57489,
                -0.400212,
                -0.318155,
                0.126981,
                -0.287662,
                -0.227539,
                -0.303929,
                0.0202073,
                0.286087,
                0.249391,
                0.0199104,
                0.0695213,
                0.367434,
                -0.0586691,
                0.238537,
                -0.0131826,
                -0.268397,
                -0.640639,
                -0.015975,
                -0.0159184,
                0.120668,
                -0.42248,
                0.539816,
                -0.216294,
                0.333046,
                -0.195514,
                0.305799,
                0.360872,
                0.253448,
                -0.161893,
                -0.0585272,
                0.212619,
                -0.208324,
                -0.666431,
                0.0169067,
                -0.120977,
                -0.251667,
                0.0261726,
                -0.00630208,
                -0.0680836,
                -0.134265,
                0.166285,
                -0.182686,
                0.0177949,
                -0.920351,
                0.44004,
                0.494494,
                0.314257,
                -0.473716,
                -0.300491,
                0.546859,
                1.42225,
                -0.0544655,
                -0.360365,
                0.946655,
                0.490657,
                0.852184,
                0.14593,
                -0.523799,
                0.0758556,
                0.76665,
                -0.0932793,
                0.339901,
                -0.0300556,
                0.196525,
                0.295486,
                1.2717,
                0.36066,
                -0.196293,
                -0.270611,
                0.279827,
                1.19289,
                0.593585,
                -0.02689,
                -1.26597,
                1.22074,
                -0.425047,
                -0.395859,
                -0.310398,
                0.393017,
                -0.28518,
                -0.297305,
                0.715882,
                0.340749,
                0.169274,
                0.308423,
                -0.328226,
                -0.308272,
                0.00345668,
                0.104245,
                0.0867098,
                -0.594996,
                0.114739,
                -0.827681,
                0.149931,
                -0.284892,
                1.12485,
                0.159326,
                0.348931,
                0.18356,
                0.190082,
                -0.527781,
                -0.231211,
                -0.185347,
                -0.522603,
                0.732346,
                -0.517681,
                -0.0052373,
                0.467769,
                1.2548,
                0.65461,
                0.81052,
                -0.450843,
                -0.61001,
                0.768439,
                0.1436,
                -0.430333,
                0.285046,
                -0.552274,
                0.451591,
                -0.440012,
                -0.846483,
                -0.984111,
                0.12318,
                -0.703816,
                -0.419756,
                0.508762,
                0.369591,
                -0.00597354,
                -0.0386454,
                0.232041,
                -0.327594,
                -0.201032,
                0.553674,
                0.427715,
                0.660534,
                -0.146132,
                0.0894385,
                -0.0802258,
                -0.347793,
                0.297701,
                -0.186379,
                -0.161327,
                -0.249361,
                0.00167179,
                0.668319,
                0.805727,
                -0.655399,
                0.376374,
                -0.424644,
                0.195494,
                0.399822,
                -0.708702,
                0.217494,
                0.814301,
                1.13692,
                0.20111,
                -0.00116297,
                -0.040129,
                0.461063,
                0.644482,
                0.662083,
                -0.511935,
                -0.00100192,
                -0.710541,
                -0.512669,
                0.0760213,
                0.906503,
                0.520972,
                -0.0887468,
                0.0115137,
                -0.613779,
                0.583251,
                0.108894,
                -0.00369718,
                0.176414,
                0.147258,
                -0.250978,
                -0.112067,
                -0.760513,
                0.854611,
                -0.0263322,
                -1.02383,
                0.0717336,
                0.0552403,
                0.137406,
                0.134235,
                -0.338324,
                0.423863,
                -0.221446,
                0.661561,
                1.23733,
                0.0138394,
                0.0743719,
                -0.826051,
                0.394472,
                -0.183505,
                -0.113459,
                -0.991741,
                -0.96833,
                -0.804791,
                0.957858,
                -0.353664,
                0.00126821,
                0.184805,
                -0.14069,
                1.35922,
                -0.830993,
                0.0358418,
                -0.632549,
                -0.899104,
                -0.108494,
                0.681365,
                0.554454,
                -0.10791,
                0.226025,
                1.32069,
                0.504063,
                -0.340601,
                -0.915174,
                0.125482,
                1.08752,
                1.0326,
                -0.763391,
                0.172789,
                0.194443,
                -0.877865,
                0.190987,
                0.460969,
                0.0842464,
                -0.17974,
                0.407727,
                -0.0107947,
                0.739305,
                -0.290396,
                0.234684,
                -0.656636,
                0.844572,
                -1.04424,
                -0.718002,
                -0.526688,
                0.410606,
                0.177887,
                0.246954,
                -0.194485,
                -0.0869958,
                -0.168911,
                -0.352342,
                -0.34636,
                -0.703546,
                -0.492174,
                0.200929,
                0.237454,
                -0.0100812,
                -0.109983,
                0.302373,
                0.397508,
                -0.61957,
                -0.011087,
                -0.86572,
                0.100505,
                0.0673415,
                0.641391,
                0.23992,
                -0.861738,
                0.20757,
                0.775098,
                0.135169,
                -0.0301343,
                0.22484,
                0.296779,
                0.873404,
                0.221268,
                -0.429775,
                -0.413955,
                0.48215,
                -1.00951,
                -0.396866,
                -0.262292,
                -0.155394,
                -0.00213301,
                -0.801574,
                0.00691735,
                0.706598,
                -0.171574,
                0.0884899,
                0.112812,
                0.295557,
                0.11872,
                0.0459259,
                0.278558,
                -0.0814107,
                0.401797,
                0.55027,
                0.0730302,
                -0.0576891,
                0.590074,
                -0.732598,
                0.494947,
                -0.0759602,
                -0.746051,
                -0.191396,
                -0.0780103,
                -0.299223,
                -0.140044,
                0.498243,
                0.0272391,
                -0.357697,
                0.25733,
                0.290236,
                -0.206011,
                0.085924,
                -0.321363,
                0.270952,
                -0.133647,
                -0.366137,
                -0.154732,
                0.198127,
                -0.0212282,
                -0.265804,
                0.015208,
                -0.312106,
                0.0372197,
                -0.228246,
                0.295985,
                -0.811571,
                0.149,
                0.225248,
                0.381557,
                -0.542011,
                -0.0195655,
                0.18537,
                -0.549726,
                0.0130998,
                -0.265602,
                0.550834,
                -0.261742,
                0.309196,
                -0.156309,
                -0.42678,
                -0.172633,
                0.571443,
                -0.688009,
                0.443486,
                -0.669052,
                0.80759,
                0.4765,
                -0.62643,
                -0.199009,
                0.392638,
                -0.442959,
                0.0382216,
                -0.443761,
                -0.352906,
                0.746332,
                0.516244,
                0.414257,
                -0.414365,
                0.414638,
                0.695842,
                0.601621,
                0.297644,
                0.110286,
                0.323458,
                -0.374459,
                -0.360684,
                0.436578,
                0.468315,
                0.666119,
                -0.275828,
                0.103412,
                -0.683587,
                0.773324,
                -0.00135099,
                -0.254018,
                -0.754727,
                0.0973271,
                -0.235599,
                0.0247452,
                -0.944953,
                1.00552,
                -0.584338,
                -0.156769,
                -0.0454958,
                -0.377353,
                0.546549,
                -0.261629,
                0.298941,
                -0.962121,
                -0.522438,
                0.104709,
                0.0682587,
                -0.490183,
                -0.477771,
                -0.0556988,
                -0.331142,
                0.289749,
                -0.0920791,
                0.158548,
                0.149115,
                -0.0595956,
                0.0392289,
                0.225188,
                -0.431542,
                0.456668,
                0.067366,
                0.0131883,
                0.753913,
                -0.00556965,
                0.693709,
                0.125489,
                -0.264099,
                -0.3657,
                0.590402,
                0.126506,
                -0.226838,
                -0.358932,
                0.186927,
                -0.273918,
                0.260825,
                -0.385566,
                -0.569877,
                -0.310688,
                0.17981,
                0.274002,
                -0.524047,
                0.67976,
                0.0110001,
                0.0663454,
                0.203704,
                0.148852,
                0.509099,
                0.315501,
                -0.441359,
                0.0278778,
                -0.455546,
                -0.191652,
                -0.370068,
                0.246676,
                -0.0263433,
                -0.495219,
                0.849758,
                -0.740552,
                0.0629454,
                0.111024,
                0.782915,
                0.324871,
                -0.0973154,
                0.517565,
                -0.214194,
                0.55282,
                0.997987,
                -0.250489,
                0.388204,
                0.0776896,
                0.833416,
                0.197885,
                -0.143344,
                -0.439209,
                -0.745129,
                0.628276,
                0.309534,
                0.341277,
                -0.28524,
                -0.47872,
                -0.110008,
                -0.0686402,
                0.118124,
                0.618783,
                -0.0857357,
                0.420948,
                0.524413,
                0.00183658,
                -0.0868208,
                -0.768961,
                1.40575,
                -0.571518,
                -0.317764,
                -0.0329731,
                -0.422674,
                -0.0961945,
                -0.994856,
                -0.472302,
                0.384798,
                0.151045,
                0.715758,
                0.273225,
                0.151927,
                0.422858,
                -0.222602,
                0.507851,
                0.0909401,
                0.0863169,
                0.207844,
                0.420921,
                0.126078,
                0.676542,
                -0.16648,
                0.572478,
                -0.0579626,
                0.0911056,
                0.249028,
                0.44189,
                -0.213568,
                -0.0541932,
                0.625448,
                -0.355812,
                -0.0298712,
                -0.171914,
                0.0506468,
                -0.252285,
                0.185933,
                -0.355678,
                0.206632,
                -0.0167814,
                -0.223019,
                -0.192051,
                0.0602033,
                -0.0157061,
                0.566506,
                -0.422022,
                0.0267811,
                -0.453998,
                0.385098,
                -0.516236,
                -0.324701,
                -0.087083,
                -0.346117,
                -0.137901,
                -0.162057,
                0.131712,
                -0.251576,
                0.3335,
                0.435842,
                0.118757,
                0.306591,
                0.187994,
                -0.256624,
                0.136003,
                -0.0380377,
                0.099255,
                0.186468,
                0.0587157,
                -0.215147,
                0.267232,
                0.128613,
                -0.0868152,
                -0.378184,
                0.241377,
                -0.279094,
                0.16744,
                -0.110439,
                0.0232317,
                -0.251685,
                -0.0928551,
                0.235525,
                0.300268,
                -0.243095,
                0.0894088,
                -0.0953532,
                0.0113171,
                -0.0854002,
                -0.34221,
                0.103371,
                -0.26848,
                -0.05259,
                -0.0121616,
                0.165244,
                0.100652,
                -0.0968443,
                -0.234441,
                0.0213358,
                -0.219689,
                -0.0687233,
                0.0212099,
                -0.228966,
                -0.145148,
                0.125239,
                0.103472,
                -0.111874,
                -0.00381433,
                0.00742387,
                -0.156711,
                0.318213,
                0.0040306,
                0.122878,
                0.17998,
                -0.0654335,
                0.0107436,
                0.233272,
                0.0789132,
                0.132451,
                -0.140858,
                -0.0726934,
                -0.0421476,
                0.309757,
                0.146943,
                0.0190245,
                0.105948,
                -0.489082,
                0.0938216,
                0.00245988,
                0.529141,
                -0.34543,
                0.0564334,
                0.481371,
                0.442944,
                0.0718937,
                0.148946,
                -0.57235,
                0.0618925,
                -0.0375101,
                -0.0793207,
                0.0504541,
                -0.487298,
                0.22329,
                0.267212,
                0.400003,
                -0.09867,
                -0.0404346,
                -0.0519393,
                0.424539,
                -0.197009,
                -0.285207,
                -0.20601,
                0.387137,
                -0.511689,
                -0.32368,
                -0.139688,
                0.0171855,
                -0.317604,
                -0.359148,
                0.337504,
                0.339087,
                -0.0299308,
                0.148617,
                0.480683,
                0.333933,
                -0.000721418,
                0.244134,
                0.340342,
                -0.708328,
                0.180051,
                -0.0384894,
                -0.530438,
                0.159568,
                -0.226946,
                0.424408,
                -0.560067,
                -0.761481,
                -0.441558,
                0.471244,
                0.155478,
                -0.355246,
                -0.27833,
                -0.410051,
                0.87158,
                -0.877479,
                0.167771,
                -0.723348,
                -0.971031,
                -0.241402,
                0.316463,
                0.278742,
                0.542035,
                0.425197,
                0.994408,
                0.237406,
                -0.664521,
                -0.731843,
                -0.225507,
                1.0223,
                -0.214943,
                -0.448505,
                -0.320352,
                0.344899,
                -0.653266,
                0.293018,
                0.324954,
                0.689046,
                -0.612112,
                0.159946,
                0.564542,
                0.965174,
                -0.148655,
                0.396298,
                -0.700345,
                0.795668,
                -0.75581,
                -0.640599,
                -0.390214,
                -0.461338,
                0.102814,
                0.250253,
                0.0234773,
                -0.144248,
                -0.410585,
                0.28845,
                -0.119261,
                -0.493955,
                0.0298066,
                -0.289137,
                0.256387,
                -0.00975434,
                -0.294261,
                -0.201106,
                0.179761,
                -0.222341,
                0.144356,
                -0.330918,
                -0.0992445,
                -0.068149,
                0.209124,
                -0.0735052,
                0.137129,
                0.163108,
                0.341547,
                0.0898279,
                -0.202534,
                -0.193268,
                -0.192931,
                0.377539,
                -0.250081,
                -0.434445,
                0.0447699,
                0.117388,
                -0.479495,
                0.332701,
                0.146936,
                -0.0394984,
                -0.448916,
                -0.0404319,
                0.241589,
                0.539525,
                -0.118569,
                0.188392,
                0.140418,
                0.434106,
                -0.278037,
                -0.25403,
                0.128584,
                -0.602422,
                0.458664,
                -0.00427833,
                0.468344,
                0.0593842,
                0.415589,
                -0.6959,
                0.776752,
                0.422926,
                0.407931,
                -0.49373,
                -0.316163,
                0.344336,
                0.728467,
                0.70307,
                -0.554236,
                0.676808,
                -0.310528,
                0.702327,
                1.01848,
                0.25435,
                -0.360987,
                -0.275551,
                -0.931446,
                -0.488015,
                -0.527154,
                -0.0309508,
                0.794946,
                0.601443,
                0.323981,
                -1.08389,
                0.418461,
                0.30499,
                0.21862,
                -0.365471,
                0.670936,
                -0.274998,
                -0.283318,
                -0.908118,
                0.798725,
                0.0454989,
                -0.711497,
                -0.930209,
                -0.0168699,
                -0.275573,
                0.527224,
                -0.698005,
                0.628106,
                0.505056,
                0.453773,
                0.68549,
                -0.205387,
                -0.176284,
                0.209263,
                0.0647895,
                0.520968,
                0.0572827,
                0.329953,
                -0.369306,
                0.272866,
                -0.169033,
                0.195164,
                -0.096812,
                -0.357612,
                0.667248,
                -0.110486,
                -0.139795,
                0.265635,
                0.199224,
                0.156699,
                0.36951,
                -0.508507,
                -0.0396425,
                0.404337,
                0.0960977,
                -0.0487759,
                0.44416,
                -0.15816,
                0.0919027,
                -0.524258,
                0.0907155,
                -0.989431,
                0.0774783,
                -0.571523,
                0.0132725,
                -0.253125,
                -0.0726393,
                -0.160856,
                0.163398,
                -0.166563,
                -0.58696,
                0.246999,
                0.723719,
                0.310412,
                0.184719,
                0.358251,
                0.0815922,
                -0.0852284,
                -0.06287,
                0.371606,
                -0.249722,
                0.139409,
                -0.247406,
                -0.119787,
                -0.0465979,
                0.451305,
                -0.187253,
                0.0858501,
                -0.510912,
                0.0528809,
                -0.407822,
                -0.525194,
                -0.0846048,
                0.472316,
                0.510632,
                -0.0831345,
                0.0521533,
                0.224478,
                0.829399,
                0.705705,
                0.253639,
                -0.753275,
                -0.0132023,
                -0.449776,
                -0.174439,
                0.384499,
                0.370001,
                0.254267,
                -0.263375,
                -0.220067,
                -0.667793,
                0.0894441,
                0.0644811,
                0.192949,
                -0.268325,
                0.776447,
                0.240132,
                0.169671,
                -0.114955,
                0.905137,
                -0.013865,
                -0.530624,
                0.10306,
                -0.118412,
                -0.0642976,
                -0.265128,
                -0.00620546,
                -0.133891,
                -0.187798,
                0.396714,
                0.417935,
                -0.300233,
                -0.0778937,
                0.0395485,
                0.244079,
                0.398941,
                -0.385125,
                0.235479,
                0.548609,
                -0.0620199,
                0.349694,
                -0.269208,
                0.0289435,
                0.0541059,
                0.258914,
                0.0160526,
                -0.0693375,
                -0.00574722,
                0.535529,
                0.00233036,
                0.570646,
                -0.223922,
                0.0190376,
                0.43462,
                -0.0916013,
                -0.303156,
                0.208352,
                0.0384482,
                -0.108962,
                -0.188878,
                -0.294594,
                0.235135,
                0.240001,
                -0.0851881,
                -0.684739,
                0.517707,
                -0.278198,
                -0.0758469,
                -0.588764,
                0.223156,
                0.16378,
                -0.196585,
                -0.0470889,
                -0.00546317,
                0.603387,
                -0.401539,
                -0.0445844,
                -0.409145,
                -0.283524,
                -0.159847,
                0.455925,
                -0.363628,
                -0.15191,
                -0.384376,
                -0.360135,
                -0.883318,
                1.03922,
                -0.799908,
                -0.471538,
                -0.470283,
                -0.211539,
                1.12198,
                -0.627115,
                -1.47393,
                -1.60854,
                0.36684,
                -0.744008,
                0.396529,
                -1.16374,
                -1.75682,
                -0.669472,
                0.432801,
                0.138508,
                1.44911,
                0.821672,
                0.436805,
                -0.443009,
                -1.30403,
                -0.381368,
                -0.598766,
                1.39187,
                -1.18449,
                -0.541688,
                -0.289602,
                0.15629,
                -1.00881,
                0.379688,
                0.182138,
                1.61954,
                -1.46092,
                -0.0851851,
                1.50181,
                0.897176,
                -0.0813804,
                0.168249,
                -0.614626,
                1.09233,
                -0.797921,
                -0.269227,
                -0.818636,
                -1.71942,
                0.284337,
                0.428942,
                0.0249495,
                0.139926,
                0.350412,
                0.507138,
                0.163331,
                0.34459,
                0.620864,
                0.619167,
                -0.0797008,
                -0.0357854,
                0.196446,
                0.249367,
                -0.436314,
                0.264583,
                -0.186475,
                0.55159,
                -0.249714,
                0.556483,
                -0.142028,
                0.0624251,
                0.869436,
                0.300209,
                -0.264432,
                0.331167,
                -0.412146,
                0.091072,
                -0.830417,
                -0.428467,
                -0.40462,
                0.293477,
                -0.394269,
                -0.080467,
                0.11591,
                -0.4388,
                -0.119322,
                -0.0787658,
                -0.050084,
                -0.0223786,
                0.499329,
                0.56124,
                0.172739,
                0.233951,
                -0.143768,
                -0.332709,
                -0.043219,
                -0.186395,
                0.187787,
                0.203356,
                0.208843,
                -0.513565,
                -0.326313,
                0.191809,
                0.115553,
                0.677732,
                -0.381278,
                -0.531683,
                -0.351206,
                0.854383,
                0.897677,
                -0.755198,
                -1.04654,
                -0.317787,
                0.535367,
                -0.481596,
                0.213507,
                -0.416901,
                -1.86097,
                -0.242438,
                0.124546,
                0.507057,
                1.20268,
                0.535133,
                0.465709,
                0.254621,
                -1.02904,
                -0.197038,
                -0.903651,
                1.15136,
                -1.29693,
                -0.141193,
                -0.790335,
                0.054793,
                -0.642497,
                0.228284,
                0.048146,
                1.3389,
                -1.1408,
                -0.0117647,
                1.37072,
                1.12644,
                0.133266,
                0.364381,
                -0.739376,
                0.701455,
                -0.969383,
                -0.287325,
                -0.655581,
                -0.932082,
                0.0683659,
                -0.00530943,
                -0.321944,
                0.0739895,
                -0.217303,
                -0.296073,
                -0.366357,
                0.669118,
                -0.0908292,
                0.69794,
                -0.478441,
                0.195308,
                0.749943,
                -0.350971,
                0.233991,
                -0.0338305,
                -0.477772,
                -0.173707,
                -0.0644924,
                -0.353458,
                0.748575,
                0.217315,
                -0.381008,
                -0.17458,
                -0.0193476,
                -0.378429,
                0.276171,
                -0.154065,
                0.46768,
                0.135334,
                1.42099,
                0.0330347,
                0.543755,
                0.0882172,
                0.0997898,
                -0.21618,
                -0.0481416,
                -0.426278,
                0.0848316,
                0.592899,
                -0.242252,
                -0.845657,
                -0.242112,
                -0.289505,
                -0.134253,
                -0.339909,
                0.138868,
                0.0427917,
                -0.515517,
                0.656,
                -0.38285,
                -0.213819,
                -0.240826,
                -0.331659,
                -0.979131,
                0.441516,
                -0.454347,
                0.214678,
                -0.360014,
                -0.555271,
                -0.00625168,
                -0.0345136,
                -0.0428042,
                -0.926659,
                -0.0776146,
                0.618894,
                0.195042,
                -0.333408,
                0.480038,
                -0.742979,
                0.142159,
                -0.41922,
                -0.239806,
                0.241569,
                0.185991,
                -0.506364,
                0.25349,
                0.00778445,
                0.543578,
                0.01019,
                0.484298,
                -0.303546,
                0.547898,
                0.381862,
                0.42008,
                0.422372,
                0.26351,
                0.237345,
                -0.3697,
                -0.0806663,
                0.0155692,
                -0.533012,
                -0.223761,
                -0.533265,
                0.0299842,
                0.0813527,
                0.233874,
                0.168473,
                -0.281928,
                -0.687252,
                0.396666,
                0.0984478,
                -0.1099,
                0.600672,
                0.392511,
                -0.461248,
                0.319744,
                -0.223327,
                0.501906,
                1.10663,
                -0.482381,
                -0.10856,
                0.465464,
                0.925999,
                0.685442,
                0.0215609,
                -0.0844909,
                0.335754,
                0.211011,
                0.148267,
                -0.325152,
                0.534575,
                -0.413424,
                -0.187804,
                0.0863293,
                0.608288,
                0.431036,
                -0.255879,
                -0.414911,
                0.0573297,
                0.0787694,
                0.313748,
                -0.54827,
                -0.0622724,
                0.0726327,
                -0.429666,
                -0.210204,
                -0.216384,
                0.0344659,
                -0.100517,
                0.0363568,
                0.523532,
                0.0711128,
                0.521022,
                0.122246,
                -0.40047,
                0.0315423,
                0.152595,
                0.0841641,
                0.832293,
                -0.434498,
                -0.476651,
                0.306024,
                -0.021611,
                -0.225874,
                1.116,
                0.101194,
                -0.785793,
                0.287579,
                -0.46018,
                1.24379,
                -0.063261,
                -1.70454,
                -0.0587296,
                -0.473055,
                -0.508672,
                0.151338,
                -0.473526,
                -0.932917,
                0.352688,
                -0.602067,
                -0.120688,
                0.733839,
                0.795616,
                -0.428929,
                0.313924,
                -1.10405,
                0.151382,
                -0.817636,
                0.482039,
                -2.35332,
                -0.453873,
                -0.507662,
                0.031074,
                -0.651785,
                0.257772,
                -0.0171549,
                1.17798,
                -0.871126,
                -0.992123,
                0.566688,
                1.50064,
                0.236033,
                0.309258,
                0.851068,
                0.952456,
                -0.0301397,
                0.470139,
                0.464148,
                -1.02928,
                0.407647,
                0.61036,
                -0.605539,
                -0.0713969,
                -0.055346,
                0.238724,
                -0.38934,
                -0.281806,
                0.195057,
                0.58721,
                0.0459302,
                -0.36797,
                1.44426,
                -0.329444,
                0.547465,
                0.33797,
                -0.476651,
                -0.2226,
                0.937245,
                -0.879887,
                0.313,
                0.169351,
                -0.805634,
                -0.0241807,
                0.913348,
                0.0316034,
                0.423397,
                -0.281683,
                0.726409,
                0.105479,
                1.18997,
                0.483089,
                -0.223858,
                1.07045,
                0.401982,
                -0.513949,
                -0.062197,
                0.171527,
                0.451067,
                0.464361,
                0.378291,
                -0.485836,
                -0.180605,
                -0.406195,
                -0.274019,
                -0.542912,
                -0.390137,
                0.152724,
                -0.0819148,
                -0.241059,
                -0.0313723,
                -0.414897,
                -0.171123,
                -0.0140311,
                -0.163819,
                0.781893,
                -0.445933,
                -0.364768,
                -0.367749,
                0.316816,
                1.05949,
                -0.746282,
                -1.5938,
                -0.954543,
                0.325121,
                -0.742229,
                0.521847,
                -0.683029,
                -1.97853,
                -0.100195,
                0.0187552,
                0.438887,
                1.68679,
                0.904781,
                0.371813,
                0.0482346,
                -1.58685,
                -0.367456,
                -1.03012,
                1.16664,
                -1.59131,
                -0.350203,
                -0.643914,
                -0.0428327,
                -0.934591,
                0.423021,
                0.13705,
                1.50779,
                -1.42426,
                -0.165799,
                1.49186,
                1.3756,
                0.282988,
                0.599121,
                -0.661235,
                0.899481,
                -0.988671,
                -0.554119,
                -0.678694,
                -1.32731,
                0.000291159,
                0.486831,
                -1.22505,
                -0.00519575,
                -1.32433,
                1.6288,
                -1.53313,
                -1.30223,
                -0.801439,
                0.723836,
                1.41438,
                -0.97478,
                -1.79841,
                -2.00756,
                1.6141,
                -1.4346,
                0.593167,
                -1.9534,
                -2.97896,
                -1.07601,
                0.547297,
                0.7876,
                2.03615,
                1.27378,
                1.60503,
                0.0966505,
                -2.04054,
                -1.48094,
                -0.695677,
                2.6156,
                -1.28477,
                -0.992775,
                -0.636841,
                0.838528,
                -1.76846,
                0.671848,
                0.545483,
                2.62453,
                -2.05568,
                0.279045,
                2.27905,
                1.98312,
                -0.0844227,
                0.638772,
                -1.38101,
                1.64013,
                -1.82398,
                -0.936272,
                -1.41346,
                -2.37041,
                0.388007,
                0.594728,
                -0.837477,
                0.26972,
                -0.49557,
                0.809987,
                -1.18205,
                -0.813447,
                -0.242003,
                1.03587,
                0.472168,
                -0.596524,
                -0.175477,
                -0.725905,
                1.05467,
                -0.626618,
                0.0179786,
                -0.865634,
                -1.32745,
                -0.627071,
                0.45915,
                0.386058,
                0.746203,
                0.507304,
                1.25404,
                0.244853,
                -0.76404,
                -0.6758,
                -0.255981,
                1.60328,
                -0.174882,
                -0.450341,
                -0.447993,
                0.526662,
                -0.99064,
                0.186588,
                0.30454,
                1.26094,
                -0.939234,
                0.138086,
                1.24948,
                1.10165,
                -0.171569,
                0.149364,
                -0.688807,
                0.789803,
                -1.11192,
                -0.342491,
                -0.609066,
                -0.859847,
                0.352572,
                0.000726415,
                -1.17365,
                0.0266232,
                -0.689792,
                0.754138,
                -0.610919,
                -0.870406,
                0.291871,
                0.720878,
                -1.16537,
                -0.192086,
                0.583912,
                -0.443825,
                1.46934,
                0.197428,
                0.235494,
                -0.0178109,
                0.602277,
                -0.137803,
                -0.0979018,
                0.415156,
                0.42335,
                0.318378,
                1.15646,
                1.06669,
                -0.20538,
                -1.63191,
                0.0448992,
                0.460842,
                0.430379,
                -0.049073,
                -0.0991491,
                1.44436,
                0.407982,
                0.451448,
                -0.0296431,
                1.09823,
                -0.138274,
                0.791897,
                0.545481,
                0.65423,
                0.00131116,
                -0.125432,
                -1.00189,
                -0.110872,
                -0.38035,
                -0.311918,
                -0.279995,
                -0.421368,
                0.258926,
                -0.053261,
                0.0191381,
                0.0196382,
                0.0662531,
                -0.314136,
                -0.0194009,
                0.163714,
                -0.18971,
                0.171546,
                0.0918581,
                0.012004,
                0.0200223,
                0.0358451,
                0.14993,
                -0.30527,
                -0.149814,
                -0.490326,
                -0.0979696,
                -0.440279,
                0.396404,
                0.07058,
                -0.499747,
                -0.213434,
                -0.129086,
                -0.501085,
                0.173447,
                -0.0293583,
                0.573273,
                0.297238,
                0.368482,
                -0.0863588,
                -0.0949165,
                -0.00167138,
                -0.227004,
                0.0622445,
                -0.0286208,
                0.0761025,
                -0.292597,
                0.0943524,
                -0.528369,
                -0.652312,
                -0.103121,
                -0.036889,
                0.180971,
                -0.0594888,
                0.428001,
                0.173536,
                -0.269477,
                0.200395,
                -0.30889,
                0.274409,
                0.0482316,
                0.150246,
                0.360024,
                -0.643999,
                -0.0734295,
                -0.161208,
                -0.286008,
                0.549494,
                -0.375153,
                0.355071,
                0.193566,
                0.568234,
                0.218232,
                -0.237552,
                -0.122047,
                -0.289222,
                -0.204635,
                0.399771,
                -0.000210495,
                0.229098,
                -0.493459,
                -0.249574,
                0.297922,
                0.291296,
                0.0258229,
                -0.170052,
                0.211622,
                0.271692,
                0.701826,
                -0.339883,
                0.286475,
                -0.0528812,
                -0.091457,
                -0.0288391,
                0.229174,
                -0.508325,
                -0.169479,
                0.266332,
                -0.613985,
                -0.00644025,
                -0.0719745,
                -0.0127115,
                -0.0271759,
                0.0875686,
                0.209112,
                -0.10373,
                -0.19959,
                1.19461,
                -0.310118,
                0.258588,
                0.161384,
                -0.266633,
                0.460211,
                -0.450405,
                0.379871,
                0.233443,
                -0.273256,
                -0.741805,
                0.455116,
                -0.357075,
                -0.0943396,
                0.0507354,
                -0.0603093,
                0.206709,
                0.715898,
                0.583483,
                -0.332633,
                -0.076026,
                -0.415104,
                -0.134907,
                0.247039,
                0.115276,
                -0.391331,
                -0.0835025,
                -0.157809,
                0.44209,
                -0.0252052,
                -0.853083,
                -0.21147,
                0.136922,
                0.491555,
                -0.820037,
                0.206566,
                0.0361552,
                -0.263399,
                -0.0859866,
                -0.392685,
                0.059994,
                -0.314247,
                -0.363727,
                0.329385,
                -0.197415,
                -0.07172,
                -0.120927,
                -0.115169,
                0.0522579,
                -0.0652845,
                -0.316193,
                -0.244473,
                0.304851,
                -0.0820697,
                0.136677,
                -0.207518,
                0.368915,
                -0.162964,
                -0.257524,
                -0.121793,
                -0.0486607,
                0.432252,
                -0.252004,
                -0.897905,
                -0.319673,
                0.266004,
                -0.456688,
                0.500208,
                -0.551646,
                -0.571606,
                -0.185419,
                -0.0330776,
                0.179904,
                0.484286,
                0.350366,
                0.183393,
                0.266329,
                -0.646926,
                -0.131864,
                -0.338241,
                0.435521,
                -0.89811,
                -0.28765,
                -0.304531,
                0.010737,
                -0.451,
                0.323313,
                -0.0891233,
                0.443676,
                -0.596117,
                -0.24982,
                0.378222,
                0.452894,
                0.17035,
                0.270805,
                -0.0380535,
                0.505204,
                -0.393239,
                -0.170786,
                -0.197008,
                -0.708597,
                0.0403762,
                0.266112,
                -0.294649,
                -0.359256,
                -0.236537,
                0.559052,
                -0.326164,
                -0.215695,
                -0.742623,
                -0.856289,
                0.335441,
                -0.412538,
                -1.1314,
                -0.775775,
                0.234419,
                -0.615253,
                0.75995,
                -0.404604,
                -0.789113,
                -0.159242,
                -0.0422501,
                0.0278644,
                1.00622,
                0.408182,
                0.0553581,
                -0.322908,
                -0.643332,
                -0.64587,
                -0.204994,
                0.272307,
                -0.617298,
                -0.390338,
                -0.0492283,
                -0.0199093,
                -0.196884,
                0.828656,
                0.696809,
                0.952839,
                -0.674955,
                0.207808,
                0.375558,
                0.424494,
                -0.064235,
                0.381469,
                -0.585846,
                0.921792,
                -0.639463,
                -0.509313,
                -0.388434,
                -1.11007,
                -0.0150114,
                0.483068,
                0.894117,
                0.0226998,
                1.29995,
                -1.50683,
                1.41509,
                1.06536,
                0.677563,
                -1.01352,
                -1.41661,
                0.537908,
                1.54512,
                1.91881,
                -1.07938,
                1.4026,
                -0.0726988,
                2.26405,
                2.88744,
                0.82183,
                -0.985392,
                -0.586221,
                -1.88236,
                -1.06944,
                -1.32959,
                0.143365,
                1.94849,
                1.27885,
                0.52067,
                -2.66436,
                0.893901,
                0.927128,
                0.566548,
                -0.92254,
                2.07839,
                -0.597532,
                -0.351894,
                -2.15036,
                2.22284,
                -0.297704,
                -1.85071,
                -1.77552,
                0.180875,
                -0.43952,
                0.811484,
                -1.58096,
                1.08217,
                0.758527,
                1.37477,
                1.80443,
                -0.576744,
                -0.607385,
                0.171479,
                -0.437402,
                -0.441158,
                0.0463895,
                -0.0581212,
                -0.102285,
                0.571475,
                -0.593961,
                0.120292,
                0.298516,
                0.471755,
                -0.131731,
                -0.0405216,
                0.577315,
                0.173787,
                -0.143756,
                1.25072,
                -0.383379,
                -0.314021,
                -0.084878,
                -0.915905,
                -0.107743,
                0.111486,
                -0.0185734,
                0.221515,
                0.290937,
                0.665377,
                -0.329751,
                0.169222,
                -0.270619,
                0.763306,
                0.537043,
                0.16158,
                -0.0320276,
                -0.467436,
                -0.0610421,
                -0.048372,
                0.0130775,
                -0.320278,
                -0.55683,
                0.446374,
                -0.793349,
                0.348511,
                -0.493338,
                0.695554,
                0.319364,
                0.670745,
                -0.15052,
                -0.00901605,
                0.386468,
                -1.05997,
                0.863298,
                0.498037,
                0.163061,
                -0.953654,
                -0.56626,
                0.881341,
                2.10036,
                -1.02262,
                -0.150657,
                3.18107,
                1.46917,
                1.96184,
                0.61728,
                -1.51399,
                -0.221173,
                2.3516,
                -1.08005,
                0.991076,
                0.196998,
                -1.48704,
                -0.452252,
                2.10847,
                0.333049,
                1.23991,
                -1.31459,
                0.669718,
                1.95914,
                2.79835,
                0.363619,
                -1.81816,
                3.01528,
                -0.605975,
                -0.494125,
                -0.21693,
                -0.208831,
                0.99438,
                0.0879167,
                1.26681,
                -0.197127,
                -0.00332752,
                -0.652228,
                0.165879,
                -1.46584,
                0.620255,
                0.174166,
                -0.23551,
                0.199828,
                0.619018,
                -2.21124,
                0.813987,
                -0.120344,
                -0.472363,
                -0.352663,
                0.737719,
                0.768464,
                0.311401,
                -0.420178,
                0.335116,
                0.369044,
                -0.235433,
                0.174724,
                -0.548184,
                0.736165,
                -0.351626,
                -0.318615,
                0.549469,
                0.0611394,
                -0.0225475,
                0.0654979,
                -0.478626,
                -0.315562,
                -1.07781,
                -0.494056,
                0.23397,
                0.452442,
                0.120763,
                -0.0139375,
                0.10042,
                0.239054,
                0.322231,
                0.376617,
                -0.329526,
                -0.345709,
                -0.102363,
                -0.798691,
                -0.702568,
                -0.229449,
                0.106274,
                -0.589991,
                0.259389,
                -0.407862,
                0.897083,
                -0.467937,
                1.19593,
                0.362774,
                0.134946,
                0.116085,
                0.0809459,
                -0.00957785,
                -0.112127,
                0.171769,
                0.219976,
                0.653296,
                -0.00268003,
                -0.325091,
                0.510222,
                -0.147662,
                0.604984,
                -0.403919,
                -0.513607,
                0.552752,
                -0.0314177,
                0.339147,
                0.232886,
                0.0274653,
                0.101871,
                0.0238422,
                -0.180858,
                -0.226145,
                0.344655,
                0.540967,
                0.0513593,
                0.216873,
                -0.343731,
                0.196592,
                -0.519467,
                0.335929,
                -1.15388,
                0.0177561,
                -1.03561,
                0.260022,
                -0.118809,
                0.0327907,
                -0.208483,
                0.692109,
                -0.419635,
                -0.670677,
                0.66162,
                0.516691,
                0.337552,
                -0.0268422,
                0.457824,
                0.12022,
                -0.0662641,
                0.347365,
                0.206601,
                -0.938139,
                0.385492,
                -0.423116,
                0.138538,
                0.124119,
                -0.0682727,
                -0.268991,
                0.423763,
                0.393416,
                0.412204,
                0.170167,
                -0.0917351,
                -0.160191,
                0.64531,
                0.156172,
                -0.0765424,
                0.54263,
                -0.480832,
                0.02161,
                0.642806,
                -0.190382,
                0.0418741,
                0.00291614,
                -0.520697,
                -0.299923,
                -0.207697,
                -0.306115,
                0.601454,
                0.161118,
                0.458338,
                -0.0705444,
                0.708255,
                0.428715,
                0.0526543,
                0.251306,
                0.184403,
                -0.422266,
                -0.17761,
                -0.246003,
                0.229514,
                0.172183,
                -0.0408411,
                -0.833539,
                -0.0879287,
                -0.231866,
                0.0583743,
                -0.728155,
                0.569066,
                0.367235,
                -0.209631,
                0.303073,
                -0.392889,
                -0.294273,
                0.0709113,
                0.10761,
                -0.0283878,
                -0.102012,
                0.0863447,
                -0.0667717,
                0.157359,
                -0.126575,
                -0.385585,
                0.388431,
                0.5049,
                0.0904293,
                -0.261132,
                0.175502,
                -0.133833,
                -0.00194542,
                0.384038,
                0.00493903,
                -0.099233,
                -0.126591,
                -0.484768,
                -0.366036,
                0.0683122,
                0.11645,
                0.404054,
                0.0580063,
                0.16398,
                -0.390085,
                0.354529,
                -0.0205578,
                0.365103,
                0.00320908,
                0.0200555,
                -0.124713,
                0.039687,
                -0.422185,
                0.472706,
                -0.0531173,
                -0.498207,
                -0.160195,
                -0.0972622,
                -0.143885,
                0.20147,
                -0.158295,
                0.348983,
                0.0560325,
                0.123155,
                0.555847,
                0.119198,
                0.0890387,
                -1.04014,
                0.328745,
                -0.807734,
                0.311114,
                -1.38595,
                -1.27022,
                -0.662029,
                1.41456,
                -0.279434,
                0.0706484,
                0.522245,
                -0.813279,
                1.29704,
                -1.02707,
                -0.473054,
                -1.0882,
                -1.09647,
                -0.443203,
                0.920776,
                0.342976,
                0.12979,
                0.289897,
                1.74673,
                0.297501,
                -0.316926,
                -1.24206,
                0.149669,
                1.59809,
                1.11345,
                -0.79304,
                0.155717,
                0.722653,
                -1.2426,
                0.149759,
                0.583431,
                0.544145,
                -0.27277,
                0.595854,
                0.2766,
                1.17828,
                -0.733517,
                0.107093,
                -0.762816,
                0.908328,
                -1.1355,
                -0.719277,
                -0.565421,
                0.0161109,
                0.54009,
                0.0417887,
                0.0952381,
                -0.229393,
                -0.443497,
                0.143516,
                -0.139446,
                -0.36873,
                -0.266477,
                -0.0578495,
                0.289185,
                -0.182655,
                -0.112747,
                -0.50426,
                0.155436,
                -0.229703,
                -0.28531,
                -0.881037,
                -0.631113,
                -0.361934,
                0.422903,
                -0.174323,
                0.330527,
                0.145449,
                0.108598,
                -0.472003,
                -0.208922,
                -0.286681,
                0.000645047,
                0.80415,
                0.0429874,
                -0.356966,
                0.0611185,
                0.0385644,
                -0.774733,
                0.166976,
                0.434203,
                0.333436,
                -0.578446,
                0.41147,
                0.418115,
                0.149795,
                -0.260587,
                -0.218094,
                0.101,
                0.247834,
                0.278027,
                0.0354472,
                -0.615205,
                -0.158378,
                0.135142,
                0.0890157,
                0.40397,
                -0.188018,
                -0.470025,
                -0.218993,
                0.346939,
                0.124497,
                0.241627,
                0.0610556,
                -0.00225193,
                0.251294,
                0.127052,
                -0.0125693,
                -0.0232686,
                0.437509,
                -0.351929,
                -0.580751,
                0.803104,
                -0.553275,
                -0.105728,
                0.131529,
                -0.82216,
                -0.474071,
                -0.582144,
                -0.26098,
                0.000247973,
                -0.513997,
                0.419078,
                0.302085,
                0.52221,
                0.0107994,
                0.377062,
                0.708759,
                -0.270116,
                0.104447,
                0.15398,
                -0.457987,
                -0.488781,
                0.07875,
                0.140718,
                -0.572124,
                0.112244,
                -0.205999,
                0.764251,
                -0.368794,
                1.10677,
                0.00448814,
                -0.334677,
                0.597579,
                -0.208821,
                0.055757,
                1.11664,
                -0.442699,
                -0.361621,
                -0.25079,
                1.10228,
                0.578978,
                -0.180048,
                -1.09179,
                0.378628,
                0.257686,
                -1.8813,
                -0.590667,
                -1.14178,
                0.0752682,
                0.43801,
                -0.133925,
                -0.822347,
                0.725523,
                -0.410795,
                0.175753,
                0.425721,
                0.00106277,
                -1.72336,
                -0.276174,
                -0.38714,
                0.590847,
                -0.405715,
                -0.778035,
                -1.39757,
                0.0119124,
                0.940941,
                -0.831883,
                -0.0234255,
                -0.0217188,
                0.0154806,
                -0.228635,
                -0.442788,
                -0.347728,
                -0.468261,
                0.092633,
                0.228982,
                0.476388,
                0.137563,
                0.236588,
                0.47146,
                -0.0678186,
                0.120701,
                0.271215,
                -0.176859,
                1.12863,
                -0.203955,
                0.0749272,
                -0.355073,
                -0.232459,
                0.107632,
                0.182062,
                -0.354364,
                -0.144042,
                0.00180124,
                0.00370648,
                -0.234046,
                -0.737404,
                -0.202758,
                -0.536688,
                0.085989,
                -0.618486,
                -0.862834,
                -0.176795,
                0.32819,
                -0.0735865,
                0.000451711,
                -0.107913,
                -0.178012,
                -0.322164,
                -0.0282013,
                -0.149096,
                0.352497,
                0.0191451,
                0.0993483,
                -0.113559,
                0.515948,
                -0.485911,
                -0.362184,
                0.0226539,
                0.172158,
                -0.0293868,
                -0.191896,
                0.442579,
                -0.516422,
                -0.380108,
                -0.469983,
                0.236325,
                -0.0085614,
                0.358686,
                -0.264704,
                -0.128968,
                -0.513929,
                -0.0313229,
                -0.232577,
                0.396637,
                -0.261164,
                0.160499,
                -0.388429,
                0.499773,
                -0.446976,
                -0.306698,
                -0.235302,
                0.191584,
                0.517806,
                -0.18108,
                -0.336193,
                -0.535826,
                0.381698,
                -0.298639,
                -0.104772,
                -0.736576,
                -0.879358,
                -0.294621,
                0.125801,
                0.0667264,
                0.462606,
                0.194414,
                0.574662,
                -0.214759,
                -0.644529,
                -0.144987,
                -0.0692398,
                0.800409,
                -0.00519134,
                -0.323961,
                -0.131495,
                0.22814,
                -0.804874,
                -0.0894584,
                0.31311,
                0.521802,
                -0.825024,
                0.17983,
                0.564678,
                0.296302,
                -0.0605858,
                -0.0444809,
                -0.194315,
                0.541556,
                -0.432631,
                -0.0877147,
                -0.467928,
                -0.574632,
                0.229418,
                0.0102795,
                -0.162366,
                0.0151607,
                -0.825884,
                0.103071,
                -0.286478,
                -0.400885,
                0.0967846,
                -0.135536,
                0.295317,
                0.191406,
                0.174709,
                -0.770992,
                0.178391,
                -0.100301,
                -0.330893,
                -0.940382,
                0.433938,
                -0.565619,
                0.475515,
                -0.0878751,
                -0.970035,
                -0.173091,
                0.316714,
                -0.201695,
                0.172555,
                0.00749745,
                0.737292,
                0.537279,
                0.616091,
                -0.24824,
                0.643167,
                0.656136,
                -0.603457,
                -0.360065,
                -0.0142111,
                -0.149744,
                -0.137941,
                0.0552383,
                -0.29691,
                -0.502795,
                -0.523876,
                -0.684708,
                0.381476,
                -0.200005,
                0.435436,
                0.070476,
                0.111925,
                -0.226705,
                0.375223,
                0.401909,
                -0.418227,
                0.0752669,
                0.157875,
                0.89212,
                -0.0783891,
                -0.360864,
                0.723283,
                0.548297,
                -0.618453,
                -0.286555,
                0.445572,
                -0.088379,
                0.518264,
                0.332481,
                -0.207197,
                0.902601,
                0.386564,
                0.0742398,
                -0.43084,
                -0.0986142,
                1.13959,
                0.499538,
                0.731699,
                0.812484,
                0.219419,
                -0.826977,
                -0.920954,
                -0.16924,
                -0.536143,
                0.604207,
                -0.757355,
                1.07745,
                0.857264,
                0.358277,
                -0.0052919,
                0.983652,
                1.02773,
                0.163669,
                0.367484,
                1.12395,
                0.0345498,
                0.436089,
                -0.761164,
                -0.202833,
                -0.609157,
                -0.348933,
                -0.200003,
                -0.315963,
                0.464192,
                -0.734318,
                0.454459,
                -0.244084,
                -0.0422541,
                0.145829,
                0.412361,
                0.906664,
                0.473623,
                -0.219953,
                0.513544,
                0.254834,
                -0.134466,
                0.0379628,
                -0.637379,
                0.64626,
                -0.169983,
                0.382527,
                -0.142546,
                0.0385685,
                -0.160029,
                -0.280385,
                0.779633,
                0.155968,
                -0.956827,
                -0.0860564,
                -0.252238,
                0.510107,
                -0.341312,
                -0.79153,
                -0.605396,
                0.357538,
                -0.0118782,
                -0.447788,
                0.52352,
                -0.224684,
                -0.409872,
                0.10842,
                -0.863623,
                -0.104075,
                0.083252,
                -0.513141,
                0.766855,
                -0.125735,
                0.536499,
                -0.309524,
                0.555058,
                0.420164,
                0.0952948,
                -0.439812,
                -0.339144,
                -0.169923,
                1.54842,
                -0.509888,
                -0.67376,
                0.237904,
                1.24738,
                0.99656,
                0.838872,
                -1.74858,
                1.29101,
                -0.445199,
                -0.916414,
                -0.133275,
                -0.576253,
                1.60866,
                -0.134053,
                -0.48447,
                0.577993,
                -0.844004,
                -0.738326,
                0.248722,
                -0.514421,
                -0.047753,
                -1.96296,
                -0.857723,
                0.269846,
                0.639052,
                -0.410886,
                -0.130423,
                -1.65101,
                0.470045,
                0.0177259,
                0.346019,
                0.265748,
                -0.178257,
                -0.286997,
                0.283532,
                -0.834601,
                -0.44362,
                1.03312,
                -0.985613,
                0.565645,
                -0.694465,
                1.56897,
                -0.913459,
                1.61597,
                1.02551,
                -0.0322798,
                -1.10718,
                -0.0188738,
                0.0346445,
                -0.0812742,
                0.236896,
                0.643509,
                -0.486512,
                0.0041301,
                0.405825,
                0.104207,
                0.0922769,
                0.072855,
                -0.690477,
                0.701348,
                0.704777,
                0.89823,
                0.186287,
                0.352013,
                0.337637,
                0.145239,
                -0.265171,
                -0.17702,
                0.795915,
                -1.40523,
                -0.234221,
                -0.101676,
                0.16252,
                0.440526,
                0.313007,
                0.329699,
                -0.145517,
                0.369121,
                0.112836,
                0.318442,
                0.133256,
                0.383479,
                -0.906809,
                -0.45212,
                -0.0266564,
                0.40443,
                -0.0665407,
                0.204851,
                -0.591845,
                0.168334,
                -0.132163,
                -0.270656,
                -0.806784,
                -0.470397,
                0.247986,
                0.0802177,
                0.402921,
                -0.414852,
                -0.0709685,
                0.0915318,
                0.0960435,
                0.162983,
                0.117003,
                0.159828,
                -0.573747,
                -0.248357,
                0.305534,
                0.15317,
                -0.0974813,
                -0.829442,
                0.137795,
                0.208765,
                -0.587721,
                0.113047,
                -0.107688,
                -0.987644,
                0.390547,
                -0.251554,
                0.513546,
                0.896795,
                0.475731,
                -0.0463123,
                0.485831,
                -0.425427,
                -0.296827,
                -0.62405,
                0.261326,
                -1.02795,
                -0.197263,
                -0.237472,
                -0.0970448,
                -0.33759,
                0.13052,
                0.230157,
                0.449179,
                -0.40218,
                -0.271154,
                0.236655,
                1.24642,
                0.0144755,
                0.712526,
                -0.221819,
                0.549692,
                -0.246738,
                -0.118609,
                0.133661,
                -0.0162895,
                -0.163852,
                0.424492,
                -1.01147,
                -0.210593,
                -0.514931,
                0.373207,
                -0.577825,
                0.0289908,
                -0.0250081,
                -0.830693,
                -0.426023,
                0.318194,
                0.568085,
                -0.519194,
                0.0105653,
                -0.0696166,
                0.268686,
