{
    "layers": [
        {
            "name": "input_layer",
            "type": "input",
            "size": 50
        },
        {
            "name": "hidden_layer",
            "type": "blstm",
            "size": 100,
            "bias": 0
        },
        {
            "name": "output_layer",
            "type": "softmax",
            "size": 2,
            "bias": 0
        },
        {
            "name": "postoutput",
            "type": "multiclass_classification",
            "size": 2
        }
    ],
    "weights": {
        "hidden_layer": {
            "input": [
                0.0011573,
                0.461085,
                -0.175503,
                0.00805832,
                -0.655871,
                0.0176467,
                -0.332434,
                0.166208,
                -0.661555,
                -0.513016,
                0.173048,
                -0.118712,
                1.06883,
                -0.201911,
                -0.592869,
                -0.224849,
                -0.00850827,
                0.226353,
                0.13716,
                -0.0687509,
                0.0989231,
                -0.711464,
                -0.263735,
                0.407251,
                -0.346626,
                0.0459238,
                0.296088,
                0.10317,
                -0.119783,
                -0.165024,
                -0.465791,
                0.0858654,
                0.445673,
                0.343242,
                0.30683,
                -0.318818,
                -0.717575,
                0.12307,
                0.452701,
                0.500057,
                0.0273081,
                0.052225,
                -0.117899,
                0.387981,
                0.44644,
                -0.544759,
                0.0249983,
                -0.266772,
                -0.25749,
                0.528692,
                0.278173,
                0.14044,
                -0.382797,
                0.0821627,
                -0.0203151,
                0.0960385,
                -0.363211,
                0.852133,
                0.34803,
                0.138815,
                -0.350579,
                -0.524779,
                -0.439492,
                -0.358313,
                -0.335224,
                -0.03584,
                -0.184676,
                -0.156813,
                0.566648,
                -0.0726985,
                0.208742,
                -0.480813,
                -0.346325,
                0.299236,
                -0.303131,
                -0.126868,
                0.00267208,
                0.113643,
                -0.371206,
                -0.239574,
                0.219061,
                -0.099085,
                -0.276686,
                -0.344226,
                -0.0726026,
                -0.855144,
                0.0468626,
                0.205833,
                -0.291269,
                0.373627,
                -0.316112,
                -0.551108,
                1.00106,
                0.109134,
                -0.0330874,
                0.332997,
                -0.0751844,
                0.401201,
                0.784346,
                -0.703799,
                -1.33557,
                -1.54908,
                -0.866744,
                0.236294,
                -0.769738,
                0.843666,
                1.04803,
                -0.871311,
                0.191675,
                2.25644,
                -1.18559,
                0.249719,
                -0.160402,
                0.509638,
                -1.83435,
                -1.25931,
                2.45083,
                0.858695,
                0.0659466,
                1.58859,
                0.177404,
                -1.10774,
                1.79045,
                2.83911,
                0.638141,
                2.25582,
                -1.27365,
                0.560489,
                1.99921,
                -0.378038,
                1.8073,
                -1.82788,
                1.91516,
                -1.18424,
                -2.08427,
                1.37485,
                0.0403235,
                -0.297562,
                -1.12512,
                0.946537,
                -0.596982,
                0.356552,
                1.26035,
                0.893538,
                -1.16203,
                -0.00390049,
                0.956874,
                0.422013,
                -0.240751,
                -0.308135,
                -2.34358,
                -4.03398,
                2.14277,
                0.155064,
                0.192902,
                -0.0401611,
                1.42756,
                1.09318,
                -0.453584,
                -2.20946,
                -0.384616,
                1.19891,
                -1.1511,
                -4.293,
                -2.30437,
                -1.18537,
                3.24314,
                -1.35531,
                2.60464,
                -0.0727513,
                -1.06727,
                -2.24609,
                1.54429,
                -1.41915,
                -1.8754,
                -0.360374,
                0.86787,
                1.79901,
                -0.678678,
                -0.955483,
                -2.13603,
                0.573583,
                -0.0669556,
                1.23983,
                -4.46318,
                -0.0313667,
                0.850159,
                0.335261,
                3.0705,
                -1.23909,
                -2.10471,
                -0.156848,
                -0.535636,
                2.11377,
                -1.01796,
                1.88092,
                0.384341,
                -0.800962,
                0.714031,
                -1.98655,
                -0.0801916,
                -0.486249,
                0.0760732,
                -0.213772,
                -0.144644,
                0.352617,
                0.595284,
                -0.607017,
                0.0408369,
                -0.496218,
                0.265038,
                -0.0368582,
                0.231171,
                -0.610648,
                -1.01006,
                0.0538898,
                -0.0725029,
                0.108545,
                -0.0358138,
                0.833883,
                0.401242,
                0.161743,
                -0.111371,
                0.383226,
                0.309873,
                -0.442508,
                0.16815,
                0.195152,
                -0.393876,
                -0.622822,
                0.271329,
                0.666226,
                0.0272297,
                0.272135,
                -0.200558,
                0.57229,
                0.0369167,
                0.39724,
                -0.0888216,
                -0.0462917,
                -0.368077,
                -0.135763,
                -0.265426,
                0.999034,
                0.241601,
                -0.378998,
                0.266773,
                0.143465,
                -0.0220722,
                -0.0732603,
                -0.6485,
                -0.142551,
                -0.601327,
                1.45788,
                -1.26977,
                -0.0075675,
                -0.676387,
                0.187738,
                1.42266,
                -0.0988987,
                0.312922,
                -0.456579,
                -0.49772,
                0.253534,
                -0.0389922,
                0.11832,
                -0.313207,
                -0.226229,
                0.757641,
                -0.766565,
                -1.09881,
                -0.57519,
                0.624409,
                0.482232,
                -0.789709,
                -0.785661,
                -1.13162,
                -0.224121,
                1.33434,
                -1.50493,
                -0.340016,
                -0.0442773,
                1.03669,
                0.326839,
                0.475405,
                0.542664,
                1.10614,
                0.300363,
                -1.14077,
                -0.0968743,
                0.116741,
                -1.49687,
                -1.24612,
                -0.322698,
                0.864872,
                -0.515329,
                1.77999,
                -0.580799,
                -0.0618906,
                -0.184679,
                1.88201,
                -3.74787,
                -0.342227,
                -1.68038,
                -1.82041,
                0.187971,
                0.418148,
                1.93172,
                1.27186,
                -0.699713,
                2.78796,
                0.567301,
                -1.50201,
                -0.0371749,
                0.283996,
                0.74023,
                0.33037,
                -1.43076,
                2.59242,
                -1.92672,
                -1.45682,
                2.6521,
                1.88388,
                2.49151,
                -0.474336,
                1.46008,
                -2.56934,
                0.72785,
                1.68033,
                0.377821,
                -0.698621,
                -2.29231,
                -0.510431,
                0.785483,
                1.62331,
                -3.09275,
                2.87247,
                -0.667913,
                2.30088,
                -2.57678,
                -2.20276,
                -0.735573,
                -3.62288,
                3.18116,
                0.070176,
                1.12904,
                0.696098,
                0.873443,
                0.139272,
                0.752176,
                -0.367761,
                -0.194728,
                0.386283,
                -1.65648,
                0.474805,
                -1.76755,
                -1.24529,
                -2.09981,
                -0.719048,
                0.651569,
                -0.839238,
                -0.418413,
                1.49449,
                -0.435567,
                2.48899,
                -1.24703,
                -0.436207,
                0.47377,
                -0.663778,
                1.36429,
                -0.0953884,
                -0.447072,
                0.626289,
                -0.061717,
                0.827851,
                0.293035,
                -0.828732,
                -0.129065,
                0.29888,
                0.569713,
                -0.92639,
                1.92034,
                0.151654,
                -0.223663,
                1.82045,
                -0.586569,
                -1.06203,
                0.425663,
                0.602046,
                -0.252449,
                1.08379,
                -1.01378,
                1.14407,
                0.61888,
                -0.985464,
                0.771906,
                -0.438435,
                0.213707,
                -0.762957,
                0.254275,
                0.147507,
                0.473198,
                0.484332,
                0.430424,
                -0.640194,
                -0.48922,
                -0.829898,
                -0.698135,
                0.167677,
                0.247837,
                0.449597,
                0.0131377,
                -0.347364,
                0.64046,
                -0.493147,
                -0.363045,
                -0.486078,
                0.266773,
                0.0590419,
                0.625868,
                -0.22119,
                -0.239312,
                -0.419021,
                0.383433,
                -0.034516,
                0.177875,
                0.555355,
                0.0392013,
                0.609508,
                -0.581475,
                0.121071,
                0.193918,
                0.138611,
                0.336315,
                0.0111498,
                0.0269125,
                -0.0105672,
                -0.423328,
                -0.857549,
                0.028909,
                -0.309662,
                0.659354,
                -0.0896374,
                0.0859139,
                -0.0746063,
                -0.154444,
                -0.298148,
                0.891797,
                0.413119,
                0.601967,
                -0.342739,
                -1.02275,
                -0.469487,
                0.0370508,
                0.6514,
                0.198984,
                0.161015,
                1.10046,
                -0.458921,
                -0.00917607,
                0.232771,
                0.62766,
                -0.225158,
                -0.367053,
                -0.467477,
                -0.390965,
                1.04137,
                -0.247435,
                -0.469457,
                -0.177361,
                0.444484,
                -0.318427,
                -0.534495,
                -0.494137,
                -0.00662842,
                -0.687613,
                -0.193424,
                -0.479351,
                -0.66961,
                0.508509,
                -0.621761,
                0.205621,
                0.826212,
                -0.349526,
                0.928233,
                -0.991597,
                1.58345,
                0.19161,
                0.273795,
                0.165959,
                0.441361,
                -0.37661,
                0.683997,
                -0.910974,
                -0.811789,
                0.944029,
                1.33824,
                -0.666307,
                -0.295794,
                -0.900102,
                0.0542435,
                -1.08215,
                -0.519837,
                1.80522,
                2.77027,
                1.01687,
                -0.416663,
                2.34979,
                -0.79678,
                2.05209,
                0.0172319,
                1.08603,
                0.580387,
                -1.70628,
                0.138472,
                0.362462,
                0.115014,
                -0.747045,
                0.36737,
                -0.553638,
                1.59886,
                0.172935,
                -1.32593,
                -0.743672,
                0.238597,
                -0.707173,
                -0.360648,
                -0.0600686,
                -0.940614,
                -1.26077,
                -1.02969,
                0.66237,
                -0.899028,
                -0.439779,
                -0.206609,
                0.409064,
                0.331405,
                -0.308772,
                -1.048,
                0.761373,
                -1.39877,
                0.497321,
                1.62111,
                -0.792413,
                -0.401765,
                -0.365145,
                1.2508,
                -0.682937,
                -1.22964,
                -0.400976,
                1.22286,
                0.264631,
                3.15208,
                -2.29498,
                -0.29688,
                1.87709,
                1.88845,
                0.387817,
                2.57162,
                0.709336,
                -0.270796,
                1.80944,
                0.373558,
                0.532114,
                0.871844,
                0.782099,
                1.56523,
                1.49702,
                0.0662674,
                0.138041,
                1.30355,
                1.42098,
                -2.14081,
                1.61483,
                -1.33707,
                1.35668,
                0.726829,
                -1.10384,
                2.66844,
                -2.20024,
                -2.47876,
                1.51886,
                0.570854,
                1.96532,
                0.789025,
                -1.40637,
                -0.144235,
                0.513579,
                0.793994,
                -5.4877,
                2.36004,
                -0.466846,
                0.609649,
                0.02055,
                -0.393559,
                -0.149449,
                0.501015,
                1.28674,
                0.13522,
                0.843206,
                0.0961839,
                0.496491,
                0.394485,
                0.598074,
                0.585353,
                -1.95058,
                0.307902,
                -1.32324,
                -0.740317,
                -0.578488,
                1.36189,
                -0.177439,
                0.807397,
                0.109857,
                1.14354,
                -0.418798,
                1.03943,
                -0.661925,
                0.406805,
                1.02131,
                -0.952611,
                0.948661,
                -0.0675401,
                1.0406,
                0.0933601,
                -0.294934,
                1.29329,
                1.29072,
                0.428668,
                -0.152308,
                0.367978,
                -0.604205,
                0.912654,
                0.0534412,
                0.493148,
                1.23658,
                -0.402867,
                -0.879808,
                -0.425445,
                0.513651,
                -1.04029,
                0.371175,
                0.0662742,
                -0.0487448,
                0.0209123,
                -0.813688,
                -0.648823,
                1.25109,
                -0.940827,
                0.754656,
                -0.316063,
                0.243865,
                0.106003,
                1.22591,
                -0.23735,
                0.35363,
                -0.114482,
                -0.555009,
                0.0175118,
                0.685104,
                0.052491,
                0.456957,
                -0.289385,
                -0.229712,
                -0.466149,
                -0.352879,
                -0.107863,
                -1.09686,
                0.357235,
                0.169184,
                -0.678875,
                0.16394,
                0.29657,
                0.0219752,
                -0.259476,
                -0.926762,
                -0.260891,
                -1.3459,
                -0.496716,
                -0.281351,
                0.146948,
                -0.162879,
                0.72811,
                -0.680601,
                -0.0833763,
                -0.195453,
                0.310101,
                0.0489443,
                0.265349,
                0.0174701,
                0.715431,
                -0.396727,
                0.645091,
                -0.596079,
                -0.465349,
                0.409558,
                0.701067,
                -0.408605,
                0.366349,
                0.350216,
                -0.902881,
                1.54762,
                0.183632,
                -0.978648,
                0.528431,
                -0.559057,
                1.43759,
                -0.615903,
                -0.558027,
                -1.23648,
                -0.310228,
                0.0780893,
                1.2776,
                0.610507,
                -0.661334,
                -0.36259,
                0.124139,
                0.362951,
                -0.137521,
                -0.141481,
                -1.08563,
                0.923234,
                -1.29015,
                0.377246,
                -1.35356,
                1.91142,
                -2.12129,
                -0.888325,
                -0.486399,
                -0.526413,
                0.783303,
                -1.07904,
                1.09642,
                0.795328,
                -0.114923,
                0.390137,
                -1.62003,
                -1.6061,
                -1.5407,
                0.183799,
                -3.21544,
                -1.68381,
                1.51081,
                -0.0934907,
                -2.1346,
                -0.380929,
                -0.19627,
                -0.35262,
                1.04631,
                0.329271,
                -0.801305,
                0.267937,
                -0.177326,
                0.0101655,
                0.895646,
                0.407517,
                -0.498759,
                1.07513,
                0.0995579,
                -0.459929,
                1.18219,
                -0.416297,
                -0.921869,
                1.05886,
                1.07773,
                1.91746,
                0.978789,
                1.81731,
                1.47569,
                0.235105,
                0.210171,
                -0.0102293,
                -1.70798,
                -0.355135,
                -1.24271,
                1.90918,
                -0.784502,
                0.667942,
                -1.01883,
                1.33931,
                -0.178283,
                0.197062,
                1.19905,
                0.679657,
                -0.614008,
                0.500797,
                -0.552121,
                -0.296328,
                0.294184,
                -0.0184577,
                -0.992701,
                -0.0125412,
                -0.179308,
                0.0379883,
                -0.438906,
                0.636466,
                0.0729574,
                -0.787618,
                -0.671268,
                -0.322433,
                -0.194442,
                0.0158726,
                0.967993,
                0.0259233,
                0.373641,
                0.303842,
                -0.217939,
                0.494009,
                -0.173616,
                -0.694624,
                0.370615,
                0.233845,
                0.252942,
                0.408649,
                -0.639852,
                -0.234845,
                0.437113,
                -0.0344491,
                0.222689,
                -0.0808389,
                -0.1453,
                -0.819158,
                0.217872,
                0.19501,
                -0.274551,
                0.291118,
                -1.24177,
                0.206688,
                -0.760662,
                -0.119878,
                0.279944,
                0.339415,
                0.173662,
                0.18691,
                -0.361311,
                0.0306215,
                0.594486,
                -0.464579,
                0.282237,
                -0.5672,
                -0.353406,
                -0.42637,
                0.00250122,
                -0.51832,
                -0.804844,
                -0.11014,
                -0.478444,
                0.424326,
                0.146428,
                -0.216472,
                1.09604,
                0.101124,
                0.22613,
                0.441663,
                -0.575837,
                0.211541,
                -0.39919,
                0.257595,
                -0.172018,
                -0.119152,
                -0.709012,
                0.987141,
                -0.50163,
                0.0232075,
                0.599634,
                -0.130121,
                0.0587852,
                0.0506913,
                0.0642644,
                -0.0981061,
                -0.0767804,
                0.112347,
                -0.523384,
                0.527955,
                -0.680849,
                -0.197238,
                0.235666,
                0.00999833,
                0.0998581,
                0.0572007,
                -0.410332,
                0.230567,
                0.165248,
                -0.145862,
                -0.361378,
                -0.0425656,
                -0.171378,
                -0.43413,
                0.194288,
                -0.605379,
                -0.274591,
                0.247424,
                -0.125571,
                0.527305,
                0.194996,
                -0.531018,
                -0.270549,
                -0.610989,
                0.373717,
                0.383058,
                -0.306638,
                0.0274084,
                0.145736,
                -0.307316,
                -0.713475,
                0.361934,
                -0.521336,
                0.220819,
                -0.155974,
                0.414686,
                0.354912,
                -0.205045,
                -0.559773,
                0.2881,
                0.465684,
                0.861129,
                -0.233201,
                0.205417,
                0.489144,
                0.546378,
                0.309006,
                0.229768,
                0.194033,
                0.0855174,
                -0.455041,
                0.228147,
                0.0332187,
                -0.24436,
                0.244991,
                -0.425992,
                0.214912,
                -0.918886,
                0.215628,
                -0.203213,
                0.143683,
                -0.222566,
                0.147907,
                0.42096,
                -0.203433,
                -0.349277,
                -0.00582147,
                0.215431,
                -0.433172,
                -0.442919,
                -0.135607,
                0.584538,
                0.475414,
                -0.145547,
                0.0525974,
                -0.414851,
                0.0711235,
                0.0661997,
                0.0412247,
                -0.0676778,
                -0.081041,
                0.367167,
                0.2392,
                -0.417333,
                -0.1544,
                -0.00955949,
                0.207565,
                -0.246826,
                0.195331,
                -0.26333,
                -0.000959573,
                0.39697,
                -0.527767,
                0.138024,
                -0.0507972,
                -0.102931,
                0.158434,
                0.150833,
                -0.528239,
                0.432364,
                -0.211852,
                -0.20979,
                -0.0806264,
                0.210019,
                -0.00117135,
                -0.105939,
                -0.244067,
                -0.0484959,
                -0.395383,
                0.019609,
                -0.0897343,
                0.200192,
                -0.489364,
                -0.330592,
                -0.13863,
                0.330881,
                0.0626971,
                0.473433,
                -0.142825,
                -0.258057,
                0.282324,
                -0.0151682,
                -0.477457,
                0.268094,
                -0.0832019,
                -0.171517,
                -0.186149,
                -0.191766,
                -0.308392,
                -0.169363,
                -0.480275,
                -0.33718,
                -0.33047,
                0.131513,
                0.348738,
                -0.364659,
                -0.081452,
                0.0201201,
                -0.25376,
                0.0407412,
                -0.122411,
                -0.213721,
                -0.226554,
                0.30449,
                -0.198886,
                -0.11593,
                0.192886,
                -0.00548652,
                0.0641138,
                -0.480119,
                0.363349,
                0.173896,
                0.229888,
                -0.436925,
                0.106733,
                -0.452432,
                0.0639543,
                -0.499598,
                0.0534075,
                0.493244,
                -0.120136,
                -0.378462,
                0.0407642,
                -0.26297,
                0.331406,
                -0.0862786,
                -0.367128,
                0.152322,
                -0.133331,
                0.0364466,
                0.0161162,
                -0.0121898,
                0.415323,
                -0.0349315,
                0.458066,
                -0.318013,
                -0.661017,
                0.0928062,
                -0.54467,
                -0.486201,
                -0.232734,
                -0.174306,
                0.024918,
                -0.678277,
                0.280765,
                -0.202872,
                -0.18007,
                0.605305,
                0.694632,
                0.390422,
                0.889896,
                -0.300443,
                -1.0188,
                0.238545,
                0.366578,
                0.419252,
                -0.0357908,
                0.257857,
                0.0530864,
                -1.17566,
                -0.331973,
                0.579375,
                -0.046788,
                0.258617,
                0.0558078,
                -0.222643,
                0.719406,
                0.0665626,
                0.646713,
                -0.219384,
                0.187065,
                0.0730731,
                -1.08965,
                0.758898,
                -0.0766962,
                -0.317295,
                0.938306,
                0.618901,
                -0.0721518,
                0.596168,
                0.186337,
                -0.80548,
                -1.13427,
                0.128569,
                0.700957,
                0.509838,
                0.596007,
                -0.654295,
                0.0186461,
                0.293303,
                0.175269,
                0.283326,
                -0.148811,
                0.961991,
                -0.51004,
                0.587389,
                0.636372,
                -0.415725,
                -0.46893,
                0.8706,
                -0.279833,
                -0.0652599,
                -0.132933,
                -2.01678,
                1.0544,
                0.0428756,
                0.838771,
                0.342321,
                -1.17557,
                -0.025873,
                -0.653524,
                -0.554164,
                1.01935,
                0.513185,
                -1.45727,
                -0.893531,
                -0.489071,
                -0.418992,
                0.334498,
                -1.56164,
                0.130977,
                0.19403,
                1.5255,
                -0.719348,
                -0.624575,
                -0.111217,
                -0.317877,
                -0.11803,
                -0.993277,
                -1.18032,
                0.327829,
                -1.02175,
                0.516735,
                0.518057,
                0.0173802,
                0.904839,
                -0.424583,
                2.28684,
                0.750236,
                0.281393,
                -1.79478,
                -1.4255,
                0.566753,
                0.913613,
                1.61072,
                0.622744,
                -3.20225,
                -0.829204,
                0.0627571,
                0.578453,
                -0.235081,
                -1.55443,
                0.913055,
                -0.568742,
                -0.746662,
                2.57976,
                -0.393125,
                1.78329,
                1.80109,
                -2.14856,
                -0.851754,
                -1.16794,
                -0.281814,
                0.914197,
                -1.60858,
                0.854259,
                0.282902,
                -0.919423,
                -0.132635,
                0.135073,
                1.38164,
                -0.0456834,
                -0.841879,
                1.33754,
                0.737141,
                -0.422132,
                -0.384433,
                -0.930559,
                -1.35919,
                2.09309,
                0.609965,
                -1.28163,
                0.0890387,
                0.268567,
                -1.15084,
                -0.0983763,
                -0.138122,
                0.0593177,
                0.0243952,
                -0.0928061,
                -0.367933,
                -0.0331919,
                0.277698,
                -0.292551,
                -0.11032,
                -0.170141,
                0.339383,
                0.0640251,
                -0.301962,
                0.138685,
                0.202394,
                -0.131076,
                -0.506485,
                0.099494,
                0.183023,
                -0.142138,
                0.211549,
                -0.257949,
                -0.224944,
                -0.103255,
                0.0263457,
                0.133909,
                -0.0187987,
                0.0615869,
                -0.0354638,
                -0.152806,
                0.271902,
                -0.307581,
                -0.184846,
                0.145195,
                0.241429,
                -0.0393123,
                -0.278316,
                0.148599,
                0.241901,
                0.0940203,
                0.0987779,
                -0.0464911,
                0.353204,
                0.0221766,
                -0.0109328,
                -0.296137,
                -0.100343,
                0.243087,
                0.3407,
                0.183905,
                0.416962,
                -1.20838,
                2.00712,
                -3.26756,
                -0.439193,
                -0.108933,
                0.526399,
                -1.18968,
                -0.449668,
                0.352048,
                2.11283,
                0.676072,
                -0.195035,
                0.829802,
                1.31234,
                -1.02627,
                -3.11301,
                -0.445677,
                0.0982953,
                0.231813,
                1.40716,
                -1.29324,
                -0.278553,
                1.53638,
                -0.623418,
                0.724561,
                0.0213796,
                -1.41213,
                -0.464306,
                -0.303578,
                0.953017,
                0.294074,
                1.05889,
                2.45417,
                -1.46802,
                -0.734324,
                -0.0316408,
                -2.56438,
                -0.654788,
                -0.38453,
                -0.995181,
                0.783188,
                1.15728,
                -0.229202,
                -0.0310891,
                0.223891,
                -0.592533,
                1.40818,
                -1.52256,
                -1.95226,
                -0.0343686,
                -1.13224,
                0.0316951,
                -1.07703,
                -0.855076,
                2.58225,
                -0.168616,
                -0.511039,
                1.07611,
                1.18445,
                0.846301,
                -0.921392,
                -1.43537,
                1.3939,
                -0.691835,
                1.23048,
                -0.1079,
                0.467223,
                -0.147103,
                -0.896733,
                -0.766086,
                0.304731,
                0.043683,
                -0.797475,
                -0.241732,
                0.82797,
                -0.444917,
                -0.608347,
                0.536976,
                1.96441,
                -0.970329,
                -0.0760973,
                -0.632303,
                -2.18053,
                -1.04121,
                -0.173296,
                0.54587,
                -0.160308,
                -1.29906,
                0.24563,
                -0.283834,
                0.5703,
                -0.931774,
                -0.640193,
                0.286125,
                1.49454,
                1.23997,
                -2.36016,
                0.197148,
                0.601458,
                -0.038853,
                -0.188788,
                -0.58172,
                0.182027,
                0.641828,
                0.715481,
                -1.11814,
                1.2024,
                0.724435,
                -0.56426,
                -1.35192,
                0.251576,
                0.723581,
                -0.441923,
                -0.910273,
                -0.0504395,
                1.12496,
                -2.02203,
                -0.746813,
                0.0469502,
                0.324966,
                0.592652,
                1.90078,
                0.436882,
                -0.840624,
                -0.307652,
                -0.366962,
                -0.91972,
                0.770654,
                0.190059,
                0.456031,
                0.755096,
                0.512645,
                -0.374623,
                0.834103,
                -1.16418,
                1.29025,
                0.267822,
                -0.471567,
                0.421209,
                -0.680604,
                -0.866277,
                -0.31122,
                -0.810011,
                -0.3668,
                -0.546375,
                1.14454,
                -1.11285,
                -1.18219,
                -1.62771,
                -0.422065,
                -0.966831,
                -0.584413,
                -0.220918,
                0.665224,
                0.431366,
                0.361179,
                0.751453,
                0.224598,
                -0.649431,
                0.228495,
                1.56055,
                0.238998,
                -0.536479,
                0.163801,
                0.760428,
                0.660352,
                -0.530315,
                -0.472417,
                -0.0968771,
                -0.935616,
                -0.119378,
                0.251288,
                -1.54679,
                -0.605862,
                -0.694814,
                -1.45988,
                -0.290745,
                0.624504,
                -0.797723,
                -0.103038,
                -0.782676,
                1.4934,
                0.0684786,
                1.07223,
                -0.341105,
                1.4515,
                0.645952,
                -0.405324,
                1.00572,
                -1.68337,
                -0.332222,
                0.556799,
                -0.726329,
                0.0985277,
                0.928351,
                -0.0859609,
                -0.927817,
                0.0171739,
                0.244753,
                1.3229,
                -0.253088,
                0.53871,
                0.0990757,
                1.30759,
                0.288174,
                -0.211781,
                0.530616,
                -0.763291,
                0.197017,
                -0.449244,
                -0.171599,
                -0.314418,
                -0.688318,
                -0.356349,
                0.354607,
                1.40695,
                -0.313017,
                -0.614677,
                -0.795968,
                -0.514799,
                -0.483377,
                -0.165273,
                0.794096,
                0.184522,
                -1.37006,
                -0.181733,
                -0.237003,
                0.0962846,
                -0.404205,
                -1.11061,
                0.372033,
                -0.313269,
                -0.648934,
                0.337165,
                -0.145773,
                0.216703,
                -0.267845,
                -0.317293,
                -0.137502,
                -0.377137,
                -0.781159,
                0.46976,
                0.181562,
                -0.820063,
                1.4593,
                0.511528,
                0.564888,
                -0.644643,
                -0.21537,
                0.306708,
                -0.547182,
                -1.1236,
                0.768639,
                -0.155698,
                -0.561888,
                -0.679023,
                0.327136,
                -0.114256,
                -1.1445,
                -0.400108,
                0.384914,
                -0.0844686,
                -1.25396,
                -0.148939,
                0.191996,
                -0.199935,
                -0.0231288,
                0.219593,
                -0.724377,
                -0.613703,
                0.440545,
                0.409011,
                0.0186553,
                0.0961701,
                0.0536078,
                -0.996937,
                -0.602819,
                -0.193086,
                -0.990102,
                1.25172,
                0.135823,
                0.658148,
                0.913635,
                -0.141072,
                -0.799541,
                0.539995,
                -0.499242,
                -0.107799,
                0.47431,
                1.24103,
                -0.42693,
                0.183013,
                0.341223,
                -0.945065,
                0.0330758,
                -0.669729,
                0.465416,
                -0.508015,
                0.0941892,
                0.0364289,
                1.10896,
                -1.19484,
                0.318725,
                0.076849,
                0.144494,
                0.112687,
                -0.232347,
                -0.133378,
                0.32897,
                0.0183598,
                -0.162377,
                0.45443,
                0.41052,
                -0.346749,
                0.258207,
                0.0338695,
                -0.0783333,
                -0.084351,
                -0.125029,
                0.0719213,
                -0.318412,
                -0.18297,
                0.312328,
                -0.402704,
                0.276743,
                0.0208272,
                -0.0341708,
                0.0363219,
                0.0916001,
                0.698992,
                -0.147042,
                0.288659,
                0.000873197,
                -0.305891,
                -0.249547,
                -0.33874,
                -0.353487,
                0.123996,
                0.324318,
                -0.352657,
                0.46472,
                -0.69552,
                -0.153022,
                -0.0465371,
                0.0906723,
                -0.0970446,
                -0.0142932,
                -0.450937,
                -0.312128,
                0.993134,
                0.199538,
                -1.0494,
                0.835266,
                0.0983678,
                0.351005,
                0.595985,
                -1.20618,
                -0.910902,
                0.306677,
                1.47885,
                0.249355,
                1.12728,
                1.19627,
                -0.771074,
                -0.58502,
                -1.31931,
                0.483718,
                0.382703,
                -0.956922,
                -0.288129,
                -0.470688,
                0.469693,
                0.199877,
                1.70685,
                0.831462,
                0.733946,
                -0.178555,
                0.367653,
                1.34456,
                1.37851,
                -0.630244,
                -0.756277,
                -0.64158,
                -0.883758,
                -0.407315,
                0.573208,
                0.0690943,
                1.07517,
                2.30791,
                0.313185,
                2.24803,
                1.28166,
                1.91366,
                -1.15082,
                2.67259,
                -1.25761,
                1.4525,
                0.0651454,
                0.392304,
                -0.0800034,
                -2.07558,
                -0.188243,
                0.644377,
                -0.108333,
                0.680348,
                0.159915,
                0.0757721,
                0.479238,
                -0.801462,
                -2.17944,
                -1.09465,
                -1.12183,
                0.968239,
                0.42133,
                -0.883559,
                2.25891,
                -0.62211,
                1.39392,
                0.110673,
                -0.223973,
                -1.75402,
                0.774431,
                1.48622,
                1.16678,
                -0.479592,
                2.90707,
                -1.84448,
                0.518335,
                1.16069,
                0.939007,
                0.49481,
                -1.14008,
                0.187179,
                0.426591,
                -0.875808,
                0.522526,
                0.528651,
                1.1031,
                0.337345,
                0.527766,
                1.00197,
                -1.16778,
                -0.745501,
                -1.16328,
                -0.180088,
                0.800297,
                0.688776,
                -1.64989,
                -0.981911,
                0.134265,
                0.19223,
                -0.0984684,
                0.0384231,
                -0.536866,
                0.473026,
                -0.0575156,
                -0.227441,
                -0.486564,
                0.31754,
                0.316469,
                0.298419,
                -0.205072,
                0.00153846,
                -0.187628,
                -0.252757,
                0.693944,
                -0.249199,
                -0.6269,
                -0.0512831,
                -0.496987,
                0.146462,
                0.393195,
                0.150636,
                0.0382406,
                0.394488,
                0.114487,
                0.177165,
                -0.27602,
                -0.270207,
                0.328038,
                0.00810572,
                0.0716345,
                0.0938905,
                0.105191,
                0.644239,
                0.346025,
                -0.649831,
                0.0161102,
                0.220685,
                0.454774,
                -0.174931,
                0.14704,
                0.279924,
                -0.36648,
                -0.336608,
                0.397211,
                -0.0100498,
                0.285387,
                -0.737398,
                -0.200362,
                -1.14237,
                0.587592,
                -2.98117,
                -0.232567,
                0.464617,
                -0.961999,
                -1.0357,
                0.146542,
                -1.76481,
                1.24224,
                -2.30169,
                -0.406384,
                1.24927,
                -1.83223,
                -0.687199,
                0.199885,
                0.640701,
                0.503119,
                1.18932,
                0.137081,
                -1.41973,
                -1.40988,
                0.10063,
                1.85593,
                -0.756399,
                0.515981,
                2.59725,
                -1.90443,
                -0.993266,
                2.30865,
                -0.645342,
                1.36397,
                0.674952,
                0.669643,
                0.855029,
                -1.92948,
                0.394601,
                2.6235,
                0.515542,
                2.01121,
                -2.1546,
                -1.1563,
                1.58374,
                0.429768,
                -0.0724491,
                0.943806,
                -1.02592,
                1.42765,
                1.86082,
                0.000218174,
                0.665001,
                -0.671049,
                -0.497098,
                0.739861,
                1.13576,
                -0.327161,
                -1.05402,
                0.795963,
                0.866969,
                0.168108,
                0.169475,
                -0.985831,
                1.03954,
                1.28569,
                0.0118886,
                -0.655086,
                1.01412,
                0.68886,
                0.0718024,
                -0.252051,
                0.470105,
                0.458119,
                -0.667849,
                -0.242957,
                0.6258,
                0.0798922,
                0.613179,
                0.610148,
                -1.2996,
                0.426685,
                -0.0408212,
                -0.0342611,
                0.277433,
                0.667478,
                0.817477,
                -0.657901,
                1.19251,
                -0.0769453,
                -0.528594,
                -0.692148,
                -1.22858,
                -0.483845,
                -0.158589,
                0.837039,
                -0.415983,
                -1.08813,
                1.21752,
                1.73897,
                -1.74667,
                -0.0658328,
                0.0591101,
                -0.290614,
                0.305382,
                -0.0183109,
                0.0757781,
                -0.00775147,
                -0.162718,
                0.0234109,
                0.187761,
                0.0967923,
                0.0635522,
                0.152906,
                0.278971,
                0.092456,
                0.142163,
                -0.0162729,
                -0.0217102,
                0.11819,
                0.0684988,
                -0.00836928,
                0.23127,
                -0.203559,
                -0.151148,
                -0.192463,
                0.115822,
                0.268096,
                0.0874814,
                -0.0245791,
                0.0446686,
                -0.0171635,
                -0.178209,
                0.0484814,
                -0.0278166,
                -0.0731926,
                0.0683604,
                -0.115435,
                0.277511,
                -0.0561278,
                0.0933199,
                0.202418,
                0.0632597,
                0.103944,
                0.100516,
                0.0847764,
                -0.140838,
                -0.130819,
                -0.0361272,
                -0.0478167,
                0.0434976,
                0.800186,
                1.28354,
                0.704202,
                0.204118,
                0.604234,
                0.722678,
                2.16259,
                0.806866,
                0.175106,
                0.974019,
                1.6275,
                -0.500937,
                0.344268,
                -1.94302,
                0.653757,
                -0.297915,
                -1.74103,
                1.96329,
                2.18489,
                -0.922563,
                1.87118,
                0.0466317,
                -1.9338,
                1.50732,
                -1.51101,
                -0.910952,
                0.419226,
                1.76481,
                -0.534176,
                -0.286744,
                -1.23552,
                -0.528073,
                0.780183,
                0.0486228,
                1.17122,
                -1.04613,
                -0.356531,
                0.900552,
                -3.27647,
                2.55693,
                0.487536,
                -0.374907,
                3.06947,
                -1.94056,
                -1.36924,
                0.616491,
                -1.40729,
                -0.184203,
                -1.20425,
                -1.76872,
                0.0184049,
                0.0918552,
                -0.0710891,
                -0.691486,
                0.259593,
                -0.00350139,
                0.148692,
                0.123263,
                0.371913,
                0.720639,
                -0.373325,
                -0.16253,
                -0.470208,
                0.333173,
                -0.171993,
                -0.262059,
                0.0998321,
                0.333184,
                0.160335,
                -0.316962,
                -0.417684,
                -0.428274,
                -0.150244,
                -0.181943,
                0.428059,
                0.967927,
                0.085731,
                0.624344,
                -0.128358,
                -0.526534,
                0.0417346,
                0.0100737,
                0.365853,
                -0.251676,
                -0.424107,
                0.245093,
                0.220064,
                0.0903994,
                -0.33184,
                0.59949,
                0.269837,
                -0.270626,
                -0.0247189,
                0.413424,
                0.523179,
                -0.528859,
                -0.0731843,
                0.76166,
                -0.198989,
                0.55392,
                0.471383,
                0.51327,
                0.144743,
                0.340364,
                -0.0557414,
                -0.890129,
                -0.102712,
                1.32409,
                0.529884,
                -0.711901,
                -0.481845,
                -1.14168,
                -0.590704,
                -0.310906,
                -0.937269,
                -0.256155,
                0.640991,
                -0.498862,
                -1.01815,
                0.251263,
                -0.748789,
                0.364913,
                0.277225,
                -1.56559,
                -0.24258,
                -1.05808,
                -0.568119,
                0.688398,
                -0.555987,
                0.502886,
                -0.102219,
                0.562014,
                -0.368169,
                -0.378151,
                0.51575,
                -0.0511651,
                -0.965596,
                -0.00244117,
                0.781731,
                0.064709,
                -0.19894,
                0.852726,
                -0.470028,
                0.993865,
                0.344582,
                0.330243,
                0.0194485,
                -0.46118,
                -0.222317,
                -0.323675,
                0.6273,
                0.802014,
                -0.643425,
                -0.0338177,
                -0.484152,
                -0.695893,
                0.655235,
                -0.978497,
                0.546456,
                -0.71226,
                1.28964,
                -0.745555,
                0.156131,
                -0.247954,
                -0.0997794,
                1.09556,
                -0.44798,
                2.38394,
                1.01251,
                0.796161,
                -0.535141,
                1.09678,
                0.27333,
                0.878865,
                -0.415085,
                -0.235541,
                0.929177,
                1.8463,
                0.89551,
                0.0579357,
                0.324376,
                -1.36493,
                -0.427634,
                0.618176,
                0.812918,
                1.05717,
                -2.13988,
                -0.635138,
                0.35024,
                -0.284145,
                0.415742,
                1.09241,
                -0.494849,
                1.07265,
                1.59483,
                1.13427,
                -0.151441,
                1.12093,
                -0.854739,
                0.341401,
                0.488687,
                -0.187147,
                0.994781,
                -0.218598,
                -0.0147164,
                0.132472,
                -0.274366,
                0.373778,
                -0.0341805,
                -0.142712,
                0.218787,
                -0.612443,
                0.1278,
                0.413676,
                -0.520084,
                -0.163204,
                0.143953,
                0.127504,
                -0.485318,
                -0.0879027,
                -0.53767,
                -0.251906,
                0.144407,
                1.19196,
                0.101432,
                -0.334182,
                -0.175936,
                -0.0313984,
                0.188459,
                -0.404922,
                -0.281875,
                0.202414,
                -0.719706,
                0.114609,
                -0.0760223,
                -0.22012,
                0.631744,
                -0.944654,
                0.2617,
                -0.370737,
                -0.802764,
                -0.458026,
                -0.680398,
                -0.649373,
                -0.664784,
                0.0767428,
                0.590546,
                0.410611,
                -0.202536,
                -0.447916,
                1.86966,
                -0.98873,
                -0.565749,
                -0.0268321,
                -0.48583,
                0.332787,
                -0.781656,
                0.176311,
                0.975901,
                0.396625,
                -0.249855,
                -1.28388,
                -0.6558,
                -1.93546,
                -0.564682,
                -0.696056,
                2.09818,
                -0.137411,
                -0.2958,
                -0.0920273,
                -2.20339,
                1.3987,
                -1.26234,
                -1.17623,
                -0.369763,
                -0.602085,
                0.632985,
                -0.941191,
                1.19168,
                1.53985,
                0.635419,
                -0.550966,
                -1.06229,
                -1.73056,
                0.289988,
                -1.58511,
                0.621028,
                1.14245,
                1.10057,
                1.67685,
                1.35732,
                -0.819044,
                -0.575929,
                1.11881,
                0.602684,
                0.935982,
                1.0584,
                -0.81536,
                0.503514,
                0.335046,
                0.730568,
                -0.489875,
                0.0666834,
                0.44374,
                -0.462691,
                -0.373244,
                0.524061,
                -0.65581,
                -0.452316,
                0.240754,
                0.474935,
                0.561943,
                0.141985,
                0.440201,
                0.527175,
                -0.417807,
                -0.313767,
                1.38816,
                1.27188,
                0.712455,
                0.335631,
                0.232395,
                -0.959016,
                0.384758,
                -0.416701,
                -0.243182,
                -0.380314,
                0.313042,
                0.51684,
                -0.746301,
                0.517484,
                0.28237,
                -0.356015,
                -0.428118,
                -0.0774499,
                0.381797,
                -0.736782,
                0.587623,
                0.128048,
                -0.346781,
                0.449885,
                0.547696,
                0.859259,
                0.759348,
                -0.640599,
                0.830749,
                -0.431069,
                0.076918,
                -0.513158,
                0.548446,
                -1.10009,
                1.06923,
                -0.870277,
                1.50054,
                -0.558614,
                -1.59881,
                -0.822952,
                -2.09751,
                -0.258515,
                -1.1806,
                1.75023,
                -0.0652951,
                0.504351,
                -0.722747,
                0.120745,
                -0.0804658,
                -2.45751,
                1.09017,
                -0.291196,
                -0.186602,
                0.436532,
                -0.597855,
                -0.229495,
                0.698386,
                0.565446,
                1.0577,
                0.00848693,
                0.799716,
                -0.563208,
                -0.131394,
                0.692262,
                -0.647913,
                -0.191772,
                -0.206085,
                -1.53117,
                -0.537026,
                -0.293328,
                0.117618,
                0.585609,
                -0.00192778,
                0.187845,
                0.36692,
                0.144854,
                1.82371,
                2.10581,
                -1.34476,
                -1.40772,
                -0.235431,
                1.29572,
                0.584171,
                -0.0907437,
                -0.567767,
                -0.796461,
                -0.106521,
                0.308792,
                -0.0702522,
                -0.483781,
                0.383889,
                0.250369,
                0.512968,
                -0.164191,
                -0.00713433,
                -0.0254155,
                0.557258,
                0.226715,
                0.0844666,
                0.163921,
                -0.995734,
                -0.603714,
                0.874121,
                0.667817,
                0.0777436,
                -0.620719,
                0.306452,
                -0.2095,
                -0.205793,
                -0.499246,
                0.278905,
                -0.446936,
                -0.00619898,
                0.59773,
                0.18108,
                -0.378521,
                0.145052,
                -0.471834,
                -0.122055,
                0.515534,
                -0.741072,
                -0.155575,
                -0.477405,
                0.333604,
                -0.412668,
                -0.307349,
                0.18956,
                0.236359,
                0.148673,
                -0.0729878,
                -0.51368,
                -0.909713,
                0.639771,
                0.112012,
                -0.793172,
                -0.393468,
                0.704673,
                -0.085394,
                -0.0422761,
                0.0039993,
                0.332674,
                0.00387691,
                -0.56968,
                -0.871115,
                0.138997,
                -0.00720208,
                0.593067,
                -0.975617,
                -1.62115,
                -0.274686,
                0.279321,
                0.999335,
                -0.657193,
                -1.01597,
                1.65298,
                1.2146,
                -1.01437,
                0.268734,
                0.822586,
                -0.907201,
                0.206085,
                -1.28997,
                -0.368742,
                -0.280495,
                0.544293,
                0.506297,
                -0.874637,
                0.824506,
                -0.217625,
                1.12693,
                -1.48053,
                1.92484,
                -0.298604,
                -1.21741,
                -0.426378,
                -0.506275,
                0.295069,
                -0.111639,
                -0.543059,
                0.0821774,
                -1.07129,
                0.486518,
                0.870505,
                0.112122,
                -0.133172,
                0.122496,
                0.451948,
                0.00296666,
                -0.0126309,
                -0.785439,
                -0.389131,
                -0.166462,
                0.200721,
                0.272473,
                0.023696,
                -0.178177,
                -0.0350897,
                0.68991,
                0.178557,
                0.180717,
                -0.0386957,
                0.304126,
                0.436556,
                -0.365997,
                -0.107187,
                0.307996,
                0.367896,
                0.396447,
                0.23275,
                0.0117522,
                0.311145,
                -0.903538,
                -0.441781,
                -0.150994,
                -0.0822799,
                0.161833,
                0.474287,
                0.602368,
                0.141009,
                -0.926022,
                -0.194511,
                0.123072,
                0.605046,
                0.31309,
                -0.546923,
                -0.245424,
                -0.0457138,
                0.400189,
                0.742875,
                -0.19635,
                -0.358939,
                0.405243,
                0.0648182,
                0.310895,
                0.213588,
                0.17637,
                0.336485,
                0.0893976,
                0.199756,
                0.200534,
                -0.212621,
                0.442216,
                0.0986662,
                0.35779,
                0.958989,
                -0.564978,
                0.0150724,
                0.00112077,
                0.199309,
                0.296438,
                0.345374,
                0.0750576,
                0.0866504,
                0.0517452,
                -0.172192,
                -0.259504,
                -0.612747,
                0.490024,
                -0.458615,
                0.152382,
                -0.721503,
                -0.300584,
                -0.378305,
                -0.0531694,
                0.531012,
                0.0873054,
                0.158549,
                -0.345045,
                -0.659916,
                0.283297,
                -0.125636,
                -0.157437,
                0.327052,
                -0.0767169,
                0.393817,
                -0.289349,
                0.432813,
                -0.0263525,
                0.37304,
                0.0399617,
                0.054609,
                -0.586556,
                -0.0728314,
                1.26058,
                1.20133,
                0.223996,
                -1.41521,
                0.111946,
                -1.20935,
                -1.11503,
                0.0704653,
                0.263253,
                -0.296233,
                -0.367764,
                -1.30459,
                -0.631,
                -0.952846,
                -0.616203,
                0.211114,
                -0.77284,
                -0.353736,
                -1.03714,
                0.193766,
                0.1789,
                1.50795,
                -0.166961,
                0.266878,
                -0.29104,
                0.00484649,
                -0.906423,
                0.459837,
                0.330655,
                -0.320863,
                -0.645079,
                -0.172406,
                -1.19548,
                0.809503,
                2.20316,
                -0.290516,
                -0.637503,
                -1.32676,
                -0.884134,
                0.180376,
                -1.48897,
                1.98836,
                -1.08998,
                1.16593,
                0.0872875,
                -1.28545,
                2.50632,
                0.300378,
                -0.170076,
                0.190319,
                0.190573,
                -0.326714,
                -0.161928,
                0.109352,
                0.462629,
                -0.0232071,
                -0.20067,
                0.453484,
                -0.217523,
                0.257881,
                0.0294857,
                0.20048,
                0.123275,
                -0.448264,
                -0.157396,
                -0.140614,
                0.448462,
                -0.0227511,
                -0.35802,
                -0.14,
                0.0774304,
                -0.211582,
                -0.0358208,
                -0.262579,
                0.160013,
                -0.102665,
                0.0373057,
                -0.0317084,
                0.00839951,
                0.497935,
                -0.211617,
                0.165836,
                -0.0421999,
                -0.386464,
                -0.337466,
                -0.0771587,
                0.434937,
                -0.0808227,
                -0.308132,
                0.530645,
                -0.274936,
                -0.215891,
                0.0693556,
                -0.371317,
                -0.198347,
                0.124176,
                0.391311,
                -0.249876,
                -0.25768,
                -0.254525,
                0.69362,
                -0.492842,
                -0.0822492,
                -0.609186,
                0.314527,
                -0.860662,
                0.438467,
                0.012827,
                -0.304065,
                0.577601,
                -0.183012,
                0.168272,
                0.388103,
                -0.179952,
                -0.230771,
                -0.18216,
                0.975848,
                0.255392,
                0.186838,
                0.130278,
                0.0690141,
                -0.401105,
                -0.079852,
                1.28342,
                0.430543,
                0.083605,
                -0.106929,
                1.10998,
                -0.224933,
                -0.331914,
                -0.102035,
                0.290406,
                -0.257924,
                -0.130472,
                0.520635,
                -0.191927,
                0.500914,
                0.0528662,
                -0.509757,
                -0.561751,
                0.0279378,
                0.680997,
                -0.488678,
                0.113667,
                0.465926,
                -0.431938,
                -1.16298,
                0.571144,
                0.788056,
                0.137593,
                0.882719,
                -0.702901,
                -0.261046,
                -0.197957,
                0.180248,
                0.881249,
                0.0614843,
                1.12458,
                1.26274,
                -0.255576,
                -0.177333,
                0.447985,
                -0.756,
                0.34467,
                0.379845,
                0.277045,
                -1.13788,
                -0.412353,
                0.95657,
                -0.300406,
                -0.351443,
                1.82939,
                -0.112838,
                -1.70817,
                -0.287809,
                0.964315,
                0.13345,
                -1.16278,
                -0.731798,
                -1.26203,
                -0.276391,
                -0.169741,
                0.396469,
                1.18885,
                1.21434,
                -1.16909,
                0.742184,
                0.199258,
                1.16905,
                -0.779518,
                -0.663078,
                -0.441048,
                -1.14472,
                0.63727,
                0.263707,
                0.652625,
                1.52229,
                -0.401055,
                0.180744,
                0.150933,
                -0.0167364,
                -0.521405,
                0.60503,
                -0.252386,
                0.179243,
                0.292104,
                0.68159,
                -0.576848,
                0.364158,
                0.144606,
                0.309905,
                0.569846,
                -0.703966,
                -0.175433,
                -0.572485,
                -0.241432,
                0.581843,
                0.493343,
                -0.0829376,
                0.33031,
                0.0133479,
                0.0100743,
                0.346043,
                -0.691261,
                0.702411,
                -0.133469,
                0.125875,
                -0.288882,
                -0.580074,
                -0.783086,
                0.146727,
                0.508768,
                0.266659,
                0.0548594,
                -0.0722612,
                0.340843,
                0.621216,
                0.256095,
                -0.327299,
                0.429421,
                -0.0397091,
                -0.123594,
                -0.364347,
                0.716753,
                -0.272765,
                0.135191,
                0.328196,
                0.322755,
                -0.0794853,
                -0.321103,
                0.217527,
                -0.0126099,
                -0.0757227,
                0.487181,
                -1.13166,
                0.287809,
                0.436558,
                -0.472272,
                -0.202333,
                -0.0623178,
                0.658586,
                -0.191827,
                -0.581211,
                -0.1081,
                0.144538,
                -0.709708,
                -0.46306,
                -0.230371,
                0.0818695,
                -0.227106,
                0.220088,
                -0.520344,
                0.6401,
                -0.119801,
                0.265172,
                -0.373225,
                -0.541297,
                0.266201,
                1.03586,
                -0.226107,
                0.124293,
                -0.239042,
                -0.306774,
                -0.105901,
                0.264317,
                0.252706,
                0.242529,
                -0.0529886,
                -0.142314,
                0.768887,
                0.43601,
                -0.576678,
                -0.284617,
                -0.42469,
                0.216904,
                0.587216,
                0.423998,
                -0.475245,
                -0.499641,
                0.470331,
                0.415522,
                1.07564,
                1.26817,
                -0.537389,
                -0.542872,
                -1.18648,
                -1.91002,
                0.279549,
                1.79975,
                0.848828,
                0.775446,
                -0.0191922,
                0.667716,
                -0.333652,
                0.65299,
                -0.404871,
                -0.328093,
                -1.33714,
                0.0129127,
                1.39778,
                -0.213918,
                -0.689242,
                -0.167919,
                0.669026,
                -0.332153,
                -0.574629,
                1.84035,
                0.343067,
                -0.127364,
                -0.484955,
                -0.709023,
                0.961974,
                0.333079,
                0.473367,
                0.573382,
                -0.162176,
                1.61885,
                -0.661519,
                -0.0166003,
                -0.290018,
                0.315804,
                -1.14345,
                0.471529,
                0.0365623,
                0.52524,
                0.0758758,
                -0.735134,
                -0.440128,
                0.749842,
                0.406528,
                -2.10307,
                0.992977,
                0.0933858,
                1.77709,
                0.331286,
                1.21425,
                -0.905564,
                -1.05912,
                0.734138,
                1.98109,
                -1.48556,
                0.869868,
                0.705706,
                1.82209,
                -0.888823,
                0.716262,
                0.689125,
                -0.2836,
                1.95231,
                0.449958,
                0.194166,
                0.11682,
                0.397456,
                -1.38506,
                -2.16886,
                -1.05624,
                -0.352424,
                1.92987,
                -0.507728,
                1.12313,
                -0.618469,
                1.02614,
                -0.0344387,
                -0.0926067,
                -0.0129686,
                1.76501,
                0.897497,
                1.27747,
                -0.832761,
                -0.611895,
                -0.0643267,
                0.663407,
                1.16224,
                -0.773162,
                0.496845,
                -0.953168,
                -1.03795,
                -0.0632073,
                -0.749548,
                -0.495168,
                -1.14935,
                2.00295,
                0.939657,
                0.165362,
                -0.0845896,
                1.6547,
                1.39126,
                -0.991224,
                -2.70416,
                2.25385,
                0.438507,
                0.847396,
                -1.25802,
                1.97236,
                1.36287,
                -1.08978,
                0.991405,
                -0.801162,
                -1.43924,
                0.649593,
                0.836671,
                -0.331708,
                2.16852,
                -1.18389,
                0.872448,
                1.6954,
                1.20703,
                -0.454184,
                -1.93504,
                -0.715539,
                -2.48712,
                0.293344,
                0.613949,
                0.117647,
                0.322805,
                -0.335493,
                -1.70642,
                -1.14986,
                -0.614277,
                -2.77508,
                -1.24591,
                0.580342,
                0.919247,
                -2.65483,
                -0.364807,
                0.82852,
                -1.36412,
                0.89022,
                -0.679595,
                0.951577,
                0.904674,
                -1.80199,
                -0.447239,
                0.252011,
                0.826019,
                0.165328,
                -1.00728,
                1.55722,
                -0.788007,
                -0.755185,
                0.0900823,
                0.778129,
                -0.311522,
                -0.468219,
                -0.766072,
                -1.40544,
                2.01935,
                -1.02442,
                -1.11698,
                -0.596151,
                0.569146,
                -1.17106,
                -0.0860192,
                -1.3943,
                -0.116426,
                -1.32216,
                -0.928812,
                -1.6425,
                -1.84114,
                1.93237,
                -1.41477,
                0.765786,
                0.308148,
                -1.51995,
                -1.38751,
                -0.358359,
                2.10205,
                0.0613783,
                0.0390399,
                1.39665,
                0.492464,
                -0.340875,
                1.01925,
                -1.39294,
                -1.89139,
                2.54521,
                2.12124,
                -0.311259,
                -0.0485819,
                -0.662099,
                -0.715873,
                0.671839,
                0.063321,
                -0.525795,
                -0.616896,
                0.693354,
                -0.369987,
                -0.998252,
                0.567104,
                -0.0335744,
                0.14484,
                -0.631112,
                -0.331694,
                0.550561,
                0.596429,
                1.25913,
                -0.373449,
                0.634821,
                0.549944,
                0.204054,
                -0.0700472,
                0.736891,
                0.487224,
                0.370247,
                -0.365965,
                0.205252,
                -0.303888,
                0.640321,
                0.811536,
                0.10794,
                -0.0375966,
                -1.04007,
                0.0656024,
                0.961697,
                -0.13375,
                0.210812,
                -1.33587,
                0.209952,
                0.468932,
                -0.358925,
                0.200523,
                1.21671,
                0.007849,
                1.49592,
                0.937158,
                -0.345818,
                -0.306344,
                0.907226,
                -0.00215991,
                0.800175,
                0.171492,
                2.85913,
                -3.61918,
                -1.55156,
                -0.83688,
                0.412491,
                2.53092,
                0.379643,
                -0.363452,
                -0.104093,
                2.53765,
                -1.04176,
                2.78578,
                0.753292,
                1.4664,
                -1.11629,
                0.230832,
                1.26408,
                -0.517147,
                0.790933,
                0.964579,
                1.52882,
                0.927966,
                0.673916,
                -1.32199,
                -0.500498,
                -0.195304,
                2.11451,
                -1.92986,
                -1.65611,
                0.525963,
                1.69359,
                -0.552234,
                3.14349,
                -1.48144,
                -1.35841,
                0.0476064,
                1.11316,
                0.180086,
                0.317497,
                -1.75674,
                1.99282,
                -0.168007,
                1.36612,
                0.65269,
                -2.19847,
                0.127783,
                2.00081,
                -0.870584,
                -1.3221,
                0.275698,
                0.672819,
                -0.0956804,
                0.47315,
                -0.382194,
                0.327384,
                -0.37622,
                -0.251408,
                -0.354762,
                0.515416,
                -0.117464,
                0.444487,
                -0.44699,
                0.0496464,
                -0.0630084,
                0.217823,
                0.67775,
                -0.124876,
                -0.554883,
                -0.292838,
                -0.417664,
                -0.0605094,
                0.13834,
                0.270935,
                -0.521865,
                0.331262,
                -0.107975,
                -0.192066,
                -0.281484,
                -0.45647,
                0.316627,
                -0.186623,
                0.325419,
                -0.0618524,
                -0.0238901,
                -0.20739,
                -0.457811,
                -0.673863,
                0.481755,
                0.846254,
                0.58859,
                0.022174,
                0.0451999,
                -0.22826,
                -0.426367,
                -0.297246,
                0.285387,
                -0.516946,
                -0.0569928,
                -0.461691,
                0.782505,
                1.62955,
                0.956337,
                -2.50876,
                0.669669,
                0.171065,
                0.274195,
                0.503462,
                -0.569247,
                -0.906101,
                -1.39277,
                0.458961,
                -0.0680714,
                0.168347,
                -0.768455,
                -0.786765,
                1.1507,
                -1.61868,
                1.32305,
                0.203681,
                0.112305,
                -0.722139,
                0.984073,
                -0.527664,
                1.21629,
                0.933185,
                -1.81569,
                1.50395,
                0.90647,
                -2.1369,
                0.808194,
                -1.34105,
                -0.987137,
                -0.536019,
                -0.875257,
                -0.81175,
                -0.580863,
                -0.00856519,
                0.702563,
                0.152761,
                -2.07335,
                -1.11717,
                -1.62491,
                -0.314885,
                0.166721,
                1.24663,
                -0.816293,
                -0.578073,
                1.10115,
                -1.26227,
                -0.0258531,
                0.130677,
                -0.123142,
                0.090814,
                -0.0633901,
                0.492751,
                -0.0831656,
                1.51832,
                -0.338516,
                0.369987,
                -0.470398,
                0.100176,
                -0.193347,
                -0.180473,
                -0.126609,
                0.265601,
                1.04916,
                -0.364462,
                -0.186036,
                -0.498494,
                0.640758,
                -0.893199,
                -0.223438,
                -0.00633514,
                0.374574,
                -0.601312,
                -0.128257,
                -0.192273,
                -0.262715,
                0.188468,
                0.171794,
                -0.270875,
                0.359012,
                0.0135187,
                -0.143983,
                -0.221226,
                0.264356,
                -0.347059,
                -0.0986428,
                0.270508,
                -0.182641,
                0.406585,
                -0.188674,
                -0.329332,
                -0.900042,
                0.685806,
                0.241638,
                0.203956,
                -0.275111,
                -0.806318,
                -1.34748,
                -0.951541,
                -0.323017,
                0.113759,
                -2.00272,
                0.0816395,
                -1.25873,
                -0.482597,
                0.438525,
                -0.764776,
                0.779447,
                0.00683714,
                0.0135446,
                -0.592864,
                0.503748,
                -1.53524,
                -1.5024,
                0.592068,
                1.07507,
                -0.608407,
                1.31391,
                0.837017,
                0.603489,
                -0.621466,
                0.250247,
                2.28702,
                -0.239765,
                -0.667514,
                0.00711872,
                -1.31136,
                1.75803,
                -0.356225,
                0.687618,
                -0.141668,
                -0.737064,
                -0.504284,
                0.809244,
                0.766063,
                1.3659,
                -1.28928,
                1.17524,
                -0.816808,
                -2.25021,
                -1.20039,
                0.100919,
                -1.10352,
                0.649833,
                -0.0739444,
                2.63673,
                -1.2072,
                0.0284445,
                0.216365,
                -0.0861269,
                -0.338399,
                -0.197785,
                0.088377,
                0.404072,
                -0.393455,
                -3.09209e-005,
                0.0565715,
                0.434847,
                -0.480228,
                -0.154807,
                0.152107,
                -0.118726,
                0.326349,
                -0.402973,
                0.342818,
                0.401804,
                0.165717,
                0.0601281,
                -0.00325785,
                -0.142108,
                0.542006,
                0.0551408,
                0.495786,
                0.331386,
                0.567901,
                0.0158722,
                -0.394129,
                0.387282,
                -0.437083,
                -0.0445427,
                0.0959123,
                0.212832,
                0.186581,
                -0.237489,
                0.0912254,
                0.409008,
                0.0127575,
                -0.0511413,
                -0.212074,
                0.245327,
                0.6102,
                0.502055,
                -0.21167,
                -0.124225,
                0.211757,
                0.624204,
                -0.432775,
                0.239606,
                0.766334,
                -0.538261,
                -0.187006,
                -0.871019,
                -0.179422,
                -0.179305,
                -0.559632,
                0.332871,
                -0.241037,
                -0.231158,
                -0.159294,
                -0.455799,
                0.913322,
                0.180579,
                -0.60341,
                -1.13225,
                0.119059,
                0.225596,
                0.810871,
                -0.0852473,
                0.71061,
                0.781055,
                0.173733,
                -0.241014,
                0.576072,
                0.557299,
                0.0134976,
                0.264835,
                -0.593764,
                1.32067,
                -0.316925,
                0.149409,
                0.223831,
                0.706287,
                0.355045,
                -0.343461,
                1.08102,
                0.654018,
                -0.611875,
                -0.354021,
                0.87612,
                -0.898027,
                0.506194,
                0.698244,
                -0.594458,
                -0.419543,
                0.31486,
                0.375337,
                0.532239,
                -0.339935,
                -0.555322,
                0.795977,
                0.185777,
                -0.09238,
                -0.095669,
                -0.462272,
                -0.615256,
                -0.386917,
                -0.225385,
                0.235575,
                -0.277663,
                0.139807,
                -0.254671,
                0.266888,
                0.0728946,
                0.131069,
                -0.250755,
                0.133107,
                0.402298,
                0.056622,
                0.180379,
                0.515206,
                0.0928384,
                0.0366249,
                -0.155412,
                0.289453,
                0.207186,
                -0.48202,
                -0.142383,
                -0.285874,
                -0.107898,
                0.0150924,
                0.323929,
                0.563254,
                0.70788,
                -0.824891,
                0.16672,
                0.200424,
                0.074851,
                0.224444,
                -0.605496,
                -0.193214,
                -0.211111,
                0.279436,
                0.29023,
                0.0828159,
                -0.761668,
                0.320629,
                0.220029,
                1.3816,
                0.448101,
                1.01422,
                -0.530289,
                0.139705,
                0.105302,
                0.593442,
                0.847655,
                0.673463,
                0.0295411,
                1.19186,
                0.86873,
                -0.404774,
                -0.635261,
                1.9528,
                1.02058,
                0.284399,
                -0.223577,
                0.0421566,
                0.0499624,
                0.815332,
                -1.33172,
                -3.46262,
                -0.720443,
                0.290479,
                0.305021,
                -0.562203,
                1.35587,
                0.561279,
                -1.19243,
                -0.307708,
                -0.0366943,
                -1.42513,
                0.315497,
                -0.739004,
                -0.996794,
                -0.803491,
                -0.0536778,
                -1.92232,
                -0.118322,
                1.31534,
                1.94757,
                1.19256,
                0.715026,
                -1.01737,
                -0.527108,
                0.343096,
                0.814299,
                -0.471662,
                0.717745,
                -0.537125,
                0.230845,
                -0.0592835,
                -0.125942,
                -0.0892635,
                0.274856,
                0.534888,
                -0.160354,
                0.191513,
                0.0829716,
                0.0537648,
                0.0774995,
                -0.0507747,
                0.245171,
                -0.246896,
                0.345997,
                -0.164132,
                -0.241987,
                -0.143239,
                0.156178,
                -0.152612,
                0.475975,
                -0.0624928,
                0.0269903,
                -0.0659911,
                0.403358,
                0.105167,
                -0.150195,
                0.078622,
                -0.273172,
                0.170456,
                -0.0578622,
                0.0109671,
                -0.00599403,
                0.0428321,
                0.307077,
                -0.0729979,
                0.0726177,
                0.591816,
                -0.297546,
                0.146122,
                -0.107628,
                -0.185195,
                0.0748913,
                0.525521,
                -0.41207,
                -0.312411,
                0.114664,
                -0.24144,
                0.307193,
                2.41898,
                -0.986376,
                0.158432,
                1.43813,
                0.826514,
                -1.2503,
                -0.623089,
                1.09025,
                0.614285,
                -0.397652,
                0.00554577,
                0.403481,
                0.294607,
                -0.229526,
                -1.16617,
                -2.79408,
                -0.690541,
                0.0750129,
                -1.88295,
                1.41909,
                -1.20905,
                -1.6804,
                -0.0204616,
                -0.0232383,
                0.54034,
                -2.09312,
                1.64089,
                0.367312,
                0.228107,
                -0.836779,
                0.155741,
                -0.111749,
                2.19185,
                -0.23973,
                -0.214367,
                1.01883,
                0.735217,
                -0.913652,
                0.226353,
                0.330817,
                0.207347,
                -0.46138,
                1.07815,
                -0.306422,
                0.392168,
                0.899495,
                -1.25206,
                0.515965,
                -0.744828,
                -0.295832,
                -0.192611,
                0.189468,
                0.430224,
                -0.280327,
                0.378415,
                0.489464,
                0.241388,
                0.0625361,
                0.368654,
                0.146929,
                -0.637077,
                -0.130428,
                -0.503156,
                0.0204916,
                -0.944103,
                0.469097,
                -0.391318,
                -0.574597,
                0.0379346,
                0.257991,
                0.645138,
                -0.0564862,
                -0.252051,
                0.22557,
                -0.549241,
                -0.284143,
                0.59491,
                -0.0861522,
                0.0721625,
                -0.569171,
                0.144471,
                0.138293,
                -0.382436,
